34 64
1 0.008078273 -0.042030405 0.40062404 0.11953966 0.48484567 0.17438081 0.017891342 -0.11143745 0.11205666 -0.042961396 -0.11496503 -0.13803165 -0.13536935 0.25806987 0.11679406 0.03566781 0.015129023 -0.23897906 0.26344776 -0.027189856 -0.11842826 -0.04231898 -0.08389248 0.08761319 -0.0065092454 0.3696525 -0.064724185 -0.06443636 -0.07691082 -0.081183925 0.14258195 -0.09907175 -0.010586087 0.018180823 -0.2267546 -0.016767444 -0.14703342 -0.044517312 -0.076977804 -0.2059614 -0.019227931 -0.039348945 0.21969375 0.16921133 -0.19736543 0.048938047 0.12245663 -0.056391012 -0.07477689 0.17475009 -0.29964885 0.0636369 0.13110347 0.062514156 0.12923555 0.15954313 0.22504492 -0.13285385 -0.17881852 -0.13534363 -0.36416608 -0.039673686 0.001439194 -0.18885182
34 -0.08481643 0.43336377 0.2810468 0.10767201 0.06516133 -0.12299886 -0.20386907 0.039040364 0.32866597 -0.15848327 -0.116051555 -0.07171913 0.05691767 0.2816965 0.18016076 0.122021966 0.11275073 0.058261354 -0.017033264 -0.23052466 0.033666737 0.08429705 0.22142471 0.12555389 0.25369486 0.05714675 0.022042222 0.17264779 0.07160039 -0.05039568 0.010095958 0.058357954 -0.0033893266 -0.030642364 -0.22481373 0.029422663 -0.035334032 -0.25831285 -0.16370825 -0.053485505 -0.58571666 -0.05086649 0.1257486 0.076225944 0.09324451 0.12241265 0.117992885 0.08565241 0.018158088 0.24657746 -0.14879079 0.01036734 -0.22831355 -0.19040601 -0.07364694 -0.01796535 0.3010719 0.26347283 -0.092256226 -0.0019004698 -0.36530417 -0.11684403 0.083960585 -0.04483574
33 -0.057107136 0.44204047 0.26575476 0.09551152 0.068442054 -0.08513325 -0.22615723 0.07386206 0.35010403 -0.18139346 -0.16901046 -0.07060247 0.051755205 0.27536532 0.24963143 0.15567693 0.084692016 0.08462096 -0.04548069 -0.20538577 0.008758563 0.10794939 0.24439165 0.16121513 0.21854275 0.055068843 0.020365804 0.14880562 0.08401727 -0.04883061 -0.031151222 0.07610692 -0.038123064 -0.01896005 -0.14697227 -0.019100467 0.020357016 -0.23118219 -0.17178965 -0.04957304 -0.5447545 -0.15647209 0.10512909 0.071640246 0.12617993 0.0725057 0.11409151 0.071889125 0.026142819 0.275058 -0.1400331 -0.0126610445 -0.25532904 -0.16824539 -0.06682322 -0.020425271 0.26137468 0.34226143 -0.09032045 0.042418625 -0.34003624 -0.11908706 0.11356659 -0.027741633
3 -0.043926105 0.22280651 0.43335772 0.04684946 0.31514734 -0.0698326 -0.037099447 -0.007132291 0.19064367 -0.14910987 -0.06528563 -0.062435918 -0.017897777 0.30106002 0.18408014 0.041553445 0.13730407 -0.018660767 0.18515843 -0.09245889 0.013956079 -0.021591617 0.039527714 0.08393607 0.1486344 0.16629028 -0.012539718 0.102949426 -0.1452918 -0.08397891 0.05812166 -0.068683885 0.06859717 -0.07105014 -0.2775709 0.02573621 0.0389492 -0.17137572 -0.06774732 -0.14907128 -0.32523343 0.06952225 0.061464563 0.2397926 -0.11760669 0.087742314 0.1101327 0.10291427 0.018872065 0.15507434 -0.26699433 0.024346977 -0.052874494 -0.17766872 0.036409765 0.12942094 0.22426966 0.121659234 -0.16657767 0.05963927 -0.34390354 -0.09501578 0.085383326 -0.11502066
2 -0.020338234 0.063349254 0.54717314 0.03823343 0.50885564 0.0032833668 0.06778165 -0.050207026 0.12052779 -0.13327797 -0.039053105 -0.07147696 -0.06136058 0.34514487 0.20318784 0.012355114 0.112741664 -0.110304125 0.32672763 -0.032769497 -0.039626136 -0.107895136 -0.10769519 0.0763021 0.06759208 0.27766836 -0.053739976 0.047290515 -0.27263168 -0.11870925 0.076902814 -0.1420603 0.1010892 -0.08207078 -0.3157114 -0.016500643 0.051444557 -0.08398432 -0.028775051 -0.21419758 -0.1411358 0.09399334 0.077979706 0.3279268 -0.23465785 0.053332243 0.10143151 0.07397794 -0.007962539 0.12116223 -0.37704283 0.038942937 0.050085023 -0.12839067 0.10233222 0.21280271 0.18487161 0.026297394 -0.19592541 0.10561036 -0.36235282 -0.07731531 0.077854134 -0.15131734
4 -0.020038942 0.060765248 0.56616807 0.028806033 0.5420927 -0.005766888 0.09146376 -0.061345715 0.10710474 -0.14586857 -0.03847698 -0.04989622 -0.08278957 0.32775733 0.19652784 -0.00750285 0.14283621 -0.12862103 0.35195526 -0.009703239 -0.013813366 -0.106492184 -0.11090133 0.052070543 0.078227855 0.2753638 -0.039042644 0.05964386 -0.3008327 -0.10721765 0.10360054 -0.17157654 0.11712182 -0.108366154 -0.34502932 0.0022986885 0.05766204 -0.09957517 -0.019864617 -0.21991393 -0.13947071 0.15296681 0.062365532 0.3702748 -0.27078116 0.06037493 0.10462903 0.10366291 0.014825077 0.10627901 -0.38287717 0.037095036 0.082199655 -0.1381375 0.116840184 0.24565709 0.20751342 -0.008753055 -0.2059095 0.086703405 -0.35630322 -0.07955957 0.0594982 -0.17308432
32 -0.1691909 0.2405366 0.17528279 0.2552868 0.067403644 -0.010913077 -0.09738252 0.031031089 0.28586546 -0.04806494 -0.03442719 -0.036090225 0.02070575 0.30635715 0.002934069 -0.057556123 0.122329414 -0.13472556 -0.042251904 -0.099562325 -0.05379169 0.014174325 0.16699019 -0.037559483 0.2536857 0.073979825 0.023701994 0.19419701 0.12383691 -0.03733943 0.0919502 0.048364356 0.092640676 0.14497508 -0.39025664 0.13397011 -0.41153702 -0.2112748 -0.15793829 -0.11050612 -0.5513084 0.020160139 0.23803765 0.024727557 0.08529052 0.2044608 0.12553899 -0.016750168 -0.03565973 0.2486437 0.03156534 -0.037000865 -0.006077688 0.003312817 -0.16113397 -0.14466232 0.27809823 -0.10581027 0.074449524 -0.26047936 -0.3916564 -0.046748504 -0.11321663 0.06983594
14 -0.0071463003 0.13244127 0.41478646 0.08812587 0.3765525 0.04150018 -0.04072847 -0.033105753 0.15903266 -0.1267302 -0.11211032 -0.0849436 -0.057268664 0.28513265 0.20156868 0.033516362 0.09087986 -0.098631695 0.18717605 -0.05657534 -0.04263525 -0.017711263 0.005427877 0.09380787 0.073856525 0.24506052 -0.016962828 0.038409725 -0.12786312 -0.09276461 0.07482672 -0.06692031 0.036788527 -0.02113169 -0.24742076 -0.011065488 -0.030044504 -0.099314064 -0.07508685 -0.18190499 -0.21607508 -0.018893184 0.12667954 0.22156927 -0.12135825 0.052530292 0.113341264 0.056246478 -0.0035531577 0.16529132 -0.280597 0.047194835 0.004594065 -0.055033047 0.05249111 0.13184781 0.21340987 0.034965873 -0.1612769 0.009844921 -0.35039324 -0.080960155 0.05427892 -0.13232267
24 -0.18286948 0.42454305 0.18344931 0.23453958 -0.042736005 -0.14377517 -0.15307236 0.08509718 0.3494809 -0.110604905 -0.050538577 0.0132815745 0.10669578 0.32952878 0.099618815 -0.0018233623 0.16480848 0.010123539 -0.091029905 -0.1863412 -0.006846396 0.031999957 0.23657577 0.013373189 0.3550676 -0.017422518 0.046035495 0.27736664 0.09649112 -0.049094133 0.026680443 0.0810734 0.096464865 0.07868992 -0.37265545 0.13072664 -0.26160878 -0.2732508 -0.19315223 -0.06484885 -0.73963284 0.010838874 0.16693173 0.064316176 0.16991821 0.2166685 0.11524755 0.055037327 0.025708904 0.24881405 0.0070081786 -0.04152956 -0.14577691 -0.12377922 -0.19788447 -0.14596987 0.27323902 0.09699579 0.062212896 -0.11644659 -0.38889158 -0.08678533 -0.04204714 0.09530594
9 -0.050072722 0.303134 0.29269382 0.12353329 0.15476061 -0.047784094 -0.14739452 0.008696437 0.26920015 -0.13079117 -0.12281598 -0.09254336 0.014605437 0.27679315 0.17555936 0.09906859 0.06892595 -0.018373031 0.042514615 -0.17335264 -0.01611456 0.046312764 0.13429494 0.12274958 0.17558493 0.12570158 -0.00052902935 0.11168244 0.028639521 -0.059564374 0.025469702 0.02246957 -0.013761964 -0.011103416 -0.19993405 0.009049672 -0.05671618 -0.18634282 -0.13298489 -0.08443629 -0.42755982 -0.06554768 0.1499658 0.08339316 0.044739887 0.09109783 0.10622791 0.047766846 0.004796864 0.23356737 -0.17614408 0.028603945 -0.13100268 -0.101392984 -0.029785803 0.010087708 0.2617808 0.16179058 -0.108301915 -0.02885115 -0.35054743 -0.09529981 0.067021415 -0.06930074
8 -0.020333601 0.119468234 0.5356623 0.040239215 0.48586163 -0.006994962 0.029451951 -0.054794196 0.119864844 -0.15101035 -0.074413784 -0.06569589 -0.07145783 0.31622213 0.22529678 0.0216901 0.14070456 -0.08388191 0.29430687 -0.04438626 -0.008881613 -0.068209276 -0.049105834 0.08119568 0.083836846 0.2582279 -0.028044853 0.05968687 -0.2502927 -0.09598707 0.0850459 -0.13105513 0.09126225 -0.11168069 -0.29922107 -0.005995247 0.056495365 -0.121671334 -0.043760926 -0.19918957 -0.18317872 0.08000649 0.07079996 0.33009312 -0.223904 0.050151706 0.11710041 0.110692374 0.031959057 0.12657146 -0.3685589 0.05207834 0.03844373 -0.14995654 0.1086183 0.22691697 0.22805321 0.053913794 -0.22119302 0.09709869 -0.36236235 -0.07557813 0.07664872 -0.17743407
28 -0.1768316 0.2595371 0.24377336 0.22180714 0.0858776 -0.076149784 -0.061390113 0.04455863 0.2611705 -0.0738639 -0.005244676 0.011804924 0.028559802 0.31814143 0.048469994 -0.0545467 0.17172582 -0.06889422 -0.019468676 -0.11630412 -0.0049989265 -0.024543328 0.15802322 -0.04773076 0.2920796 0.043478817 0.036264006 0.23514491 0.036559988 -0.043994617 0.06811692 0.016040556 0.15848896 0.084023535 -0.43035296 0.14401259 -0.32518032 -0.2346606 -0.16513246 -0.104610056 -0.5753163 0.07845443 0.16669454 0.10239023 0.06722857 0.20701717 0.12069016 0.030800302 0.014148268 0.19514841 -0.026615664 -0.04434118 -0.03754356 -0.0965775 -0.1648193 -0.09448872 0.25824577 -0.043799557 0.049756538 -0.16543043 -0.3814667 -0.054833528 -0.083590336 0.0688384
6 0.0735197 -0.18712427 0.3989414 0.20046076 0.6691627 0.52396035 -0.03790148 -0.15243143 0.1948285 -0.024806652 -0.30449072 -0.32627618 -0.26690125 0.282211 0.13439313 0.08525229 -0.12536806 -0.47931102 0.25901237 0.03146542 -0.23448609 0.063623525 -0.04471201 0.14886229 -0.18231781 0.63950235 -0.11048485 -0.28554484 0.1520534 -0.08026933 0.21396647 -0.060224727 -0.2051694 0.22122611 -0.10163919 -0.12147646 -0.36816016 0.023421997 -0.12034774 -0.30676708 0.2223581 -0.33969465 0.4281239 0.031909414 -0.21371181 -0.027704895 0.16046561 -0.26959696 -0.21409898 0.34468874 -0.29190093 0.03585285 0.20382795 0.33158612 0.22311947 0.13368025 0.28829533 -0.2685776 -0.23225838 -0.40464726 -0.49144673 -0.044699073 -0.056433145 -0.25275946
7 0.05494263 -0.11131347 0.30381998 0.22673796 0.5314243 0.5000773 -0.13444509 -0.11496718 0.22881709 -0.011580543 -0.3239187 -0.32937095 -0.21323386 0.260713 0.12151852 0.12019977 -0.13066697 -0.42549628 0.16097102 -0.010513915 -0.23994884 0.12215103 0.04042901 0.17547412 -0.13051729 0.5677969 -0.086412266 -0.23974599 0.22860712 -0.07032301 0.19775575 0.013474542 -0.24063875 0.2478592 -0.079717405 -0.11218608 -0.394514 0.0023283048 -0.15672426 -0.28123417 0.10929135 -0.38051632 0.43606645 -0.043480903 -0.11272144 -0.011054955 0.14943518 -0.25241876 -0.214271 0.38415438 -0.23411418 0.049208656 0.14430965 0.33287266 0.16540568 0.074392654 0.28582582 -0.23526457 -0.21344486 -0.43332288 -0.48841453 -0.041294783 -0.061818995 -0.23116463
31 -0.06090555 0.3231644 0.3292138 0.082464136 0.1621135 -0.101585135 -0.12215187 0.03559685 0.25726977 -0.15194009 -0.09323697 -0.059427537 0.03891418 0.2996295 0.19721626 0.07368847 0.11446975 0.029629398 0.05336369 -0.16497901 0.009341845 0.03273923 0.123040974 0.10770009 0.19018908 0.10626338 0.010677637 0.14173257 -0.040520675 -0.077880085 0.031678747 0.0029273347 0.03775527 -0.03201064 -0.24402393 0.014648383 0.00333099 -0.18916872 -0.123597585 -0.10711261 -0.44529778 -0.013359539 0.10838659 0.14448918 0.028711805 0.0888614 0.10881153 0.080340795 0.009038684 0.1877293 -0.20204899 0.0067935176 -0.15582933 -0.16441397 -0.033626247 0.032341853 0.25168127 0.20325948 -0.09854739 0.042480893 -0.3386931 -0.1021222 0.086388335 -0.054780763
30 -0.14303191 0.49791712 0.19299372 0.18588065 -0.053386994 -0.16439354 -0.21480854 0.07231825 0.3843472 -0.13439183 -0.0860088 -0.01840296 0.11525218 0.31939414 0.14980684 0.073822185 0.13402016 0.07283831 -0.109445125 -0.2670119 0.02142226 0.06502182 0.2558875 0.071100295 0.34679425 -0.014861503 0.0447392 0.2545533 0.10175905 -0.0502558 0.009412779 0.07711431 0.056562338 0.040039968 -0.3026048 0.09534222 -0.14767133 -0.29781148 -0.20999473 -0.031098956 -0.75460017 -0.044516597 0.16155688 0.03870753 0.19074158 0.18933332 0.1260799 0.067451656 0.009355941 0.26169196 -0.059656043 -0.028360015 -0.2561376 -0.18404078 -0.17766076 -0.13788956 0.31135866 0.23250382 0.017722508 -0.07087565 -0.39335337 -0.11755069 0.041120186 0.045987085
25 -0.24578506 0.2799357 0.15206513 0.30861792 -0.013888414 -0.10093387 -0.06237276 0.051954802 0.30914232 -0.038499065 0.04317719 0.044051364 0.053475674 0.33957413 -0.05611465 -0.12739398 0.18064381 -0.123808175 -0.07377584 -0.12627622 -0.036673635 -0.032170177 0.18610035 -0.10604096 0.36876312 -0.008234227 0.028001348 0.30320978 0.115229696 -0.032476574 0.09976196 0.04498946 0.18880503 0.1562949 -0.5206891 0.21940576 -0.5120728 -0.26463845 -0.18208483 -0.09814105 -0.70972896 0.12519321 0.23737934 0.031979654 0.13397579 0.2767751 0.11971282 -0.00979234 -0.011798492 0.23968197 0.09818753 -0.072375245 0.013706438 -0.04005001 -0.24276894 -0.20874591 0.29236922 -0.16380961 0.15773062 -0.29665837 -0.40657142 -0.04957459 -0.15990597 0.14705494
29 -0.10774413 0.27177626 0.2842844 0.13429122 0.16508828 -0.0702326 -0.08843073 0.017452532 0.24538888 -0.12282476 -0.06353027 -0.037930172 0.020077161 0.2935439 0.13096304 0.012892021 0.12845314 -0.052496947 0.06314406 -0.12613069 -0.016865598 0.010632063 0.104270786 0.047229752 0.20732425 0.0998663 0.017927814 0.16009745 -0.034189027 -0.065379575 0.052265793 -0.007825829 0.06269277 -0.00069621153 -0.3006905 0.060031667 -0.134767 -0.20586081 -0.101141654 -0.10078681 -0.46317142 0.038153455 0.13602082 0.13936771 0.0153746335 0.118665114 0.100552976 0.070440695 0.019829346 0.20468505 -0.13057368 0.006233037 -0.07806472 -0.104009606 -0.07556135 -0.0010324637 0.24608327 0.06523752 -0.063517265 -0.04556363 -0.3509853 -0.09664712 -0.003676751 -0.019405233
5 0.078392826 -0.12622981 0.3956073 0.17989434 0.6118999 0.44609946 -0.06255333 -0.14590518 0.17431018 -0.036970865 -0.29277113 -0.27808613 -0.22685269 0.2668685 0.16534202 0.09248513 -0.10315224 -0.3994239 0.26893935 0.024535257 -0.22239114 0.053641517 -0.05473097 0.17102821 -0.14873284 0.5720645 -0.09601612 -0.24205281 0.07556862 -0.09387369 0.19872108 -0.05473205 -0.18497306 0.15425588 -0.10528149 -0.10979525 -0.27039823 0.013743908 -0.103914276 -0.29071563 0.16518311 -0.30741587 0.36809897 0.06553314 -0.2098998 -0.024790017 0.15465347 -0.18981807 -0.17512824 0.32290217 -0.32100043 0.063049205 0.1796281 0.27451456 0.20786835 0.17897356 0.26555064 -0.2081967 -0.24672927 -0.3225705 -0.44489735 -0.0512051 -0.018416183 -0.27752298
11 0.10858119 -0.12756614 0.39337417 0.15698984 0.62641984 0.49983835 -0.110936515 -0.11588709 0.1868619 -0.03633149 -0.3394076 -0.32902154 -0.23277265 0.25453445 0.197353 0.14592394 -0.11840543 -0.38865626 0.22845665 0.022320336 -0.23716208 0.10444945 -0.015000682 0.2065947 -0.1773066 0.5896706 -0.08927426 -0.2758411 0.13056032 -0.08074188 0.18151689 -0.01827714 -0.24456592 0.1847891 -0.04338747 -0.15226467 -0.23423663 0.028871093 -0.1316185 -0.29986367 0.18632637 -0.3788953 0.38059273 0.032808304 -0.18992378 -0.0606183 0.14901502 -0.2002027 -0.18270132 0.35048047 -0.32822758 0.07250919 0.13645993 0.28998014 0.23584495 0.17703709 0.26794505 -0.15971692 -0.27944222 -0.32409698 -0.4752159 -0.036569957 0.0031379713 -0.2864458
26 -0.2652052 0.30930433 0.15818214 0.31300864 -0.045640875 -0.111160725 -0.055203617 0.06281494 0.3355643 -0.03041008 0.053404044 0.05539335 0.06839488 0.3527766 -0.042883154 -0.13213135 0.21737911 -0.12162378 -0.109855086 -0.13427106 -0.02895591 -0.040054772 0.22701143 -0.1345256 0.4085503 -0.040324233 0.052957483 0.33597982 0.1411341 -0.03625059 0.08393908 0.044756733 0.2265377 0.16272126 -0.5651095 0.24855348 -0.54504323 -0.28895712 -0.21506236 -0.09335698 -0.79333085 0.14853124 0.23421411 0.043924768 0.154567 0.30826047 0.12038946 0.011667347 0.00837704 0.23938015 0.110752806 -0.08041471 0.0014101678 -0.06868658 -0.2791898 -0.23062196 0.3217794 -0.15363687 0.18152519 -0.31089017 -0.4396073 -0.037313126 -0.1715337 0.17352766
20 -0.018935245 0.11321868 0.41034138 0.08695713 0.3849977 0.042705175 -0.02417917 -0.04547287 0.1723771 -0.11425067 -0.09868049 -0.08121699 -0.07237388 0.28622463 0.18004878 0.041883092 0.093933865 -0.12060356 0.19711965 -0.065544285 -0.04839104 -0.021770723 -0.0017427332 0.07821392 0.08485436 0.23685351 -0.03314445 0.03905446 -0.09585479 -0.071033426 0.07696514 -0.07297128 0.025713595 -0.025831953 -0.2486356 0.0029246863 -0.051010568 -0.115479805 -0.0872468 -0.1623156 -0.2034428 -0.007694896 0.14027764 0.20343046 -0.12701873 0.05305435 0.108722396 0.030480808 -0.017449703 0.15856166 -0.27221274 0.025191763 0.0061047105 -0.062405895 0.07523276 0.1293786 0.23045635 0.040506337 -0.1528576 -0.00472334 -0.3557222 -0.06959192 0.032038957 -0.12745103
13 -0.014049472 0.07204597 0.50535923 0.086271934 0.49703157 0.04088771 0.037203815 -0.07928572 0.12389007 -0.107432306 -0.060686212 -0.057801243 -0.09725437 0.30252227 0.18317059 0.003370397 0.12576208 -0.1452093 0.29434025 -0.029854065 -0.057012066 -0.0739199 -0.06845916 0.058651585 0.07331145 0.27639785 -0.040733382 0.040442932 -0.21610308 -0.09015067 0.10310216 -0.12340729 0.09777326 -0.06531499 -0.32375568 0.016662605 -0.02893325 -0.09655982 -0.064013794 -0.21041782 -0.17219846 0.07166952 0.11276129 0.30265725 -0.22526814 0.06882637 0.13045315 0.06611201 -0.005188183 0.13332023 -0.337559 0.04599161 0.09072094 -0.07980485 0.094895326 0.20141047 0.21726404 -0.022915289 -0.1781148 0.017755318 -0.36230367 -0.059063125 0.039204843 -0.16810705
18 -0.0050582835 0.008869428 0.50209105 0.09176772 0.5392857 0.13467732 0.036777258 -0.07237295 0.13002974 -0.0997442 -0.107124664 -0.10956555 -0.12429038 0.31700578 0.19002785 0.020460133 0.08465052 -0.1980854 0.2838648 0.0035459143 -0.08579996 -0.05341436 -0.06979808 0.06786489 0.028100127 0.33531207 -0.05813172 -0.014085542 -0.16040796 -0.09680098 0.1166593 -0.10986028 0.048012394 -0.00929706 -0.26888484 -0.017538713 -0.06689989 -0.0762229 -0.06916491 -0.22725551 -0.0804759 -0.009442708 0.15406734 0.25454128 -0.22236557 0.043971527 0.12196617 0.0108440425 -0.029865969 0.16708586 -0.32465163 0.038708463 0.10881653 -0.02466527 0.13300256 0.19775313 0.21857144 -0.050138254 -0.19649865 -0.028629176 -0.39602628 -0.046272974 0.020254282 -0.17083474
22 -0.010834043 0.016757518 0.47202975 0.08304538 0.50632113 0.11805545 0.050648198 -0.077240855 0.12896173 -0.09178731 -0.08703549 -0.10532584 -0.124941684 0.30307677 0.16546327 0.01279305 0.089879535 -0.18761258 0.27257207 -0.013398658 -0.07253813 -0.06219689 -0.06266075 0.047605194 0.026408533 0.32231376 -0.057792716 -0.016413333 -0.13181178 -0.0816556 0.11563373 -0.12167598 0.056110688 -0.016267512 -0.2709072 -0.0077009867 -0.08232909 -0.08780986 -0.07752941 -0.20936482 -0.080348656 0.0146780275 0.15477514 0.23068264 -0.2118505 0.044129774 0.11436772 -0.00943613 -0.045461867 0.14703883 -0.30623922 0.028550498 0.09799389 -0.026754748 0.114492714 0.1651936 0.23146014 -0.05380678 -0.17411107 -0.040156163 -0.37593302 -0.04975713 0.0087363785 -0.15275402
17 0.13101129 -0.14285502 0.348201 0.20845371 0.6306502 0.64172465 -0.18638313 -0.1264928 0.26221278 -0.04061247 -0.4329602 -0.4205643 -0.27554643 0.27142265 0.20449355 0.20502207 -0.21251768 -0.47544393 0.1879464 0.013482527 -0.27871412 0.17069596 0.042971224 0.27378845 -0.24479346 0.6800029 -0.12693045 -0.37136912 0.2847658 -0.08790211 0.19420122 0.029829964 -0.3789706 0.26919484 0.06579537 -0.21459316 -0.33674955 0.037491847 -0.15262105 -0.30830386 0.2706105 -0.5620899 0.476329 -0.06964535 -0.14676897 -0.099897526 0.16244681 -0.30439764 -0.2485663 0.45826697 -0.29379067 0.054218568 0.1273581 0.42167756 0.2655344 0.13263766 0.28807414 -0.18072484 -0.3086888 -0.45233914 -0.51472515 -0.054090627 -0.0060803243 -0.31600714
23 -0.101857714 0.41059047 0.22149684 0.15674397 0.005410486 -0.12971471 -0.19376999 0.06260521 0.33273435 -0.1241901 -0.093443416 -0.05919607 0.093593374 0.31695968 0.1459463 0.084767625 0.0997014 0.058391225 -0.054329693 -0.23104292 0.011021597 0.05153666 0.20021214 0.10369711 0.27725235 0.036836 0.032090303 0.20525421 0.0855442 -0.06408526 0.020369008 0.067960314 0.018873679 0.014425256 -0.24697688 0.04920618 -0.09976093 -0.24308704 -0.1797573 -0.064524144 -0.60120237 -0.063371584 0.16049662 0.04478199 0.14367674 0.15431555 0.11079418 0.050950624 -0.0005147696 0.24597384 -0.11062295 -0.0037011793 -0.21384367 -0.15171911 -0.12222771 -0.09313295 0.28524032 0.2197569 -0.016617587 -0.0407942 -0.3704376 -0.09654467 0.069620185 0.017977543
10 -0.08278944 0.33801267 0.35961086 0.08962655 0.18683112 -0.15152149 -0.10046048 0.023055695 0.25642872 -0.17545936 -0.07855681 -0.019094896 0.04255745 0.30178937 0.21071166 0.053174496 0.14651059 0.036187865 0.08337916 -0.16204688 0.036270313 0.0033628868 0.102619335 0.0895246 0.22400431 0.09385503 0.009851069 0.17357503 -0.10595475 -0.07730249 0.027634649 -0.023712488 0.08644076 -0.08389138 -0.295411 0.028567588 0.011788068 -0.21326764 -0.110888705 -0.09457516 -0.48322627 0.05156171 0.0784134 0.21012393 0.0043938104 0.113338456 0.113543406 0.12168556 0.055417202 0.16429567 -0.22103477 0.011796785 -0.1467392 -0.19827802 -0.047039192 0.0469923 0.24773268 0.19054268 -0.112779684 0.07073016 -0.3517171 -0.12233331 0.07488583 -0.058879953
15 -0.07516015 0.4136314 0.18420999 0.15200375 -0.00848939 -0.057090472 -0.24134645 0.069952704 0.34418765 -0.13353872 -0.16698149 -0.08714867 0.08028295 0.28638443 0.17839283 0.123560145 0.07074491 0.030755907 -0.091270484 -0.21701027 -0.015449376 0.11638199 0.24263705 0.14819689 0.23319237 0.055521693 0.029933363 0.15857573 0.14470711 -0.061205298 0.012292459 0.10500255 -0.055867847 0.04711136 -0.17564136 0.008518098 -0.1082119 -0.21959051 -0.17958282 -0.065080255 -0.5644733 -0.15975161 0.18097411 0.010546841 0.16068584 0.112335354 0.10273576 0.037132967 -0.004009755 0.2922964 -0.087163456 0.001975365 -0.23504099 -0.087796874 -0.109464675 -0.0888895 0.2711561 0.21927893 -0.039962772 -0.07801127 -0.3595226 -0.11446549 0.06231442 -0.011993855
19 -0.082608886 0.4303842 0.22598147 0.1522055 0.019787684 -0.13031642 -0.22847942 0.041589484 0.33109584 -0.14590183 -0.13260965 -0.07139675 0.07913126 0.29784852 0.17366867 0.11233183 0.08904733 0.061959468 -0.047533054 -0.23269159 -0.0037736604 0.08715403 0.21736082 0.1407183 0.2650221 0.06298269 0.033706132 0.18416019 0.07988787 -0.07434184 0.026691882 0.07860549 0.0025319362 0.009774976 -0.23080027 0.03347415 -0.08631095 -0.2374988 -0.17742987 -0.060767666 -0.60174286 -0.09376876 0.16344795 0.050012738 0.1400403 0.14710565 0.116672926 0.060011182 0.0033634186 0.26100534 -0.12755711 0.0151260635 -0.23350416 -0.1499984 -0.11440791 -0.06751446 0.29795673 0.22821404 -0.05208139 -0.04318446 -0.36687407 -0.10802333 0.07720853 -0.01167145
16 -0.08529889 0.51148504 0.18368581 0.14053044 -0.06228494 -0.13580953 -0.28033128 0.08892552 0.3865343 -0.15614457 -0.16174312 -0.075648926 0.115965925 0.29387185 0.20184463 0.1432167 0.091544315 0.11525704 -0.120668136 -0.26739842 0.024137089 0.124158904 0.28679904 0.15893945 0.27205124 0.014686792 0.045482256 0.18694925 0.1445013 -0.053548563 -0.0071424367 0.11855552 -0.040335342 0.014473383 -0.16983625 0.021400789 -0.042814907 -0.2686868 -0.19984607 -0.03186757 -0.6633888 -0.15206611 0.15575323 0.0037105288 0.20529564 0.11694662 0.1135976 0.06393958 0.0026376701 0.27851626 -0.09579658 -0.0047479942 -0.31641993 -0.16190839 -0.13190347 -0.11120273 0.2916828 0.33532107 -0.04224611 -0.020292342 -0.3636387 -0.12190137 0.10416115 0.011176262
21 -0.056402355 0.43362093 0.25281355 0.12636298 0.036741 -0.10282704 -0.2247436 0.06948757 0.33850488 -0.17305997 -0.15844823 -0.08699232 0.07544182 0.29745048 0.2086313 0.13346222 0.08486985 0.0714125 -0.04994604 -0.21734467 0.007643043 0.10002471 0.21234062 0.15779622 0.23605068 0.06374352 0.028877135 0.14772882 0.07840963 -0.07538713 0.001155423 0.07176304 -0.031219216 -0.006050656 -0.16558199 0.0011912489 -0.0046157474 -0.21911007 -0.17446655 -0.06150545 -0.54308426 -0.13170138 0.1369626 0.051428698 0.13184705 0.09670207 0.11655436 0.061838336 0.00239511 0.25110164 -0.1515448 -0.0055528055 -0.2585396 -0.1593191 -0.07311975 -0.046836115 0.25737256 0.3014794 -0.077900104 0.015245428 -0.35839647 -0.12324584 0.1116287 -0.022637734
27 -0.09698611 0.480986 0.23454872 0.14143005 -0.0075244233 -0.15465543 -0.22358185 0.073876396 0.35325933 -0.16252914 -0.13488634 -0.052543916 0.108421765 0.28929728 0.20957826 0.13043319 0.12534943 0.1120121 -0.059726793 -0.25366554 0.03124435 0.08819514 0.23394515 0.13828005 0.28384927 0.026311768 0.04673379 0.20675623 0.065973744 -0.05633517 0.0069101905 0.072180465 0.0025962912 -0.008675438 -0.21735342 0.038493395 -0.033019975 -0.27633464 -0.17947653 -0.036302373 -0.6516615 -0.091579564 0.13549696 0.08404621 0.16093092 0.13146885 0.116132796 0.08674754 0.03786192 0.24175523 -0.13607135 0.018691575 -0.28125945 -0.20304655 -0.10792136 -0.0584451 0.27236035 0.28694597 -0.06693947 0.018517023 -0.37229663 -0.124541625 0.08720206 -0.008820467
12 0.025902512 -0.034582637 0.43351912 0.095822826 0.53309995 0.20914139 0.009645302 -0.09351026 0.12182369 -0.060582932 -0.13858281 -0.13452674 -0.14876369 0.257823 0.16085331 0.024515083 0.039166793 -0.23208289 0.2779424 0.012242199 -0.12445315 -0.035882507 -0.07544379 0.084761314 -0.03501745 0.37593803 -0.05609109 -0.08024744 -0.10580546 -0.09114757 0.14443074 -0.10223719 -0.00548279 0.024912292 -0.22981645 -0.03394201 -0.11224649 -0.04204202 -0.07059254 -0.2431148 -0.012140482 -0.07246521 0.19730686 0.20316082 -0.22206225 0.024877924 0.11591764 -0.029500589 -0.076145805 0.18784188 -0.31310293 0.05606695 0.13235414 0.059793144 0.14491618 0.19396983 0.21606311 -0.117061555 -0.19652256 -0.11748972 -0.3711534 -0.048218228 0.021817299 -0.19954169
