56 64
0 -0.19319314 -0.019842906 -0.07649259 0.12650694 -0.12365597 0.16046405 -0.25829586 0.22008371 -0.24391964 0.06801691 0.3782726 0.55667526 -0.42598864 -0.3397885 0.2310061 0.06205441 -0.04926255 0.09543079 0.26166102 0.04623949 0.023988303 -0.033915825 0.21553521 0.084085524 -0.043328155 0.14065956 -0.01310725 -0.37139878 0.21673462 0.17147498 -0.25472134 -0.10882037 -0.0070554595 0.14470364 0.27153406 0.062785804 0.41057786 0.21662629 -0.2873595 -0.13177308 -0.18858755 -0.08768577 0.06778962 0.02091715 -0.19752796 0.024667295 0.21860334 -0.04996854 -0.04885972 -0.071958035 0.08714356 -0.10803147 0.13574971 -0.07194027 -0.2696408 -0.3329259 -0.082713045 0.054529496 0.042443145 0.023057435 -0.018052723 0.19443259 0.06380603 -0.00910842
1 -0.10402125 -0.14159314 0.02586842 0.21785986 -0.08526809 0.054716423 -0.3440958 0.0095309215 -0.24245775 -0.06386763 0.38133845 0.3665664 -0.3707119 -0.25702012 0.27254254 0.013916432 -0.067333534 0.055304866 0.3389845 0.07641307 0.15961967 -0.043631744 0.12355389 -0.018085744 -0.2535164 0.32478717 -0.19969352 -0.36946142 0.3614951 0.048052136 -0.078446664 -0.18220577 -0.16085133 0.124382526 0.046422362 -0.0147001175 0.52276427 0.06037409 -0.194023 -0.08846801 -0.12713559 -0.25793326 0.12354677 -0.03789453 -0.14676034 -0.008346603 0.2939464 -0.16966808 -0.15621087 -0.07958123 0.12116281 -0.047435623 0.033158507 -0.13746828 -0.2586026 -0.2709602 0.13833368 0.010135388 0.1520135 -0.019683199 0.096308246 0.12706627 0.106107794 0.014165938
2 -0.1048464 -0.16427007 0.07333382 0.12658368 -0.05147072 0.15444726 -0.3028751 0.21106824 -0.28240898 0.037375957 0.27299392 0.49322215 -0.3445729 -0.31916127 0.2372609 0.10754729 -0.068619385 -0.0084450785 0.34585714 0.12764256 0.16584103 -0.0557578 0.13656674 0.02859494 -0.112464316 0.19159332 -0.1384742 -0.3912312 0.332129 0.006607063 -0.23591465 -0.052565843 -0.07922444 0.15756929 0.09468751 0.053270534 0.48198655 0.087437764 -0.24045628 -0.0020432216 -0.124120794 -0.07201445 0.23772544 0.09476135 -0.09267278 -0.066423215 0.32572237 -0.06530895 -0.10552352 -0.024631636 0.073753305 -0.225606 0.051750667 -0.3057292 -0.15306382 -0.22484185 0.09105273 0.027948854 0.07428191 -0.041685503 0.15827328 0.07266833 0.22345996 -0.017856076
8 -0.06221512 -0.16224928 0.16094118 0.11791751 -0.2533974 0.019897342 -0.18393598 0.3606431 -0.22514217 0.2505305 0.4065255 0.33130226 -0.24086092 -0.319989 0.35779515 0.15144777 -0.065821014 0.13421962 0.11932619 0.32811007 0.09274669 -0.1772823 0.0818524 0.1554041 -0.08802116 0.19017664 -0.06875789 -0.3348756 0.041764583 -0.004183196 -0.3777769 0.031206902 0.016407683 0.20555678 0.114092164 0.069840476 0.5012969 0.18658432 -0.35660648 -0.14308222 -0.06162767 0.04824335 0.12836687 0.056436345 0.034806635 0.10522798 0.3130702 -0.16006017 -0.15352176 -0.23164381 -0.0016463326 -0.22016974 0.2299401 -0.10306512 -0.18191338 -0.33868676 0.06125435 -0.07301442 -0.004761329 -0.050618917 0.1849776 0.06472382 0.20723873 0.048609197
3 -0.13575545 -0.13984774 -0.03521208 0.1711577 -0.108983286 0.18471983 -0.27924553 0.09703637 -0.29659805 -0.07577281 0.22142418 0.5003724 -0.32452005 -0.3589933 0.13737227 0.09251154 -0.13318424 0.025152737 0.32299677 0.020475205 0.10551128 -0.02349888 0.28978333 -0.060558308 -0.12117663 0.25980383 -0.05423116 -0.399069 0.31636858 0.07219592 -0.23946828 -0.10892384 -0.055177815 0.10256467 0.2839974 0.03934332 0.43111932 0.06376423 -0.19712672 -0.11598481 -0.17516918 -0.1208902 0.18768477 0.041803334 -0.17305075 -0.02749964 0.2450125 -0.07961547 -0.06884311 0.08212373 0.16162586 -0.18195234 0.11457536 -0.16896403 -0.24927722 -0.2862805 -0.06804285 0.07030832 0.10078038 0.06363092 0.044576485 0.13404757 0.213655 0.043921053
4 -0.10290241 0.10519621 -0.07914461 0.106324635 -0.071409196 -0.005321818 -0.18902162 0.15283391 -0.3348826 0.026874594 0.38375497 0.2293191 -0.48730156 -0.14057663 0.31434116 0.00013169809 -0.22648677 0.024939092 0.2780804 0.024111139 0.086130165 -0.046937477 0.14705695 0.14444707 -0.028106492 0.16134657 -0.028694615 -0.34351757 0.30424058 0.27555054 -0.077901244 -0.20418504 0.09787292 0.26946244 0.16160607 -0.041187465 0.108482 0.075525 -0.283144 -0.13974686 -0.27499452 -0.17866212 0.06817374 0.14043583 -0.2691325 0.0781713 -0.094842285 -0.020799393 -0.21492338 -0.24446045 -0.064905554 0.18915878 0.22122191 -0.09575617 -0.06957663 -0.41918278 0.0968103 0.084015466 0.036480535 -0.06671807 0.14356244 0.43308917 -0.22384702 -0.23977134
6 -0.1374476 0.050019804 -0.013456003 0.15766959 -0.06812386 0.11389329 -0.21515754 0.24892916 -0.32340777 0.1429045 0.3296912 0.41142228 -0.4968538 -0.22566606 0.29099935 -0.041884955 -0.17532983 0.08766479 0.30449098 0.09368663 0.10186796 -0.12598877 0.19135083 0.13234086 -0.021106692 0.02442763 -0.073394485 -0.30886772 0.19986299 0.16614088 -0.25435442 -0.16893823 0.11582668 0.17182498 0.21934488 0.007255575 0.31159687 0.21737206 -0.3278276 -0.1547674 -0.19452913 -0.12843743 0.008698028 0.16666088 -0.17447318 0.10863098 0.10114168 -0.015272129 -0.10734999 -0.2647362 0.06968517 -0.008726937 0.14100492 -0.12480028 -0.10699172 -0.42694652 -0.04098006 0.05093548 0.045142658 -0.02746448 0.1358372 0.24579772 -0.0637469 -0.056604646
5 -0.10550175 -0.13651052 0.13889301 0.16096845 -0.157533 0.04721433 -0.30632114 0.108105145 -0.26466045 -0.046559904 0.2939491 0.40487015 -0.23330796 -0.24510306 0.22150233 0.10351584 -0.065141186 -0.01377103 0.23348612 0.06679553 0.11578857 -0.09142976 0.14219305 0.035677172 -0.15828381 0.2840822 -0.12861846 -0.4017883 0.24598624 0.094961986 -0.1497356 -0.183809 -0.077307835 0.115790844 0.23192345 -0.020203236 0.41895223 0.07818266 -0.20361023 -0.09655573 -0.20218116 -0.12307703 0.08047796 -0.04183982 -0.16251805 -0.04860879 0.18170224 -0.2015281 -0.10134181 0.01591879 0.14779192 -0.09293202 0.24112265 -0.06446386 -0.1949945 -0.32857975 0.0628879 0.0051532784 0.1462871 -0.0069380035 0.038971223 0.19644043 0.1681192 0.08106631
21 -0.13141556 0.005932017 0.019189013 0.10048288 -0.02414283 0.23375101 -0.26516828 0.33819184 -0.3228525 0.23955265 0.3347419 0.5518927 -0.4517248 -0.30452734 0.22674017 0.020764424 -0.099961415 0.04858883 0.358597 0.22079742 0.1338996 -0.10081294 0.15956172 0.09815517 -0.0111982385 -0.00472683 -0.16791448 -0.29043534 0.19646357 0.00016332735 -0.32432267 -0.0498643 -0.01656961 0.19629899 0.11328805 0.08745317 0.5252507 0.2692727 -0.39667338 -0.076088265 -0.12954359 -0.0693262 0.13070452 0.15310968 -0.069378324 0.09067435 0.3681783 -0.0009997021 -0.07163524 -0.2414116 0.072491944 -0.2676296 0.0069629056 -0.2700878 -0.11311414 -0.38455847 -0.017054334 0.022348482 0.054080788 -0.038210753 0.2333062 0.07425822 0.13451323 -0.023454156
50 -0.18343231 -0.053182114 0.026064813 0.19745703 -0.07721607 0.15648535 -0.39474732 0.04571111 -0.30195796 -0.11447452 0.24993205 0.54022986 -0.3320469 -0.30609038 0.16428812 0.11238096 -0.07091155 -0.030611154 0.35555658 -0.008615802 0.12049057 -0.07039109 0.1892062 0.029041374 -0.1470818 0.2551874 -0.12556839 -0.44412878 0.34833732 0.12064007 -0.097287335 -0.19527431 -0.116868064 0.10648561 0.26397404 -0.029079145 0.46750566 0.04677084 -0.21497421 -0.06872366 -0.25411448 -0.2017211 0.11091771 0.003624555 -0.23185244 -0.111071154 0.18043624 -0.14259744 -0.05947912 0.08680923 0.19204746 -0.118410826 0.12672779 -0.13781902 -0.21361196 -0.3023187 0.016880333 0.03244466 0.14689627 -0.0089552365 0.007121663 0.1733373 0.16633537 0.032748695
29 -0.037424047 -0.19722591 0.2544346 0.3201198 -0.32495737 0.14812873 -0.048241515 0.20190683 -0.36501628 -0.12253543 0.2093565 -0.05374414 0.13542348 -0.14456066 -0.014592906 0.013357658 -0.32632503 -0.06777405 0.047370605 0.10733627 0.014844009 0.020552373 0.23374644 -0.13970467 -0.34240243 0.49762207 -0.17327178 -0.30098587 -0.042530213 -0.032632977 -0.49914145 -0.22022055 0.25953814 0.16637774 0.6484423 -0.008660853 0.41182363 0.28086132 -0.15346038 -0.38441882 -0.08870352 0.03481131 -0.048529677 -0.041540004 0.03350725 0.1637292 -0.015137861 -0.42601117 -0.26031262 -0.07098221 0.067050174 -0.034346078 0.70041573 0.27973098 -0.199488 -0.7248407 -0.05761243 -0.037299983 0.26415616 -0.0053457604 0.17915173 0.20278092 0.08885995 0.31855366
39 -0.9710576 0.30659282 -1.1022601 0.853332 -0.44647267 0.9965366 0.29167303 -0.4446578 -0.03297528 -0.6936638 0.54857004 -0.9384276 -0.021350501 -0.9165419 -0.04725085 1.2330768 -0.23160681 -0.37650442 0.6864816 0.17304792 -0.82516724 1.2701223 0.8002993 0.08012499 -1.165438 1.1925994 0.79195005 -1.3848193 0.35885358 0.19633593 0.16345903 1.1980151 0.95964193 0.4623435 0.6590041 -0.53697944 1.0065677 0.0619837 -0.047716398 -0.26986232 0.44701323 1.0477767 1.1097282 0.11807277 0.11585191 0.09977249 -0.86489516 -0.7244498 -1.3392227 0.28228712 -0.1968049 -0.06615931 0.06055937 0.40918693 -0.20742834 -0.46723878 0.5281644 -0.57374406 -0.762727 -0.29547283 0.38479742 -0.69090104 -0.13145156 -0.3289614
52 -0.92391413 0.316251 -1.1144463 0.8509982 -0.35883316 0.9993932 0.24262415 -0.45694935 -0.052881498 -0.6480364 0.53053796 -0.9588513 -0.11856184 -0.8448204 0.021057812 1.1569933 -0.3107953 -0.37095934 0.7724469 0.22379728 -0.7459404 1.2238739 0.75397944 0.1181425 -1.1500306 1.106524 0.70287454 -1.3173325 0.42134482 0.1724894 0.1445297 1.1883068 0.9620641 0.47085038 0.48285988 -0.5585609 0.9812422 0.06579273 -0.054335695 -0.21869479 0.47043046 0.9629614 1.160332 0.22393413 0.13382079 0.11337974 -0.8215053 -0.64412695 -1.383097 0.17667621 -0.28736788 -0.028494056 -0.0895505 0.25590587 -0.124862276 -0.3870357 0.5950143 -0.52598584 -0.7821457 -0.3032662 0.48326766 -0.7230808 -0.16502684 -0.39831555
22 0.27729696 -0.54512006 0.29759204 0.012759339 -0.32447752 -0.12237289 -0.03425394 0.44816953 -0.28840423 0.3911116 0.5147474 0.28847036 -0.27631 -0.41468894 0.5105715 0.14132829 -0.1303708 0.3138855 0.027394481 0.55414903 0.2453836 -0.16236833 0.21067332 -0.077925354 -0.21442641 0.3695197 -0.13703343 -0.2865829 0.09071937 -0.20061703 -0.5417569 0.16737337 -0.11847819 0.2674547 -0.1883914 0.19522093 0.5938037 0.10080412 -0.33073857 -0.20331675 0.16257586 0.05334209 0.38093203 0.07753528 0.18352957 0.30117202 0.66976136 -0.18482952 -0.29633778 -0.33859614 -0.041778814 -0.4368696 0.12564822 -0.34310803 -0.28097647 -0.274258 0.18758857 -0.059761252 0.020028217 0.08145603 0.4420154 0.106450215 0.46990398 0.053354256
28 -0.15580404 0.32034886 -0.121726274 0.17976752 0.17146608 0.3825074 -0.21116051 0.39737132 -0.4195178 0.40581888 0.44167683 0.394711 -0.73317635 -0.18191972 0.27846688 -0.22084679 -0.30727842 0.124708325 0.5498695 0.2753307 0.20051877 -0.03334608 0.12763643 0.1791007 -0.038463704 -0.25183797 -0.25468376 -0.15432836 0.1988152 -0.020753091 -0.31825337 -0.10400238 0.1751267 0.28690976 0.011347526 0.021107402 0.5816706 0.47300437 -0.5205524 -0.15272725 -0.05476706 -0.1490032 0.07626185 0.35960022 -0.019967265 0.31479248 0.30887195 0.15516792 -0.25050104 -0.68644714 -0.052709278 -0.14539792 -0.19291571 -0.34460858 0.06141751 -0.5313019 0.015630841 0.056944903 0.014824676 -0.12834613 0.46365476 0.10269056 -0.19477288 -0.21568513
38 -0.19389574 -0.028866166 0.041069146 0.20654681 -0.084442645 0.14456388 -0.3237858 0.0803842 -0.24091356 -0.07569161 0.2799839 0.42478016 -0.2556795 -0.26373568 0.13288243 0.081466064 -0.052882373 -0.048246376 0.3087759 0.032896627 0.095170766 0.0020457008 0.1620965 0.015153038 -0.16022827 0.26827073 -0.121123105 -0.3796932 0.26174843 0.100953035 -0.077852294 -0.18781164 -0.092488736 0.11621732 0.27298248 -0.014117645 0.4815591 0.12918024 -0.21690474 -0.08295181 -0.20084247 -0.1480391 0.08378712 -0.056853235 -0.18566294 -0.06415125 0.18815626 -0.17253064 -0.10151817 0.021234637 0.1598691 -0.09016053 0.17826806 -0.06806246 -0.21055746 -0.36953613 0.05593099 0.0011021311 0.14292908 -0.050121587 0.017432077 0.13729577 0.112329304 0.04476274
24 -0.15844013 -0.1487181 -0.0019466695 0.17478248 -0.020659538 0.23988739 -0.32435453 0.12273047 -0.29063204 -0.026757555 0.21005458 0.5449997 -0.30602342 -0.37362072 0.10034072 0.08460263 -0.08134575 -0.0038073587 0.39028502 0.09489153 0.16918975 0.04317588 0.2699482 -0.117116764 -0.17600194 0.22950651 -0.11637482 -0.35915232 0.33889815 -0.023528235 -0.18083061 -0.04144137 -0.12507665 0.09445652 0.19164807 0.066152945 0.5595701 0.11515567 -0.21174264 -0.056760922 -0.11295196 -0.1411764 0.2474637 0.033851434 -0.11786885 -0.07364129 0.37094867 -0.09045352 -0.102972016 0.060625967 0.16955014 -0.2564921 -0.027967758 -0.26610398 -0.2071021 -0.2667972 0.018962976 0.025221923 0.12541762 0.0021385301 0.11573353 0.007383422 0.27755496 0.05389518
17 -0.16980076 -0.0098655755 0.13930061 0.2899713 -0.1928596 0.18250152 -0.13388166 0.25578645 -0.27782533 0.059865147 0.3130856 0.13326545 -0.1372965 -0.17738177 0.1266711 -0.026543653 -0.21130413 0.0040371004 0.16672611 0.13853306 0.02821513 -0.020113474 0.21874686 0.04854628 -0.24040726 0.20337424 -0.12831713 -0.26540956 -0.036373917 0.039171793 -0.36674628 -0.16951661 0.2647369 0.15357986 0.4635188 -0.060255434 0.46030498 0.3887783 -0.25622073 -0.28349337 -0.08509574 0.010524075 -0.06970565 0.0053517907 -0.016092194 0.1645049 0.06986729 -0.26429173 -0.20102635 -0.23904778 0.11425346 -0.016905693 0.38418838 0.18496677 -0.14410697 -0.6256028 -0.0575995 -0.061142802 0.13700764 -0.05586865 0.16326857 0.12998067 0.009668927 0.20881237
31 -0.16375086 -0.0604828 0.040899787 0.010408133 -0.007038457 0.14248127 -0.26571363 0.26731816 -0.23219854 0.09197502 0.3660165 0.681083 -0.44323352 -0.36888057 0.1838215 0.116551876 0.05667179 0.018541634 0.2754394 0.070052244 0.061093554 0.01982571 0.26397565 0.05121773 0.034308076 0.12875913 0.0053800065 -0.4011423 0.29216322 0.16783966 -0.14429809 -0.10488175 -0.13640496 0.14896747 0.22380851 0.10102312 0.43970555 0.14768983 -0.27012095 -0.006017392 -0.26712433 -0.022010468 0.14433034 -0.034891237 -0.25476304 -0.05377981 0.30384618 -0.006102364 -0.008459899 0.032320052 0.16888535 -0.1966182 0.067085534 -0.19604701 -0.21191615 -0.33019692 0.0026070736 0.04676785 0.09032049 -0.012196483 0.027122982 0.27076423 0.18088236 -0.042597603
12 -0.017513257 -0.13124706 0.2097133 0.40579504 -0.25624877 0.30983692 -0.0018402445 0.20650776 -0.3953732 -0.028923048 0.20266567 0.006211745 0.019893812 -0.23830248 -0.09060702 -0.08642856 -0.4197331 0.093372494 0.07916058 0.15057762 0.06631471 0.07173149 0.37018344 -0.21428463 -0.39425397 0.39512885 -0.13463317 -0.27552158 -0.08949779 -0.08093251 -0.58692855 -0.21076776 0.35647812 0.08949044 0.72978544 0.013098158 0.5459403 0.40391824 -0.1838316 -0.45573145 0.053724036 0.054575928 -0.08067123 0.012756228 0.032452185 0.26777032 0.079297535 -0.34509292 -0.30299574 -0.180368 0.17412657 -0.105700724 0.5626576 0.24427566 -0.19079407 -0.74705446 -0.19304587 -0.00954752 0.28964415 0.039573554 0.19217347 0.12269957 0.06323298 0.35610494
15 -0.13962719 -0.07262336 0.019345481 0.0033353593 -0.086525634 0.09002402 -0.2517935 0.22227967 -0.23193987 0.052072886 0.38751227 0.6201343 -0.4126154 -0.36628023 0.21642883 0.15180036 0.032892577 0.05569493 0.2233452 0.05458068 0.053659163 -0.012654875 0.21797489 0.06440687 0.0309786 0.20210554 0.0034674136 -0.4435624 0.30393907 0.18856221 -0.15460964 -0.114712074 -0.1488204 0.17266934 0.24194922 0.094076954 0.3881916 0.068025984 -0.27359834 -0.035638995 -0.25726774 -0.026740845 0.14413539 -0.03925325 -0.27833465 -0.032089673 0.26071775 -0.036824714 -0.017730888 0.04063715 0.124684505 -0.168163 0.1504158 -0.1669843 -0.23522496 -0.3100643 0.00056611846 0.06282553 0.08313718 0.010192108 -0.019202588 0.30211166 0.1620279 -0.06851245
16 -0.17419253 0.121241145 0.026673084 0.14166903 -0.26649195 -0.18834686 -0.3512563 0.020732163 -0.36319697 -0.16012047 0.42806792 0.026630115 -0.3504838 -0.0045114974 0.56413734 0.2978187 -0.13496011 -0.19718578 0.32892573 -0.0036147705 -0.0011698945 -0.30547747 -0.2374206 0.508682 -0.10677484 0.33545998 -0.16897395 -0.5885707 0.3809197 0.39473024 0.02976505 -0.2657568 0.07090722 0.41097912 0.013289564 -0.2532718 0.03704847 -0.15587337 -0.3199876 -0.03851254 -0.4592685 -0.17872348 0.06837124 0.19083738 -0.23560883 -0.085291244 -0.4296458 -0.26803654 -0.2742372 -0.13974525 -0.25403413 0.28804147 0.492256 0.021647666 -0.0033367686 -0.33150533 0.3603628 -0.022338768 -0.06556253 -0.16233085 0.12137362 0.46735275 -0.267923 -0.32444808
43 0.125181 0.11671797 -0.2822375 0.13695927 -0.10398498 -0.19826567 0.042873736 0.066340424 -0.5075583 0.05506014 0.5274091 0.00031633046 -0.80140096 -0.117770895 0.48638275 -0.22335352 -0.5769812 0.33046576 0.2925941 0.015823469 0.24067391 0.039113607 0.4134233 -0.005450103 -0.13820897 0.28595474 0.10241272 -0.24708186 0.42901894 0.3927692 -0.025920209 -0.2848292 0.26157296 0.36430526 0.06359101 -0.06872405 -0.15953897 0.06318069 -0.25812712 -0.4325939 -0.19102728 -0.3995772 0.19110967 0.30805779 -0.37180686 0.3998497 -0.16191597 0.045736894 -0.4939254 -0.62902623 -0.22293092 0.49324822 0.21435572 -0.20615013 -0.1446387 -0.5196478 0.12588084 0.25248933 -0.008222698 0.038381483 0.2975831 0.7821934 -0.544866 -0.5426396
23 -0.05572499 -0.18673468 0.15450493 0.28073645 -0.26713398 0.15019222 -0.06595009 0.12290128 -0.275035 -0.12874088 0.19898589 0.05709411 0.06438614 -0.23808837 -0.005664249 0.06563299 -0.22674464 0.0011685105 0.07445071 0.07310034 0.05171449 0.087471165 0.27276593 -0.18196248 -0.30692965 0.47491452 -0.058172006 -0.32377785 0.041943908 -0.0066010444 -0.33428583 -0.14069664 0.13421474 0.11380867 0.54202694 0.00045186447 0.44336343 0.17640808 -0.10663059 -0.30571648 -0.047519617 0.014885312 0.060209744 -0.089769624 -0.019394035 0.0983197 0.08798031 -0.34290826 -0.2331345 0.022077762 0.12467944 -0.07693001 0.4790051 0.16877201 -0.24518728 -0.5419258 -0.03891832 -0.039347507 0.21083644 0.012296825 0.08197027 0.12404654 0.1572724 0.24174285
42 -0.19215839 0.11845067 0.054935545 0.18204059 -0.3663793 -0.32013664 -0.5099543 -0.037962265 -0.37551805 -0.25136793 0.6221411 -0.13910566 -0.32435516 0.08222882 0.7511101 0.41781348 -0.14230011 -0.29131132 0.37737942 0.06919874 -0.017814826 -0.3638458 -0.45543146 0.6410369 -0.2419327 0.5566549 -0.3187732 -0.72629124 0.49868712 0.36810946 0.17332424 -0.27872834 -0.06131608 0.5425475 -0.13207006 -0.3256356 0.19270705 -0.27794206 -0.36251983 0.05690498 -0.4733592 -0.2484006 0.18507276 0.15125486 -0.21127287 -0.12822029 -0.45176038 -0.40737265 -0.45730442 -0.21393785 -0.40407658 0.3548324 0.57701975 0.012655637 0.017506078 -0.3483967 0.6823751 -0.10016188 -0.07516128 -0.2717192 0.24668398 0.4824173 -0.2931376 -0.4057145
10 -0.16893172 -0.14920464 0.101033986 0.092364326 -0.23543055 0.02947991 -0.23093729 0.29695165 -0.1446772 0.14341712 0.39449844 0.45566565 -0.2316189 -0.34187767 0.29484817 0.19328481 0.08001387 0.029117964 0.13100198 0.19890654 -0.01604403 -0.11017152 0.11796639 0.17338395 -0.049185656 0.1950286 -0.031457793 -0.3957582 0.10047312 0.106863275 -0.25362223 0.0073091253 -0.052510392 0.16812097 0.17794381 0.0675856 0.44025117 0.18316877 -0.3069221 -0.0838134 -0.17261818 0.05623167 0.0759053 -0.059693705 -0.0772111 -0.01603925 0.2629462 -0.18396325 -0.03369534 -0.028936066 0.09954014 -0.18775009 0.23262349 -0.021971129 -0.25890896 -0.33468378 0.026905313 -0.07214799 0.0024225854 -0.031198975 0.042378 0.10335839 0.23639522 0.0792515
14 -0.24973394 -0.057047106 -0.15512614 -0.18694788 -0.33574536 -0.20782754 -0.004151741 0.3998236 0.11284881 0.2826303 0.67444956 0.7879757 -0.58000183 -0.6246686 0.3974263 0.4687341 0.43963945 0.34374872 -0.11550836 0.24369296 -0.3625345 0.0070960363 0.441568 0.27583474 0.2606896 0.15267958 0.51339513 -0.6107437 -0.0047382 0.54172367 -0.056414574 0.19813819 -0.21759905 0.19216518 0.314825 0.15182713 0.23600544 0.070153 -0.3486889 -0.13657337 -0.4026554 0.2687669 0.06405221 -0.22776376 -0.4601279 0.07951724 0.18338278 -0.10148167 0.105140164 0.13726649 0.21832886 -0.19012739 0.17058624 0.12706119 -0.53022027 -0.41412067 -0.14392087 -0.12591481 -0.20714487 0.07723283 -0.31485605 0.5037852 0.26478672 -0.039028514
25 -0.10273089 -0.07292837 -0.02708901 0.14672802 -0.10572803 0.12054859 -0.1189119 0.16725409 -0.24660443 0.028948188 0.27580747 0.4016694 -0.3455882 -0.32977304 0.14048395 0.022188088 -0.12482297 0.12982307 0.21343882 0.05868761 0.07925978 0.06360582 0.3457882 -0.07332237 -0.099536315 0.20374815 0.049678218 -0.33076906 0.17287494 0.15111521 -0.19414198 -0.11512635 0.026744442 0.11035628 0.34839463 0.052707866 0.34450307 0.1503352 -0.20198971 -0.19973104 -0.13705859 -0.06753746 0.097428024 0.010312573 -0.19919819 0.08643494 0.18543342 -0.086646274 -0.12215778 -0.064922795 0.1500847 -0.076502256 0.15978934 -0.07053416 -0.2534409 -0.39873126 -0.08340005 0.04090692 0.07915881 0.051873215 0.015572021 0.23006798 0.09756339 0.009960447
19 -0.056772433 -0.14311174 0.268976 0.39978927 -0.2877744 0.33481735 -0.0058479873 0.2893896 -0.41106683 -0.00027983007 0.19802353 -0.10916445 0.13466793 -0.1712371 -0.06574765 -0.061911743 -0.4323493 -0.01918979 0.0796539 0.1896666 0.06154522 0.07751597 0.32203874 -0.18634447 -0.40048996 0.39230323 -0.1630745 -0.25064218 -0.14786105 -0.13676448 -0.6427811 -0.16901354 0.4348718 0.14623587 0.7346176 -0.021561084 0.5694677 0.45410362 -0.20281446 -0.44350457 0.048194516 0.12997364 -0.05532461 0.008118628 0.12706898 0.2728816 0.05182253 -0.38660425 -0.34914133 -0.21956097 0.11042611 -0.11029529 0.63834184 0.2860564 -0.12802662 -0.8081206 -0.12311913 -0.07053257 0.2711212 -0.020226743 0.28319755 0.06791272 0.07738853 0.39201376
18 -0.14961967 -0.12305593 0.109791905 0.094788894 -0.18053947 0.13238272 -0.2460138 0.36539444 -0.22986893 0.18690081 0.3643995 0.53130364 -0.28320542 -0.36003977 0.22778402 0.1035285 -0.024817137 0.039979264 0.17298695 0.18249342 0.054823674 -0.1063388 0.19896068 0.11160176 -0.020735564 0.14446835 -0.05943632 -0.3539721 0.11630507 0.057180088 -0.3670162 -0.038850475 -0.0021606581 0.16734186 0.26058248 0.104997315 0.48712516 0.2450455 -0.34087163 -0.10162235 -0.16358219 0.030879093 0.07372685 0.00525761 -0.07886982 0.018703585 0.32521448 -0.09534044 -0.024075108 -0.07198353 0.12134621 -0.22540188 0.21722941 -0.08615526 -0.21284336 -0.38479635 -0.039442267 -0.015654573 0.050825916 -0.021817015 0.096869566 0.10915311 0.22689906 0.09523636
30 -0.15594748 -0.18907745 0.1941305 0.30643478 -0.15769517 0.04304016 -0.46009713 -0.01541131 -0.2444172 -0.14652312 0.3096284 0.3871421 -0.22356832 -0.24402612 0.2809784 0.0763835 -0.050318807 -0.030985326 0.33881783 0.040153824 0.17482074 -0.14833541 0.07574075 0.041331537 -0.31067577 0.38215923 -0.25763458 -0.44331628 0.32383752 0.045244895 -0.083294846 -0.27809602 -0.14219777 0.069408275 0.16599971 -0.122442745 0.58861655 0.054123305 -0.16941957 -0.08178109 -0.18833175 -0.25560802 0.0737051 -0.102248624 -0.15077297 -0.10027421 0.27522677 -0.29345566 -0.10530488 0.028759718 0.2364032 -0.08597835 0.18300645 -0.05674301 -0.23608145 -0.30305043 0.14364997 -0.028474998 0.20703971 -0.023118809 0.02795523 0.093927845 0.21991785 0.16870432
47 0.23244365 -0.6237044 0.3984128 0.015964469 -0.31227154 -0.09899734 -0.0702509 0.6311077 -0.29809463 0.5389127 0.5090918 0.5286927 -0.3964811 -0.5473616 0.5877302 0.13227625 -0.058639217 0.38555655 0.08146238 0.6534835 0.2915621 -0.24888618 0.26258335 -0.04638399 -0.13823971 0.21561648 -0.102457054 -0.36202583 0.053929683 -0.21251965 -0.69878274 0.20602675 -0.07887915 0.23341401 -0.16659705 0.22592825 0.68836004 0.19375741 -0.39456382 -0.184984 0.156451 0.12009938 0.3847283 0.13377404 0.18598339 0.28056633 0.8268408 -0.1600627 -0.21689686 -0.3615123 0.100747585 -0.5977522 0.03721469 -0.44909033 -0.27296102 -0.31659222 0.09872493 -0.09025256 0.012539317 0.090574965 0.4549306 0.040529743 0.6278504 0.16906849
48 -0.056991447 -0.23661512 0.2529443 0.24922635 -0.15445223 -0.020756628 -0.43245673 0.10441366 -0.27913937 0.0064401166 0.35376003 0.48305115 -0.3066425 -0.25530255 0.37066433 0.022142159 -0.049420886 0.066404335 0.29747984 0.14147505 0.2484498 -0.23874542 0.07410562 0.03660834 -0.25208405 0.29342526 -0.28278887 -0.39839005 0.29154882 0.014234118 -0.14971961 -0.27752095 -0.1777312 0.08165647 0.06896538 -0.061826535 0.59717214 0.09050591 -0.23685314 -0.097869836 -0.159127 -0.2918009 0.0686892 -0.059104737 -0.118817665 -0.021059152 0.3994981 -0.24603128 -0.08427105 -0.09119347 0.23299006 -0.15251648 0.1273015 -0.15339814 -0.2432632 -0.30801576 0.13528556 -0.027451096 0.21212651 0.0018391572 0.097495414 0.13035646 0.25859174 0.16002408
36 -0.15064962 0.33191508 -0.04095392 0.2119482 0.23328285 0.4354415 -0.24757789 0.49660173 -0.5305297 0.5004201 0.37079182 0.47296453 -0.86745155 -0.19131857 0.36900413 -0.27336043 -0.3757138 0.13564959 0.68153447 0.33989826 0.29334226 -0.18632111 0.12298878 0.25020012 0.016270459 -0.4247219 -0.33410418 -0.16602796 0.20490257 -0.059870623 -0.44217443 -0.17550516 0.26782155 0.27600524 -0.01315106 -0.01866021 0.5893747 0.50756574 -0.5929985 -0.11640658 -0.060631566 -0.18716536 0.06741139 0.5239504 0.0022205887 0.35035396 0.3158627 0.22431803 -0.22429554 -0.8176875 -0.0098159565 -0.1861137 -0.25049338 -0.4902749 0.18483953 -0.55566484 -0.019546457 0.064378984 0.008345593 -0.14032538 0.57646984 0.0644996 -0.19105585 -0.2095716
44 0.15388572 0.0096562365 -0.35387486 0.11430856 -0.22028264 -0.25252137 0.09671315 0.07096762 -0.5801908 0.009963142 0.55609107 -0.061933458 -0.88856846 -0.17767811 0.6312778 -0.2564197 -0.74090284 0.4388548 0.28228173 -0.03378386 0.26002115 -0.0059240377 0.5031271 -0.040870775 -0.106936164 0.38674495 0.19702743 -0.32371953 0.42996025 0.514074 -0.19894738 -0.3071623 0.34550408 0.43409678 0.19688562 -0.02860752 -0.26990515 -0.038150225 -0.28398967 -0.54913956 -0.21209466 -0.40711495 0.20433189 0.37156 -0.4467103 0.46797058 -0.2834243 0.09103493 -0.58942723 -0.65985507 -0.34118965 0.602571 0.36364794 -0.15287647 -0.22287111 -0.56001353 0.03231209 0.33182 -0.08493027 0.15175413 0.25198618 0.9184164 -0.5728381 -0.62705
13 -0.14745747 -0.08327252 0.090670064 0.2210151 -0.07498043 0.08206187 -0.35197845 0.12029399 -0.27854604 0.017235711 0.33191085 0.42999375 -0.39743802 -0.2520917 0.30786696 0.004883537 -0.09165362 0.035795975 0.3501679 0.08073084 0.17176086 -0.13578184 0.13124423 0.09152282 -0.15598728 0.17873456 -0.16130857 -0.37744674 0.28490606 0.099648364 -0.14236553 -0.22157475 -0.040806342 0.11587076 0.13288102 -0.057443842 0.45615026 0.14134212 -0.24953747 -0.09693427 -0.19304526 -0.19910094 0.055260044 0.024300776 -0.1731851 -0.01274943 0.23698829 -0.12990986 -0.10012539 -0.12698203 0.15750666 -0.052977074 0.09796569 -0.13022856 -0.17698622 -0.3279499 0.06960886 0.01172792 0.1092851 -0.027798934 0.09097352 0.15997249 0.08863188 0.024220087
41 -0.1944986 0.1510726 0.03620163 0.2038815 -0.3688364 -0.3412425 -0.49474055 -0.11235006 -0.37760466 -0.32666793 0.6097885 -0.13748622 -0.3328236 0.074002676 0.75011903 0.4634461 -0.11746379 -0.3045658 0.40060562 0.0065207747 -0.014761931 -0.35544604 -0.44186762 0.6708459 -0.25023067 0.5941158 -0.2817274 -0.7851316 0.5400263 0.47909614 0.2673608 -0.3298296 -0.058394067 0.52799076 -0.13017954 -0.39409736 0.07979592 -0.32649875 -0.31806576 0.02229765 -0.5484677 -0.2845257 0.1693499 0.14013836 -0.28789398 -0.16389054 -0.5740373 -0.45071867 -0.45907366 -0.1554262 -0.38999867 0.42699146 0.6201345 0.04326317 -0.019565847 -0.34773245 0.6811753 -0.077888094 -0.081090264 -0.26668483 0.15610002 0.56608164 -0.34288087 -0.46502525
32 -0.246128 0.03422037 -0.019183261 0.09563032 -0.0831479 0.17731367 -0.29432356 0.19587737 -0.19302078 0.023316177 0.3744904 0.569931 -0.35195673 -0.33510768 0.16151927 0.13943096 0.050844975 -0.016343076 0.26284254 0.03461214 -0.012438429 -0.0033861708 0.18946578 0.122910894 -0.020258984 0.14366293 -0.03348398 -0.4188246 0.22259985 0.17340441 -0.13263585 -0.1286334 -0.083146155 0.14511736 0.3079729 0.025230328 0.44559416 0.17752667 -0.2820364 -0.03612028 -0.25943032 -0.032770842 0.0507212 -0.07321944 -0.2394565 -0.047555752 0.19514741 -0.08419915 0.004448455 0.04174195 0.17523459 -0.14298597 0.14489028 -0.031476 -0.23095116 -0.36397114 -0.036676783 0.004750113 0.07337198 -0.02148595 -0.039675638 0.19114216 0.12834094 0.019714441
7 -0.18955643 0.009015569 -0.020149367 0.11595074 -0.094493724 0.122364976 -0.24745473 0.19325583 -0.196643 0.05808101 0.37515798 0.5496969 -0.41242868 -0.3455685 0.21585973 0.104066044 0.019193374 0.085210264 0.255395 0.07750784 0.021069992 -0.021613542 0.24004632 0.09569433 -0.042798888 0.1494134 0.012464118 -0.39961407 0.2055918 0.19118811 -0.14268176 -0.12608358 -0.06610467 0.134493 0.2749599 0.01898685 0.42854667 0.17327747 -0.2761959 -0.10000987 -0.22351147 -0.068200275 0.061123203 -0.034065936 -0.25220796 0.021248434 0.21379714 -0.08957644 -0.044258215 -0.035069272 0.17882366 -0.114667594 0.12251903 -0.0581189 -0.25552088 -0.3746075 -0.047738507 0.0086875 0.060340885 0.005466344 -0.026999176 0.22007361 0.10893646 0.0019931016
9 -0.047101434 -0.29208398 0.13920085 0.09208915 -0.2816989 -0.029252421 -0.18998384 0.37523994 -0.18580289 0.267766 0.44600007 0.35234755 -0.22783425 -0.3506157 0.40081578 0.13406965 -0.012992019 0.119570024 0.10460326 0.32229066 0.09245072 -0.15723808 0.11673501 0.11748209 -0.11329099 0.2397315 -0.079868205 -0.31972203 0.08971236 -0.03198275 -0.39001432 0.11145701 -0.030413194 0.22160785 -0.0018196092 0.115708694 0.49174243 0.19355036 -0.33406448 -0.14078267 -0.02365334 0.036837608 0.17385301 0.012167033 0.06762893 0.08196122 0.43779263 -0.16275465 -0.11121991 -0.1903915 0.0125105 -0.25241613 0.1608752 -0.1286245 -0.26240137 -0.2987921 0.10341177 -0.06999235 -0.03412303 -0.009260004 0.21582924 0.022152973 0.30369207 0.061797887
45 -0.32867828 0.0521146 -0.30828753 -0.18147363 -0.2859153 -0.07761004 0.10280248 0.40150315 0.122467816 0.29266056 0.7139919 0.7914184 -0.6628483 -0.7161118 0.31231093 0.52896136 0.47891268 0.31675282 -0.07654602 0.2262195 -0.4891458 0.18071683 0.5616803 0.25003853 0.26686156 0.14331475 0.64410895 -0.66994417 0.008661781 0.6072191 0.010780907 0.30599982 -0.12698549 0.2204906 0.3780016 0.17410636 0.2459928 0.12909998 -0.35515773 -0.14666407 -0.36846006 0.36126727 0.09081644 -0.24228993 -0.4962226 0.132042 0.112507835 -0.08664287 0.115810886 0.16061032 0.28922328 -0.218779 0.121416606 0.17409784 -0.5372319 -0.47787088 -0.20751776 -0.13529909 -0.24138425 0.10154758 -0.3180773 0.5114011 0.1971802 -0.09688113
20 -0.20159002 0.037909556 -0.0449877 0.033010133 -0.13366647 0.05152257 -0.20435753 0.2659037 -0.16518044 0.13536176 0.44823432 0.53190917 -0.42541382 -0.32623842 0.27263775 0.15815206 0.06858034 0.073168404 0.1886213 0.1076658 -0.043045465 -0.021748034 0.2059156 0.18435119 0.03736694 0.12025784 0.06964553 -0.40560603 0.15579106 0.2541006 -0.11666489 -0.070822954 -0.056474764 0.18208602 0.2462128 0.046667304 0.33046055 0.1665324 -0.31963024 -0.07351212 -0.26492757 0.000117697375 0.05303356 -0.038474638 -0.24766815 0.022645803 0.1467149 -0.07141252 -0.041848756 -0.07208924 0.088763356 -0.07697613 0.173052 -0.02694203 -0.23734172 -0.38206676 -0.009250552 -0.009489065 -0.006361294 -0.025184866 -0.029240273 0.29507148 0.06634563 -0.053145308
51 -0.22932634 0.027919712 -0.017337993 0.1025204 -0.08773841 0.17847902 -0.23553132 0.25604236 -0.19242208 0.10420316 0.34705663 0.5729441 -0.37117374 -0.3328408 0.1609243 0.09952481 0.0157793 0.035889976 0.2278409 0.06572399 -0.012623566 -0.007602606 0.24939406 0.11261085 0.0061052535 0.08222464 0.013672812 -0.3820485 0.15201798 0.19196154 -0.1929592 -0.09976073 0.00049498235 0.13116398 0.34478816 0.052602634 0.41142446 0.23769398 -0.3016978 -0.08743231 -0.2381281 -0.004465262 0.018533923 -0.022659644 -0.22258244 0.002208972 0.19543071 -0.060604673 -0.010390447 -0.022204325 0.16731337 -0.13186364 0.1466563 -0.03886819 -0.20891324 -0.4013631 -0.08871926 0.013306941 0.05599498 -0.02568296 -0.025037924 0.20177995 0.09556612 0.027449694
35 0.0016161515 -0.004582537 0.004064004 -0.0038726234 -0.0063886335 0.0029099253 -0.0059546456 0.0038181054 -0.0005550163 -0.0072636562 0.0034446819 -7.446674e-05 0.00024644606 -0.007371787 -0.004359209 -0.0031161155 0.0077582784 -0.0073829554 0.002171761 -0.0060051493 0.005460237 0.002946157 -0.004412414 0.001295118 -0.0077880425 -0.007662116 -0.0026716397 -0.002437859 -0.004235876 -0.0061631175 0.002152745 -0.0072414624 0.0071542626 0.0071973526 0.00096656906 -0.007265091 -0.0034770162 -0.0039150957 -0.0023108819 -0.0009375778 0.0040703085 0.0077253985 -0.0023076574 0.0058667194 -0.0023049847 0.0014269381 0.0067528402 0.002700204 -0.0014860737 -0.00057459675 0.0051309145 0.003050908 0.0059509333 -0.006753522 -0.004961515 -0.0005398447 -0.0049204095 -0.003885299 0.0059617693 -0.0030662864 0.00020360126 0.00039444497 -0.000631154 -0.0006502991
49 -0.0013647528 0.0019550219 0.0024135243 0.005249403 0.0048089777 0.005123703 -0.0077230777 -0.006590899 0.0058911955 0.0031510391 0.00464686 -0.006633636 0.0014771764 -0.0044410424 0.007444312 -0.0010556538 -0.0018321172 -0.006544887 0.0068702763 -0.0037876556 0.0053218505 0.0065980814 0.0073304647 0.005843398 0.0014464179 -0.003412806 0.0048110625 0.000405278 0.0072713317 -0.0063311476 -0.007399058 0.0041801357 -0.0068239104 -0.0046181157 -0.003697149 0.001987891 0.0009075618 -0.0003752562 -0.0037038152 0.0073981984 -0.0045408704 -0.000971208 0.0062700235 1.3967006e-05 0.002841192 -0.00032537378 -0.0056085074 0.0014959144 0.003605027 0.005646399 -0.00597634 0.005464828 -0.007553216 -0.0024428135 -5.2797907e-07 0.004614253 -0.0069382414 -0.0028668954 -0.007514526 0.0031206235 -0.0033727372 -6.2855083e-06 -0.004561149 0.00182622
53 0.0008804758 0.0023551863 -0.00069791096 0.0012208747 -0.00013656443 -0.0005360415 0.0050849156 0.0018734232 0.004103419 -0.005644504 8.32205e-05 0.0024241235 0.005959102 0.0016386763 0.005549481 -0.006800038 -0.003793328 -0.0036875682 0.007236852 -0.0023053417 -0.000225618 0.0069735544 0.00095415866 -0.007777515 -0.0017352346 0.0017960571 0.003718036 0.0026562072 -0.0034378043 -0.004512535 -0.007494294 0.0015440581 0.0018197827 0.0040312116 0.00023572208 0.0023395577 -0.0053378353 -0.0071180947 0.0014335575 0.0031914462 0.0070441947 0.007300523 0.004462311 0.0019812963 0.00020926872 -0.0009935432 -0.0031759122 0.005850995 0.0068965233 -0.0054196483 -0.0038369657 0.0063651414 0.004968588 0.005030327 -0.0038369955 0.007106825 -0.0011557379 0.0010615448 -0.002534492 -0.0026429945 0.0010987419 -0.003497799 0.007471226 -0.005473218
55 -0.0039359485 0.005539837 0.004798503 -0.0022954748 0.0029472795 -0.00018780245 0.0060013505 -0.0022439305 0.0057186703 0.0037672878 -0.0077835857 0.0012716863 0.006468145 -0.0036666181 0.0031194661 -0.0016562185 -0.0040105497 -0.000114556664 0.0023905989 0.0056061377 0.006513909 -0.0015531252 -0.004571448 -0.005462898 0.003103207 -0.004482179 0.0063633835 0.0014052532 -0.007456512 0.005629181 0.005817488 0.006463282 0.0030991507 0.002410046 0.0039755553 -0.002190995 -0.0059767365 -0.00057269016 0.006307915 0.005653817 -0.00027902712 0.0007663453 -0.004283162 6.579568e-05 -0.0035949023 0.005561524 -0.00042111287 0.0012722209 0.0071937894 -0.00498725 0.0002360215 0.003318675 0.0075791846 0.0056478465 -0.005630544 0.0031765806 0.004185193 0.0057455455 0.0053021368 -0.0073673953 0.0050506247 0.00034263125 -0.0023027922 0.0059988913
33 0.0073974584 -0.0009134277 -0.0014093549 -0.00581955 0.006054317 0.00043851903 0.0072503295 -0.0023395796 0.004792692 -0.0064438377 -0.002208331 -0.0068300776 -0.0022066263 0.0015308732 -0.0034553136 0.0022920133 -0.0056837588 0.0050754305 0.0055988072 0.003854421 -0.0041008745 0.0019237341 0.005177905 -0.002120125 -0.0031494433 0.00038976752 0.006926211 -0.0013779845 -0.0029359786 -0.007625326 0.0016547551 -0.0058284355 -0.007109312 -0.0011002704 0.0037702506 0.0062894574 -0.0013705692 -0.00016367799 -0.0035227812 0.0004739608 0.0019903646 0.0072869337 0.0009357407 0.0058812033 -0.00054448936 -0.0074947653 0.00510352 -0.0052447864 0.006220728 0.007459864 0.0029188362 0.007005946 0.006476209 0.0012853956 0.0007951725 -0.0044086613 0.007255311 -0.0068378304 -0.00705053 -0.0003751044 -0.0022958363 0.0062764296 -0.005275932 0.0021673758
11 0.0076869815 -0.0077907946 0.0019226337 -0.003584524 0.0029855547 0.0008002794 -0.0063777277 -0.0066199615 6.659098e-05 0.00075205 0.0053969007 -0.0060757534 -0.00063858554 -0.0053314166 0.0059696776 0.002449134 -0.0047414214 -0.0023859434 -8.38042e-05 -0.0027522077 7.9086356e-05 -0.0037290393 0.0053647435 0.0034946033 -0.00046677978 -0.006668972 0.0045047193 0.003959035 -0.006628243 -0.0027320082 -0.0064091547 0.0016406078 0.003147411 0.0017907085 0.0013422514 -0.0016643435 0.0037513606 -0.0026993568 0.005100906 0.0029239904 -0.0034483077 -0.007067429 -0.0029445887 0.0034549106 -0.0036593273 0.0011619031 0.0033534449 -0.006724095 0.0058450564 -0.0075484524 -0.005415882 -0.0059653227 -0.0055823238 -0.0016118165 -0.0035581524 -0.0011774574 0.0035894162 0.0006089423 0.007715695 -0.0078075132 0.007469157 0.0040989364 -0.0016481738 0.0052682143
27 0.0050725113 0.0011294881 0.002425775 -0.0059697377 -0.0031774573 0.0014873386 -0.0016755799 -0.0074971244 0.0006362671 0.001808553 0.0075716246 -0.0049887113 0.0077561894 0.0038996467 0.0046301037 -0.0052259415 0.0017300904 -0.0011194852 0.004546919 0.0017812663 0.004508616 0.0019243961 0.0036431479 0.006428664 0.00089959946 -0.0013889282 0.0011949028 -0.0010769404 0.0038491494 0.005911755 0.0057430333 -0.00644019 0.004113348 -0.007137631 0.00035700254 0.002020607 -0.0027137313 -0.0019761005 -0.0065050414 -0.0037022533 0.0043520015 -0.0056354594 0.0015414412 -0.0005689352 -0.0027950143 -0.0013658224 0.0023159597 0.0042154603 0.0067840954 -0.0073488755 -0.00030854496 0.007754764 -0.0017289881 0.0046115736 -0.005382024 0.0012110763 0.0026353982 0.006399213 -0.0069523295 -0.004517434 -0.00758924 -0.006624321 0.0026238856 0.0069299447
46 -0.0027353032 0.0042252927 -0.0071730427 0.005856466 -0.0066660405 -0.0060263537 0.0008152275 0.0019361613 -0.0066932472 -0.005054104 0.007295562 0.00011093864 0.004945794 -0.0019011234 -0.003911801 0.0057628234 0.004696242 -0.0059036585 -0.0013997052 0.0012736621 -0.0063452492 -0.0024890946 -0.005898257 0.004346829 -0.0032193696 -0.0035894448 -0.0021998733 -0.005961098 0.0077873277 -0.0054657944 -0.0041962196 -0.0075069387 -0.004805108 -0.0018921845 0.0030072005 0.0058780215 -0.0014970048 -0.0020044423 0.006186948 -0.0045190435 0.006843517 -0.0011256434 0.0045127454 0.0076566366 0.003556286 -0.00486452 0.0009942737 -0.001772418 -0.0055237385 -0.00012960072 -0.0031248257 -0.006954698 0.0035431478 0.0059065497 0.0010315897 -0.0044657155 -0.0022707074 -0.0005996795 0.0001874637 -0.0041700015 0.004870806 0.0076557463 -0.0047055967 -0.0036678188
34 -0.00648928 0.0006190916 -0.0032766426 0.006354356 -0.0058521177 0.0067254603 -0.0005414245 -0.005101913 -0.007286904 0.0077521857 0.0028322467 0.0016278753 -0.0066316226 -0.005474877 -0.00043309052 -0.0023463436 -0.0016983771 -0.0009536048 0.002892402 -0.0050651412 0.006865147 0.0047757835 -0.0005335961 -0.0020803027 0.0038543432 -0.00395393 -0.0059383833 0.002146151 -0.007084673 -0.0051464145 -0.0052237427 -0.00080533826 0.0050462065 -0.0048349374 0.0025785975 0.004704699 0.0077494537 -0.006114417 0.0018443741 -0.003036359 0.0066425316 -0.0054530967 0.0018966558 0.001785557 -0.0019958608 0.0040716813 -0.0040485836 -0.005361421 0.0043858206 0.0062320125 -0.007135794 0.0038348008 -0.0020947326 -0.00055037945 0.0028991196 -0.001003533 -0.0047604013 -8.229338e-06 0.0039153127 0.0011110377 -0.0017281366 0.0067732306 0.0058152843 -0.0057575046
40 0.0005937852 0.0005297127 -0.0015265008 0.0024175714 0.0013947465 -0.0015386213 -0.0058375457 0.0035548417 -0.007611304 -0.0024381164 9.783533e-05 -0.0062056296 -0.004466508 -0.0052898116 -0.0032371217 0.0052405302 0.0018953813 0.0074850405 -0.0004695022 0.0076180506 0.007248329 0.0048006205 -0.0060723764 -0.003997826 -0.007164305 -0.006622335 -0.0028246243 0.0017027677 -0.0069791893 0.00032633106 0.007161956 -0.0058510345 0.00047766863 0.0061630416 -0.0026531068 -0.00052313047 0.00677336 -0.004644725 0.0057536503 0.0074546896 0.00426422 -0.0064310534 0.0038223779 -0.006825472 -0.00051175023 0.0062167803 0.0038066772 -0.0076936316 0.00053985085 -0.0017604781 0.004673169 -0.0032292507 -0.0042168866 -0.0017609457 -0.006370367 -0.0012926161 -0.0021648188 0.0018947518 0.0028647643 -0.0011361318 0.005668938 -0.0028821942 0.0057363724 -0.0046906266
37 0.006408635 0.0029358477 -0.0029732317 0.00714542 0.0052307188 0.0072803423 -0.004290942 -0.005625107 0.0016139216 -0.0064823586 0.004919375 -0.006555536 0.0015250823 -0.0058460026 -0.0028513172 0.003023582 0.0035904765 0.0009371709 0.004305032 -0.004214382 -0.0049290317 -0.0010476413 0.007181062 -0.007221245 -0.0016315776 0.006930089 -0.0074616414 0.0010190202 -0.0018979597 -0.0072824154 0.005157139 0.003059005 0.0024227728 0.0049833804 -0.0076305578 0.006948312 -0.007649015 0.0044540684 0.007749232 -0.0034865914 -0.0056284727 -0.007183138 0.0029055425 0.0061962456 -0.006427485 -0.0028520736 0.0007604097 0.0032884404 0.0025317383 0.0023039647 -0.0077797705 0.0021620528 -0.0069533437 -0.0010889067 -0.0019215838 -0.002282269 -0.0049157636 -0.0074389544 0.0020994549 -0.0074118963 -0.0013137116 -0.0030761955 -0.003754077 -0.0001528487
26 0.0065572723 -0.0023100763 -0.0073775435 -0.0049732965 0.0037535126 0.00034588363 0.007322662 -0.0044423607 -0.005335002 -0.0061062053 0.004859342 0.0016409328 0.0051555578 -0.0020434281 0.005310504 -0.0027247681 -0.0017794144 0.0018963931 -0.004285621 0.0028773034 -0.00021251153 -0.0041533033 0.0077770967 -0.0024466205 0.0006670388 0.0052297837 0.005217093 -0.005812416 -0.0037886961 -0.0022884717 0.0004403893 0.0034699226 -0.0024142738 -0.002694751 -0.0055865524 -0.0073471763 -0.0003106425 0.007784585 0.0019000659 0.0025933464 -0.0072869915 -0.0012471724 0.000618125 0.0017127643 -0.006351796 0.0019367025 -0.003784894 0.0009808731 0.0012005051 0.0004714722 -0.0009035773 -0.0038108756 0.0043400372 0.00491171 -0.0021515104 -0.0067450553 0.00016591254 -0.002751798 0.0056346827 -0.007337223 -0.005198289 -0.0025627033 -0.007299995 0.0055884644
54 0.005141749 0.0008350808 0.00093291036 -0.0055123796 -0.0075645936 0.0050429837 0.0050991005 0.0075408956 -0.007560307 0.0026893897 0.006057514 -0.007591745 0.005340571 -0.0073460303 0.0039983485 -0.0031004972 -0.0055527138 -0.0029680342 0.00022504055 0.0074809585 -0.0036352 0.0031192496 -0.0029216427 0.0075795627 -0.0033389516 -0.0058631073 -0.007640143 -0.0066321255 -0.007696339 0.0042940276 0.00037063684 -0.002598382 0.0025151032 -0.0052357675 0.00012975975 0.0028167774 0.001981238 -0.0035217411 0.0077376002 -0.0032306598 -0.007168509 -0.006092273 0.0058945064 0.004466717 -0.002774885 -0.005475017 0.006392741 0.0032946318 0.006743432 -0.004017193 -0.004037973 0.004863139 0.0057645766 0.0019650415 -0.00034082783 0.004978751 -0.0063918345 -0.0030231453 0.0037794858 0.004138079 0.0025391886 -0.0054566623 -0.0063248943 0.0057302816
