56 64
0 -0.063953444 -0.13438055 -0.024988828 0.032466672 -0.26675713 -0.30672747 0.11912559 0.016496383 -0.00056549214 0.22810504 0.15718095 -0.2920325 -0.29934773 -0.0854301 -0.04791813 -0.004576413 -0.16656147 -0.053747386 0.08491956 -0.24054708 -0.006441132 0.026627852 -0.020296143 -0.36479554 0.031683397 -0.1927285 -0.3650375 0.19230865 -0.13745676 -0.2864287 -0.0009822212 -0.007225208 -0.069393486 -0.0061113006 0.14395922 0.10886486 0.31859034 -0.17881279 -0.009111195 0.3445751 0.00943125 -0.10922282 -0.052228305 0.16313107 0.1797278 -0.10529819 -0.182001 -0.07616208 0.3015535 -0.18238062 -0.25801948 -0.28393298 -0.17793177 0.02592441 0.10540993 0.27729666 0.12565818 -0.1440569 -0.35658145 -0.17636271 -0.1191682 0.24286363 0.11448493 0.52501327
1 0.053852208 0.10730821 -0.08692279 0.24694958 -0.32773572 -0.35445705 0.19593412 0.11063391 -0.20304686 0.14568259 0.05274046 -0.3257105 -0.24053161 -0.04919798 -0.064480424 -0.067284815 -0.09609983 -0.109551854 0.06932772 -0.112911135 0.19133863 -0.07550495 -0.13242368 -0.23469296 0.054570265 -0.15509292 -0.33629397 0.09618592 0.105986655 -0.112511404 -0.008424585 -0.03416286 -0.17194648 -0.09047746 0.15290342 0.20287974 0.17598382 -0.23692995 0.0059867236 0.105692305 0.08062837 -0.13532403 -0.27722687 0.1318218 0.27553263 0.050127875 -0.3579671 -0.15402429 0.27853104 -0.23848014 -0.26487014 -0.2416337 -0.18128034 0.0004189073 0.22545783 0.3360485 0.040493954 -0.1825745 -0.425738 -0.06604494 -0.06842253 0.25187165 -0.0038326464 0.40729582
2 0.025503626 -0.0046731457 -0.003136925 0.095900424 -0.24744768 -0.3728782 0.25879484 0.040475845 -0.007754297 0.1257836 -0.04635849 -0.21528871 -0.21547431 -0.12978494 0.04713189 -0.002416114 -0.09833786 -0.042161707 0.04646022 -0.024878161 0.14810316 -0.07139758 -0.110273376 -0.3100053 0.030857442 -0.076145895 -0.367422 0.18620452 -0.12158844 -0.15279914 0.01564544 -0.021215755 -0.17407183 0.053848345 0.02620771 0.1451038 0.3562431 -0.27159426 -0.069499865 0.22190608 0.04400334 -0.28627038 -0.22268392 0.26813993 0.16360313 0.014157964 -0.28014362 -0.11055404 0.20341316 -0.09127001 -0.17153847 -0.32047448 -0.17330298 -0.10067296 0.12702751 0.30464882 0.07958153 -0.28416342 -0.45335022 0.03385448 -0.11648497 0.37111875 0.04178372 0.4478275
8 0.07095895 -0.15137915 0.01557533 0.04179705 -0.0739907 -0.1896774 0.14622879 -0.12254394 0.13779326 0.03868 -0.004624574 -0.2258368 -0.2509438 -0.042476878 -0.0018684341 -0.08763295 -0.102213345 -0.05665543 0.17804968 -0.17205495 -0.012418567 0.015424058 -0.17420937 -0.28623644 0.06748742 0.012114691 -0.3030111 0.33796823 -0.08996742 -0.44116756 -0.068382755 -0.12534775 -0.14733884 -0.16795984 0.04923072 0.24109252 0.2704268 -0.13268651 -0.12588361 0.26736516 0.14909221 -0.32313362 -0.28309807 0.24783973 0.3250394 -0.121665016 -0.3771399 0.05824704 0.120277666 -0.019828081 -0.19871491 -0.10199322 -0.25123024 -0.18949322 0.12262653 0.1271214 0.16692826 -0.21211787 -0.41344097 0.09103022 -0.10742191 0.12402777 0.18652932 0.6282833
3 -0.018295096 0.058654062 -0.082409024 0.09923208 -0.25472006 -0.4108037 0.22737513 0.15021858 -0.06396757 0.23476164 0.07027319 -0.29272154 -0.20829508 -0.09185838 -0.06847071 0.028818216 -0.122175194 -0.066285394 0.05719956 -0.15512286 0.0917843 0.00016927114 -0.004858492 -0.34856346 0.08273223 -0.21953261 -0.35829878 0.24807374 -0.16336088 -0.12732634 -0.025704926 -0.0038707636 -0.08850148 -0.041431196 0.11159984 -0.01555902 0.33320925 -0.21895342 -0.050887562 0.22642814 0.009315555 -0.17906499 -0.08920832 0.23807637 0.07022709 0.041624743 -0.23356442 -0.1835328 0.343492 -0.06883057 -0.1767526 -0.29424918 -0.16285999 -0.0024541942 0.1169167 0.39186254 0.08090398 -0.2709226 -0.33672607 -0.051073134 -0.12430984 0.27722394 0.030504366 0.45849252
4 -0.059643384 -0.16399105 0.13511159 0.19020316 -0.32954395 -0.41102806 0.17295396 0.08513464 -0.066953965 0.19962534 0.14106451 -0.40468955 -0.23604606 -0.034711372 0.06478484 -0.17942514 -0.20293665 -0.17305122 0.13504635 -0.35260496 -0.08058095 -0.0029749502 -0.20827 -0.22091419 -0.13240327 -0.19160545 -0.1494704 0.0013930869 -0.09387141 -0.41664904 -0.2070577 0.093078874 -0.13407582 0.13115972 0.256712 0.28000805 0.12685615 -0.1579396 -0.027368542 0.0067273607 0.068485096 0.103136726 -0.08880056 -0.10610999 0.33032864 -0.13358481 0.038448617 -0.07022879 0.19655438 -0.1276601 -0.2340868 -0.19187455 -0.09111266 0.053364363 -0.18283007 0.2576034 0.19300112 0.034049213 -0.32558158 -0.23255478 0.09292594 0.4003514 0.1527671 0.33477175
6 -0.070221186 -0.26971003 0.055238537 0.090322874 -0.33001843 -0.30300897 0.13519232 -0.008482778 -0.04129803 0.1810104 0.1345865 -0.3748918 -0.24331889 -0.084784195 -0.0040580207 -0.10042012 -0.15994436 -0.10989722 0.12579046 -0.299889 -0.051456366 0.049156334 -0.100280024 -0.4051504 -0.116723284 -0.09367341 -0.22113846 0.070603006 -0.08748746 -0.35705796 -0.15064502 0.036189657 -0.076649025 0.076433405 0.12008439 0.190994 0.24619016 -0.16118288 -0.11528563 0.19207296 0.08633299 -0.038295105 -0.08460766 0.1552761 0.40047455 -0.14135832 -0.12652436 -0.07128592 0.23727341 -0.1126618 -0.26128775 -0.30278003 -0.19744319 0.10270374 -0.023197893 0.16383815 0.17781639 -0.15613082 -0.30084 -0.11375785 -0.050982725 0.27457678 0.2119257 0.4368993
5 0.0810549 0.08646172 0.007265685 0.20890956 -0.19852912 -0.3983279 0.18440641 0.12666753 -0.043721702 0.18255176 0.068315424 -0.32641798 -0.24126078 -0.013741085 -0.008042271 -0.028561506 -0.07420967 -0.08432996 0.050064273 -0.22175089 0.03787628 -0.007645378 -0.06058074 -0.22037122 0.14788231 -0.19245118 -0.3765971 0.21579789 -0.09482146 -0.18053657 -0.0900083 -0.09968376 0.0069459146 -0.12026247 0.11398249 0.116411366 0.19436057 -0.19683246 -0.016118092 0.13089296 0.09313672 -0.14990489 -0.16485117 0.21838781 0.23886308 0.0741422 -0.25071952 -0.12146129 0.2479894 -0.1080525 -0.14867418 -0.19311167 -0.14536045 -0.043788023 0.19446924 0.29113537 0.13451186 -0.14916565 -0.36966968 -0.14694628 -0.12280514 0.21041128 0.012935375 0.43231598
21 -0.07175149 -0.2653069 -0.048375286 0.0076469206 -0.3341017 -0.23606513 0.19498959 -0.119732276 0.0069648116 0.13256638 0.049440634 -0.27429548 -0.25123498 -0.18044294 0.024304116 -0.077953435 -0.14887746 -0.06970393 0.11633639 -0.09323028 0.09632811 0.046882 -0.112059414 -0.45951548 -0.060285937 0.05646202 -0.33066267 0.08077404 -0.066269636 -0.23502986 -0.009236529 0.014828527 -0.17273459 0.05158979 0.024401717 0.21570365 0.40226465 -0.22219464 -0.18419282 0.35109183 0.0010024533 -0.25813627 -0.17059247 0.36530203 0.36898208 -0.15143463 -0.30498463 -0.054694947 0.14711493 -0.08435003 -0.29858494 -0.37510073 -0.251454 -0.020226015 0.08677692 0.16827416 0.09882871 -0.30194426 -0.39909708 0.028666476 -0.13988 0.2737937 0.20546697 0.513217
50 0.06270163 0.07031634 0.0013005142 0.19924217 -0.34113777 -0.44822776 0.23924892 0.17846256 -0.074982874 0.25811258 0.055191368 -0.35328063 -0.20697784 -0.043922365 -0.008742951 0.015603414 -0.114749976 -0.0536023 0.030521818 -0.17046404 0.08203696 -0.07328049 -0.0021300446 -0.2821586 0.12330651 -0.22764161 -0.40065783 0.1594275 -0.09118247 -0.04076816 -0.014986607 -0.053441588 0.015094619 -0.04327483 0.18704607 0.06389974 0.30257183 -0.24929202 -0.0023180123 0.17829856 -0.0048061004 -0.09273864 -0.10469164 0.22916421 0.21468224 0.09440068 -0.23091613 -0.18736213 0.32482985 -0.1802598 -0.17779952 -0.3300293 -0.13113064 0.007293618 0.17329305 0.3718353 0.11725224 -0.19993311 -0.40436083 -0.18885516 -0.17779133 0.29185537 0.03015543 0.4006374
29 0.08390802 0.0350824 -0.07735919 0.33432305 -0.02930519 -0.33637798 0.22630244 0.081890434 -0.1652706 0.03320929 0.27018088 -0.6105249 -0.3305535 -0.0068486407 -0.2523428 -0.1905065 0.032827355 -0.2265249 0.13733234 -0.57228804 3.6910198e-05 0.29299855 -0.017246762 -0.25779232 0.22981049 -0.30560538 -0.24156542 0.41025156 -0.38365895 -0.4663685 -0.279326 -0.04206418 0.25505224 -0.5152077 0.06501812 -0.097070135 -0.24438311 0.093783595 -0.362949 -0.010481868 0.2474525 -0.15241572 -0.22616223 0.19304796 0.2580538 0.031734224 -0.23408827 -0.10254896 0.17245656 0.57219046 -0.11094027 0.06807178 -0.116142616 -0.10477475 0.21231885 0.24131988 0.079379894 -0.16708304 -0.054493938 -0.104947425 -0.057943463 -0.11950168 -0.022342503 0.7095615
39 -0.021030517 0.094973065 0.45251697 0.35449284 -1.2033701 -0.041316893 1.1325399 -0.11034568 0.23594926 0.07675035 -0.26796058 -0.54998946 -0.29336774 0.37603524 -0.23801635 0.054166153 0.21932061 0.77469695 1.031338 0.09735313 0.26937336 -0.79931456 0.0606496 0.4209284 1.1126895 -0.8098275 0.41875532 0.73647565 -0.86895484 -0.5187113 1.0887476 0.3941535 -0.21103354 -0.9628718 1.2529083 -0.9534119 -0.40763348 0.11584576 -0.5155092 -0.65957516 -0.42763907 0.59172726 -0.5373523 -1.608168 -1.1135391 -0.44682252 -0.4339337 -0.2778819 0.44352522 1.2166871 -0.83809644 -0.5100825 -0.35743943 -0.94202757 -0.63685024 0.5048721 -1.0132251 -0.17910105 -0.7064898 0.34898213 -0.036296226 0.16346553 0.40617982 1.7455782
52 -0.02450939 0.023242101 0.46285877 0.3297023 -1.2526226 -0.035215143 1.156016 -0.13287601 0.19741946 -0.004198453 -0.3383788 -0.50935644 -0.26873818 0.3136569 -0.21125758 0.0030409985 0.20024276 0.75989115 1.0224719 0.21866097 0.34905532 -0.84751034 -0.015974863 0.40569043 0.96005374 -0.67779034 0.49200726 0.5985581 -0.801159 -0.48039678 1.0947521 0.44609186 -0.36371806 -0.83354133 1.1967026 -0.8450666 -0.36761627 0.05821282 -0.5275914 -0.7049267 -0.43636978 0.54396373 -0.5932448 -1.6090784 -1.0130972 -0.44441605 -0.4437573 -0.25180933 0.39038303 1.1424938 -0.8684168 -0.5610784 -0.36658275 -0.8978695 -0.7087071 0.5223119 -1.006353 -0.23120701 -0.74794 0.4487051 0.014470762 0.2657537 0.41575128 1.6511307
22 -0.028410967 -0.0073443837 -0.21963939 0.0047805887 0.14040214 -0.18151958 0.16378218 -0.1357187 0.08625661 -0.07794521 -0.11668651 -0.050494738 -0.3250558 -0.14348276 -0.048273414 -0.11333775 -0.114960335 -0.15720785 0.1968053 -0.016729733 0.18902278 0.122401945 -0.39467573 -0.33582318 0.08242054 0.21289073 -0.36150417 0.51441693 0.08691927 -0.6324553 -0.19517723 -0.18159515 -0.615517 -0.20521626 -0.2356374 0.31420004 0.4107884 -0.24131839 -0.1152264 0.18736638 0.27905494 -0.6310805 -0.5740807 0.38770786 0.25342035 -0.14210054 -0.641521 0.095662355 0.13182926 0.043589216 -0.2681148 0.052860986 -0.40967453 -0.3392821 0.1881603 0.18193552 0.11549243 -0.39337674 -0.5282466 0.5134579 0.087032765 0.20640099 0.0794692 0.75119084
28 -0.21868221 -0.6248176 0.023437345 -0.022734523 -0.6194179 -0.09124979 0.20489646 -0.30906066 -0.17807321 0.051100377 0.07519577 -0.47256485 -0.26913366 -0.30184397 -0.0157926 -0.27108333 -0.22717577 -0.056313615 0.20069514 -0.14219812 0.1939836 0.013016566 -0.20209682 -0.6089001 -0.3645417 0.23480985 -0.10122507 -0.20417295 0.04901764 -0.38019842 -0.02975817 0.24050255 -0.3043533 0.21623832 0.033343293 0.39464295 0.31477886 -0.124021515 -0.40911886 0.25183874 -0.02816704 -0.0700807 -0.26605776 0.2262059 0.7082534 -0.37754914 -0.26309794 -0.012533021 0.035695408 -0.04580018 -0.4678417 -0.5202777 -0.2932142 0.16396978 -0.12617475 0.049318273 0.08738873 -0.334588 -0.35594425 0.125638 -0.013741453 0.37467578 0.41315147 0.54373616
38 0.050405536 0.06538343 -0.009762621 0.2023887 -0.33433896 -0.3695028 0.19402339 0.10471347 -0.101788625 0.21789058 0.09315843 -0.36340442 -0.23829304 -0.044292506 -0.032260794 -0.0050449423 -0.09463072 -0.046097096 0.045357887 -0.2056891 0.08878365 -0.05184233 -0.005154865 -0.25782412 0.15435793 -0.20098455 -0.3656912 0.15158732 -0.075471886 -0.08147686 -0.026500477 -0.023223653 0.037592243 -0.121917784 0.16691016 0.085562065 0.19554336 -0.17096947 -0.03867218 0.17110199 -0.0004806291 -0.07975301 -0.15909277 0.17180417 0.20625268 0.049477316 -0.23811549 -0.16011679 0.25061145 -0.11477774 -0.20075765 -0.24868116 -0.13855669 -0.03252029 0.20416369 0.3049606 0.08956634 -0.16576037 -0.34067857 -0.18380682 -0.14303768 0.21232283 0.019484293 0.45207137
24 0.007872017 0.0837552 -0.11970352 0.10271713 -0.3401547 -0.35945335 0.24740472 0.073489785 -0.09714471 0.20017846 0.005255079 -0.26950836 -0.204912 -0.15602258 -0.033991374 0.05299941 -0.11101391 -0.009680937 0.014783982 -0.015079474 0.22368468 -0.064352505 0.020856323 -0.38116992 0.12982115 -0.107101284 -0.38091186 0.18293318 -0.0814086 -0.014724658 0.026504626 0.040755942 -0.14901714 -0.04166215 0.050656848 0.01958244 0.38324443 -0.24872643 -0.098634735 0.23413563 -0.038357187 -0.24522044 -0.20885296 0.30152377 0.06196619 0.036987394 -0.32651675 -0.21557425 0.2734029 -0.07291536 -0.21692638 -0.33782288 -0.17784873 -0.05893086 0.19870955 0.35904202 0.017570224 -0.36773613 -0.38974315 0.03900124 -0.15769336 0.3162679 0.0101749785 0.4722378
17 0.034644917 -0.17275958 0.00511839 0.182353 -0.23195586 -0.19896409 0.1351229 -0.09975745 -0.10792755 0.096242 0.23441228 -0.5170701 -0.31778958 -0.014686643 -0.15968415 -0.1556656 -0.037116375 -0.09123558 0.1536463 -0.4507189 -0.011208869 0.14271025 0.0038944052 -0.33706272 0.1357147 -0.15393387 -0.19629505 0.23354305 -0.20512928 -0.41296306 -0.16056813 0.008643276 0.17194684 -0.33903214 0.11539204 0.04368876 -0.07235285 0.0357719 -0.29299042 0.094917275 0.15655334 -0.0708321 -0.19175614 0.17204693 0.41678226 -0.10791053 -0.23845102 -0.08674622 0.16032591 0.27124563 -0.2503679 -0.14085259 -0.2112157 0.0021393455 0.17536072 0.08084303 0.09276788 -0.16738056 -0.12565435 -0.109338485 -0.11151001 -0.020921443 0.1645337 0.6624818
31 -0.07773525 -0.014204455 -0.035931047 0.002788234 -0.26874807 -0.36271924 0.1341811 0.041921776 0.04155404 0.33412004 0.15552846 -0.18397097 -0.2931335 -0.09453873 0.08073679 0.045074027 -0.19556431 -0.02260393 0.00037672787 -0.13589613 0.021652857 0.002496209 -0.007918055 -0.3303419 0.11466707 -0.12779683 -0.49153346 0.17504619 -0.09854096 -0.1995515 -0.045979645 -0.031143423 -0.12978235 0.10302317 0.074448824 0.13862084 0.45586818 -0.2518989 0.078169264 0.350453 -0.04726851 -0.1868757 -0.09223918 0.26778382 0.051969115 -0.069073826 -0.16938578 -0.14565799 0.2809811 -0.20464471 -0.22007044 -0.34496388 -0.18953209 -0.015762059 0.15037802 0.26615593 0.12585908 -0.20462021 -0.42427775 -0.20785436 -0.10613006 0.3650373 0.061921798 0.5035897
12 -0.020683592 -0.096002124 -0.13790825 0.22526173 -0.087261155 -0.20828646 0.196143 0.016385332 -0.23401757 0.06692223 0.31657293 -0.67366624 -0.3039678 -0.10202062 -0.3157055 -0.16934225 -0.024090575 -0.13761882 0.09242796 -0.58948976 0.061671603 0.27769995 0.07788818 -0.47018176 0.1806946 -0.25034162 -0.21029638 0.42468625 -0.39177886 -0.5049354 -0.27482536 0.012180609 0.19939594 -0.46626943 0.013337638 -0.19742955 -0.23230551 0.19180539 -0.51792884 0.053650435 0.27436087 -0.10709155 -0.26530707 0.24343458 0.24668711 -0.017196322 -0.33635363 -0.12740707 0.2670477 0.589022 -0.16362587 -0.057643924 -0.18712804 0.05041492 0.20956634 0.21824278 0.08654882 -0.31772053 0.018958833 0.04292645 -0.12588081 -0.13831052 0.09859658 0.8254834
15 -0.06349229 0.008252676 -0.018509848 0.03209576 -0.1892163 -0.40010095 0.15428945 0.09549216 0.060950223 0.30596697 0.13736321 -0.19057857 -0.2812341 -0.071635045 0.08268803 0.039316934 -0.18888481 -0.058419123 0.027609691 -0.17249134 -0.028743155 -0.0030407992 -0.0673645 -0.28160936 0.099575676 -0.19079675 -0.48934954 0.22669955 -0.12063121 -0.2570379 -0.043186586 -0.07530593 -0.13097985 0.0886457 0.12505473 0.12603696 0.4039316 -0.22993675 0.0954607 0.33421487 -0.002782676 -0.15630132 -0.07716103 0.2110002 0.042532153 -0.045862466 -0.16124168 -0.10119237 0.30493376 -0.22380699 -0.18950322 -0.28900862 -0.16112414 -0.040941473 0.10621705 0.3139703 0.17006773 -0.14901733 -0.44823223 -0.2186392 -0.10576622 0.34329274 0.04898808 0.48634
16 0.19904959 -0.10492488 0.42982298 0.49828893 -0.31051302 -0.6252764 0.37621045 0.21821816 0.097827174 0.059364207 -0.06539496 -0.46064684 -0.22177972 0.18995555 0.1766576 -0.28272793 -0.05352274 -0.24177107 0.33438218 -0.32602385 -0.21461864 -0.12160552 -0.443856 0.17526715 -0.08005209 -0.32343444 -0.1271564 0.027144093 -0.16274208 -0.41212907 -0.057156302 -0.12258258 0.06335779 0.012819157 0.4881079 0.44827938 -0.024597215 -0.2853347 0.118809916 -0.21379301 0.11390351 0.13912623 -0.07178527 -0.28739783 0.622869 -0.00046180128 0.07956005 0.090151876 0.10012245 -0.17077257 -0.1625309 -0.11219355 -0.026185274 -0.14848916 -0.27924964 0.3023447 0.2254452 0.31367669 -0.5962139 -0.4355719 0.0924211 0.37027538 0.118536785 0.20717402
43 -0.3361233 -0.25797218 0.07890079 0.24865916 -0.4124815 -0.48832324 0.11453126 0.20075676 -0.29187325 0.2242909 0.23357804 -0.5687922 -0.28416017 -0.09491313 -0.045564163 -0.2931978 -0.3961179 -0.3006916 0.1473385 -0.5894219 -0.01137089 0.04322283 -0.39085332 -0.36607382 -0.43893263 -0.21918267 0.12617777 0.0014611436 0.006070126 -0.81222 -0.58869123 0.32952756 -0.545154 0.27690643 0.2647908 0.36904943 0.033553924 -0.11309521 -0.059995927 -0.3057579 0.19136 0.3619352 -0.20302492 -0.45813844 0.3834255 -0.31867364 0.21033837 -0.07765956 0.35336939 -0.20678078 -0.36362964 -0.03228738 -0.16973156 0.20204099 -0.50070745 0.3976488 0.337101 0.0911206 -0.21097295 -0.05155361 0.50726455 0.6597598 0.2071827 0.39169422
23 0.05989644 0.1383939 -0.08963831 0.23853539 -0.08326271 -0.30592397 0.18792479 0.0966124 -0.13267574 0.102446705 0.18104813 -0.4861194 -0.253963 -0.024735041 -0.20911284 -0.07012991 -0.018621674 -0.10726952 0.08166308 -0.4092022 0.039312348 0.14057681 0.043552566 -0.24663854 0.27357617 -0.28149536 -0.25709555 0.41442809 -0.27690262 -0.33148172 -0.19422427 -0.029027425 0.13296333 -0.4105947 0.0731569 -0.14061706 -0.09056386 0.048084706 -0.24150859 0.015708048 0.15920143 -0.11310141 -0.2330442 0.13304882 0.0741862 0.051707335 -0.25492954 -0.1513953 0.24708824 0.36229005 -0.09432862 0.015103625 -0.12167313 -0.10708076 0.22066304 0.2726875 0.060974725 -0.19858302 -0.10669691 -0.03314882 -0.08358944 -0.031906143 -0.042996705 0.6675652
42 0.35872605 0.012194468 0.5424287 0.70545775 -0.4071206 -0.7228646 0.50677705 0.2872999 0.09764631 -0.029598897 -0.19921036 -0.52598816 -0.24536067 0.24842897 0.2258763 -0.39972156 -0.012839776 -0.27460963 0.42730922 -0.30242246 -0.14975588 -0.26019672 -0.65569407 0.42453116 -0.041233912 -0.31961074 -0.12348171 -0.019788258 -0.06624495 -0.4522271 -0.01770126 -0.15020274 -0.027038917 -0.10352028 0.6062703 0.68862545 -0.109655924 -0.37823 0.14991753 -0.3589288 0.147471 0.12929894 -0.26258555 -0.4548496 0.81219876 0.056446094 -0.07511191 0.13724369 -0.020148564 -0.22542082 -0.1890826 -0.017791202 -0.009536403 -0.38788682 -0.22059175 0.41086963 0.20222487 0.42965966 -0.84086454 -0.44130638 0.16162606 0.44455373 0.049322 0.2817407
10 0.07463867 -0.056274503 0.0046499344 0.06338005 -0.12724794 -0.22213228 0.11452388 -0.071751274 0.1651836 0.16812743 0.09104346 -0.16502492 -0.2909658 0.019875648 0.015532851 -0.010540344 -0.069658384 -0.04742963 0.1514215 -0.1702242 -0.05793403 0.027921341 -0.09022658 -0.21411736 0.1919303 -0.1166042 -0.40753838 0.30423203 -0.105858915 -0.301179 0.0048625567 -0.14767964 -0.031458825 -0.19633609 0.13544786 0.18098107 0.28864348 -0.18205035 0.030111285 0.33902344 0.048047923 -0.2613309 -0.14062598 0.23701459 0.20678075 -0.06672822 -0.28943074 -0.023004865 0.18075038 -0.101373434 -0.23058492 -0.16406882 -0.22943963 -0.17441554 0.19894157 0.14785615 0.116347454 -0.12748782 -0.4121364 -0.13558501 -0.16571338 0.102732 0.120956205 0.56011605
14 -0.14152186 -0.11916308 -0.05731701 -0.21522997 -0.07088501 -0.12515254 -0.13742734 -0.09507763 0.5251493 0.6448667 0.42888048 0.09232456 -0.36662766 0.2733212 0.08717133 0.20164946 -0.3090314 0.0319255 0.25325695 -0.29590645 -0.50263584 0.09534676 0.041062266 -0.092228174 0.424388 -0.27311945 -0.58070076 0.5384898 0.030377125 -0.5923935 -0.081836306 -0.25354075 -0.19891666 -0.10725119 0.38298902 0.102559045 0.640168 -0.18623689 0.5335038 0.5820638 -0.11143731 -0.021735253 0.13412109 0.027423935 -0.18508528 -0.3730644 -0.13621454 0.029703863 0.5073337 -0.4849429 -0.3943666 -0.11459916 -0.34292752 -0.17160113 0.050489545 0.025315072 0.21324223 0.07599392 -0.5126087 -0.47990385 -0.098344095 0.05067453 0.22674236 0.7971243
25 -0.09824571 -0.034610122 -0.08258842 0.05721008 -0.22264685 -0.30340576 0.10747081 0.06980737 -0.065758064 0.26705724 0.18874818 -0.30623716 -0.25215927 -0.071565226 -0.089833625 0.027542898 -0.17007513 -0.05033584 0.067346 -0.28043163 0.0027590238 0.045425136 0.025055777 -0.36814582 0.089263655 -0.20276801 -0.28209466 0.2575827 -0.11957533 -0.3084488 -0.16690086 0.0456365 -0.1038257 -0.05156372 0.09268399 0.00055594253 0.24717654 -0.0965357 -0.038977284 0.18110634 0.048837435 -0.05492372 -0.115739495 0.12414481 0.056454655 -0.08395494 -0.15052725 -0.16024129 0.32668698 -0.05108848 -0.20303752 -0.19640736 -0.18335032 0.037531387 0.086801484 0.26444632 0.1313802 -0.21083964 -0.21666342 -0.08404125 -0.04295622 0.22594012 0.0661994 0.54221016
19 0.05273726 -0.101194136 -0.069478065 0.24448365 -0.090124406 -0.21197751 0.22941774 -0.07468438 -0.20940371 -0.016177053 0.27710068 -0.7012754 -0.3408108 -0.08993674 -0.30367392 -0.22749713 0.033139385 -0.12946801 0.1482841 -0.5937166 0.047793258 0.29760414 0.055765048 -0.43139324 0.22157547 -0.21053782 -0.17977183 0.4199717 -0.45612273 -0.54060924 -0.2653404 0.024968572 0.265392 -0.5357561 -0.014490935 -0.16545476 -0.2889725 0.2000957 -0.58310604 -0.00017763341 0.27976543 -0.16753754 -0.30532947 0.24998936 0.3134726 -0.037836373 -0.3315389 -0.10566756 0.14703746 0.7522735 -0.15286995 -0.019467492 -0.18386722 -0.04096214 0.2016892 0.14101908 0.054477148 -0.32018512 0.03165141 0.057183366 -0.121737935 -0.16489436 0.10464317 0.878508
18 0.007671463 -0.123003386 -0.02901314 0.017572513 -0.15153438 -0.25666893 0.12393718 -0.06539462 0.09837503 0.16893527 0.10779891 -0.22875752 -0.29219183 -0.0823455 -0.010876556 -0.0166809 -0.11075338 -0.057649095 0.09691843 -0.19936936 -0.023981515 0.070783846 -0.05031992 -0.3686229 0.11701801 -0.07457834 -0.42517436 0.28154132 -0.16570823 -0.30701172 -0.051535737 -0.08353759 -0.035383683 -0.11599884 0.069516405 0.15499532 0.3344124 -0.17583154 -0.08445342 0.39850324 0.048846688 -0.30782562 -0.13992369 0.34237945 0.21939437 -0.07015543 -0.28219476 -0.055812627 0.19813077 -0.03070225 -0.22238766 -0.24784407 -0.23838834 -0.097677074 0.17731886 0.18836926 0.15239315 -0.2304967 -0.36498404 -0.08573675 -0.16844606 0.1546586 0.15605935 0.59343886
30 0.19721946 0.19209918 -0.0017131822 0.34066737 -0.30510733 -0.43905267 0.22940391 0.17278385 -0.18282111 0.16056441 0.014674923 -0.38609213 -0.23665379 0.021460537 -0.050305218 -0.023697626 -0.0198992 -0.06694414 0.053381193 -0.16859938 0.15288508 -0.10614519 -0.0718548 -0.2033601 0.19606648 -0.21212316 -0.38486296 0.19325623 0.034900315 -0.028302262 -0.026282655 -0.15336668 0.046143696 -0.2267576 0.14977033 0.14592992 0.13406432 -0.23072842 0.0019600464 0.07155653 0.13391982 -0.16983369 -0.2639494 0.25403816 0.39457682 0.18619272 -0.39466277 -0.18677653 0.2771597 -0.21665013 -0.18529308 -0.24049117 -0.17713712 -0.030680533 0.37272063 0.3368179 0.09128015 -0.19592562 -0.43617404 -0.1275061 -0.19757695 0.19582233 -0.026843915 0.4243254
47 0.02047135 -0.11756055 -0.22085622 -0.09278068 0.14539316 -0.17449757 0.12166793 -0.24814062 0.20326315 0.0052177967 -0.11608182 0.010938072 -0.33555377 -0.14585508 0.01021639 -0.049184576 -0.13195436 -0.102478154 0.20742863 0.038793568 0.15985633 0.11034687 -0.32207957 -0.506501 0.0926317 0.2783368 -0.44658774 0.60268146 0.06778825 -0.6598208 -0.20525157 -0.1981963 -0.63923776 -0.12910007 -0.32244617 0.30835816 0.62101924 -0.29601642 -0.13118255 0.37084356 0.3088101 -0.78400767 -0.5754192 0.64522314 0.31544104 -0.20496732 -0.7272503 0.056078535 0.18733916 -0.009828871 -0.26428983 -0.068888396 -0.4945442 -0.32319847 0.3004429 0.078439996 0.1446874 -0.56319577 -0.6157262 0.5859689 -0.027779687 0.25341028 0.15280508 0.875036
48 0.16936964 0.11178487 -0.054131147 0.27014938 -0.25104505 -0.40993184 0.15872921 0.103561655 -0.16049479 0.14591596 0.007932216 -0.33934167 -0.24915642 -0.031185674 -0.038885094 -0.043100893 -0.07912302 -0.10225386 0.05361729 -0.1601222 0.15813158 -0.06192873 -0.12086794 -0.29697266 0.11101051 -0.09002158 -0.40973178 0.19613735 0.1286371 -0.11872486 -0.10185476 -0.16259003 -0.06765261 -0.1631919 0.046695337 0.2485846 0.2563275 -0.25988075 0.0048932885 0.13393392 0.17805299 -0.2589251 -0.31217703 0.3689289 0.49895656 0.1298569 -0.4628156 -0.13943905 0.26600868 -0.29374802 -0.20556219 -0.21488409 -0.222488 -0.01464449 0.39196563 0.2735015 0.1456895 -0.23955292 -0.4665414 -0.02786448 -0.17182165 0.21723971 0.004367752 0.43615618
36 -0.20429817 -0.80428696 0.09196046 -0.039574668 -0.6821542 -0.13254388 0.2558674 -0.3575586 -0.1687655 0.039996482 0.028324317 -0.4950999 -0.23967658 -0.34689525 0.041433953 -0.3065386 -0.2158345 -0.09072791 0.23089857 -0.12867069 0.18377413 0.034210425 -0.2227283 -0.75292635 -0.5060279 0.32681724 -0.054727107 -0.2668246 0.036234148 -0.40405667 -0.07580487 0.25430986 -0.321021 0.3520308 -0.046500355 0.42343256 0.39871866 -0.1965711 -0.5114071 0.2531938 0.046473928 -0.13613376 -0.25881696 0.3863702 0.9221922 -0.40131438 -0.2798493 -0.008736717 0.019880781 -0.042984966 -0.4718468 -0.65558445 -0.35444567 0.2570164 -0.16066262 -0.020239372 0.12495697 -0.44634002 -0.38600147 0.22614694 -0.045122936 0.46186864 0.49714267 0.5220666
44 -0.36227766 -0.2846388 0.07892021 0.22891966 -0.31049398 -0.63571167 0.12905909 0.31871864 -0.31645983 0.23492272 0.26652035 -0.6292151 -0.3759393 -0.07604006 -0.1261874 -0.28210437 -0.4470775 -0.39574647 0.2596494 -0.7380246 -0.113114655 0.06788987 -0.4625555 -0.42098537 -0.52387273 -0.36541536 0.16140823 0.10658445 -0.09483746 -1.0585476 -0.7173188 0.3750734 -0.6246283 0.3358362 0.30002213 0.35228568 0.04255285 -0.13832277 -0.008457305 -0.31403798 0.26260045 0.38452753 -0.14649823 -0.5738695 0.30815324 -0.34239316 0.3110038 -0.11507986 0.45684943 -0.14483362 -0.30631846 0.036328003 -0.15088654 0.24705492 -0.6407195 0.5361037 0.43950227 0.09635001 -0.18488574 -0.09729873 0.63158804 0.7516715 0.19773057 0.48716727
13 0.055999026 -0.03294659 0.0154216755 0.20226674 -0.33687857 -0.36049476 0.17151488 0.06677634 -0.12047621 0.18113732 0.060041375 -0.35028073 -0.23453747 -0.047371097 -0.016450139 -0.054019433 -0.1111818 -0.07460504 0.08616162 -0.19170304 0.08900858 -0.05458298 -0.096833974 -0.3107927 0.033126753 -0.11863792 -0.31696084 0.10678131 0.01175633 -0.17217465 -0.07296593 -0.04993893 -0.064482324 -0.035568353 0.12715504 0.20768583 0.22878066 -0.22234893 -0.03107268 0.13674627 0.090007514 -0.12034117 -0.19169074 0.2172674 0.39141634 0.012322146 -0.27627486 -0.140882 0.25203317 -0.21717119 -0.23666778 -0.29385945 -0.2041904 0.04594567 0.18037967 0.24487841 0.12801725 -0.18405333 -0.3867482 -0.108106524 -0.11762486 0.27235463 0.091224134 0.41436738
41 0.33398652 0.05435379 0.5686025 0.7659479 -0.40587687 -0.7879386 0.52901673 0.34416267 0.09083638 0.008303475 -0.18636811 -0.5582028 -0.2554972 0.30429438 0.23972067 -0.3732276 -0.029230237 -0.2973481 0.4270044 -0.34968328 -0.18554541 -0.28249463 -0.6474801 0.4761139 -0.003950649 -0.41238514 -0.11424088 0.008291727 -0.07856106 -0.43147478 -0.03143336 -0.18083689 0.025898706 -0.09949519 0.6955123 0.6644156 -0.14262474 -0.39398098 0.22994319 -0.43117768 0.13135219 0.23367244 -0.21488203 -0.5445831 0.8009951 0.077424414 0.0294462 0.14121014 0.046068516 -0.29077238 -0.18960017 -0.034690093 -0.006501682 -0.35197577 -0.30222577 0.43366116 0.23307915 0.5005937 -0.82974976 -0.5407212 0.17800263 0.46180227 0.033845212 0.21383871
32 -0.02299496 -0.040085014 0.004750682 0.06504473 -0.2898129 -0.30919868 0.13702199 0.018638607 0.040293083 0.3039566 0.17681655 -0.2671603 -0.28178048 -0.041273203 0.016850164 0.010509974 -0.13972273 -0.024278507 0.065627955 -0.20324439 -0.025266133 0.0029260207 0.014747618 -0.2597831 0.15705135 -0.20904347 -0.4386646 0.15791965 -0.12923338 -0.17132 0.044600643 -0.053384356 0.021808384 -0.044460714 0.19983377 0.11149611 0.30884168 -0.18198459 0.039601546 0.35031837 -0.05968853 -0.10552776 -0.032207277 0.19218518 0.14415833 -0.042931225 -0.19515072 -0.1235251 0.2679678 -0.16734672 -0.24073388 -0.32926965 -0.17298883 -0.005054704 0.17653137 0.2457026 0.10459021 -0.12422939 -0.38405374 -0.28832322 -0.18487124 0.20704696 0.092419244 0.4941128
7 -0.044266205 -0.07563815 -0.01716486 0.05261416 -0.29207164 -0.2968357 0.10929045 0.021872377 0.018733177 0.3053416 0.17536764 -0.27416593 -0.27002028 -0.029771727 -0.0036325397 0.01296218 -0.16417514 -0.02923349 0.07730011 -0.22383247 -0.02798001 -0.0060792696 0.0057158074 -0.305777 0.12387745 -0.18010478 -0.39287698 0.19866717 -0.075879365 -0.24478823 -0.043159544 -0.042321347 -0.06126711 -0.028945005 0.1757809 0.10160019 0.3214267 -0.17379759 0.046637453 0.30356264 -0.0024146615 -0.07172174 -0.065834545 0.1714617 0.17315918 -0.085653156 -0.20743646 -0.11783722 0.31308028 -0.20842116 -0.26072752 -0.29091328 -0.19975278 0.023505807 0.14071251 0.22418264 0.13798945 -0.14698103 -0.36778376 -0.21795984 -0.13304059 0.22194274 0.11447599 0.52544165
9 0.06714407 -0.08128222 -0.07343311 0.04558048 -0.06767481 -0.1688412 0.11528852 -0.13586652 0.13519296 0.018514719 -0.018137671 -0.11852134 -0.29655012 -0.049181998 -0.021471683 -0.061005604 -0.06606484 -0.08787742 0.19198796 -0.09373096 0.05007502 0.040250685 -0.21790281 -0.28151804 0.10681043 0.0363211 -0.33448198 0.35114422 -0.026589323 -0.3962816 -0.043828722 -0.12612388 -0.23238423 -0.21460298 0.026337378 0.2795178 0.31604043 -0.20698279 -0.04439286 0.30702773 0.12130264 -0.43014792 -0.30866536 0.2757748 0.26263887 -0.11040732 -0.414169 0.015877139 0.11748467 -0.043329876 -0.24926546 -0.09111531 -0.3053364 -0.257129 0.19390686 0.13043146 0.1067215 -0.23261805 -0.44070387 0.12909214 -0.07173216 0.12832403 0.15177853 0.6203538
45 -0.26027796 -0.17474224 -0.080028035 -0.2925467 -0.16906342 -0.06888585 -0.1227492 -0.16087519 0.55992883 0.7296891 0.5081596 0.12710358 -0.41015902 0.27145427 0.11267629 0.19357076 -0.313711 0.07163147 0.31339812 -0.32331005 -0.52399975 0.11630205 0.09150356 -0.15881176 0.49047422 -0.36384043 -0.5405565 0.51419055 -0.01589285 -0.6499948 0.029876046 -0.20839839 -0.24469003 -0.12407062 0.4625257 -0.020647088 0.65156794 -0.13182917 0.525963 0.60788643 -0.17610131 0.09239075 0.1880424 -0.08717171 -0.36713192 -0.48710123 -0.07820559 -0.039571382 0.58371437 -0.40732253 -0.5046329 -0.20258883 -0.34642667 -0.16785027 0.015237674 0.0017923194 0.09070225 0.10995373 -0.51142085 -0.48909277 -0.12551641 0.07636281 0.27156013 0.86752665
20 -0.057451256 -0.12137397 0.029994229 0.017640144 -0.2531907 -0.26795244 0.070891805 -0.016829662 0.13206527 0.30594882 0.19975448 -0.21164732 -0.30273917 0.003349481 0.0390311 -0.0036174124 -0.18479805 -0.038781032 0.11954675 -0.25638834 -0.13724156 0.014550839 -0.05233268 -0.24053799 0.117255576 -0.17013228 -0.38058585 0.19680347 -0.08254021 -0.3419621 -0.052310947 -0.047136728 -0.077698894 -0.02016326 0.20873146 0.18508193 0.33994615 -0.1793979 0.1115879 0.33173552 -0.022280028 -0.05601168 -0.04395712 0.09330813 0.16510744 -0.14861514 -0.13626817 -0.05229616 0.25040063 -0.21811067 -0.2729176 -0.23077938 -0.1988746 -0.049232 0.06567493 0.17504516 0.16061161 -0.04529068 -0.3886356 -0.27753747 -0.08677702 0.22470026 0.13916048 0.52784324
51 -0.057599653 -0.12505938 -0.0010519831 0.0064586173 -0.2821497 -0.26460645 0.09962037 -0.022271117 0.05238212 0.30315357 0.20486625 -0.26265997 -0.2835708 -0.051697567 0.0041826516 0.025200842 -0.15630172 -0.01164571 0.06903806 -0.25359273 -0.07361162 0.03901787 0.041371536 -0.3425152 0.12080973 -0.17392203 -0.3971499 0.18356985 -0.15268695 -0.24844094 -0.029670658 -0.027276134 0.015660305 -0.033446837 0.16399157 0.0917061 0.3127431 -0.13809088 -0.0030370837 0.36676022 -0.031017993 -0.099162504 -0.029413775 0.21024817 0.15465274 -0.09876496 -0.16448215 -0.1096234 0.271331 -0.12679249 -0.25267163 -0.31414205 -0.18899697 0.021785207 0.12512405 0.18705125 0.13134108 -0.14836222 -0.31905174 -0.2479904 -0.16666989 0.1950628 0.14748548 0.5271582
35 0.00624089 0.006063123 -0.0026487538 0.004066526 -0.0035129916 -0.003577052 -0.006087753 0.0058174673 0.0059108725 0.0007152128 -0.0047316705 -0.004859802 -0.00440267 -0.0029662522 -0.0061747907 -0.0016716493 0.0074481056 0.00021053692 0.00547278 -0.004912284 0.0052695186 0.006279567 0.0031216834 0.00613891 0.0034266803 0.0033644368 -0.004212682 0.0035089152 0.0036985055 0.005873195 0.004157573 -0.0064478614 6.0206025e-05 -0.0067197634 -0.0051679197 -0.00023646258 0.0070148017 0.007009957 -0.0019240475 0.006685018 -0.0057916646 -0.0075488365 0.0020036474 0.0045018974 0.006829425 -0.00038504996 0.0068651293 -0.00020763402 -1.2487586e-05 0.002613594 -0.006843933 -0.004499939 -0.0025364906 0.007012769 0.0026151717 -0.0032334796 0.0058134566 -0.00399791 -0.00048732117 0.0072637987 0.0018902062 0.0039798473 0.0022494872 0.0056108716
49 0.0021421446 0.0038893016 -0.006660667 0.0024206003 -0.0051723677 0.00596551 -0.007714379 -0.004977855 0.0028598802 0.004257233 -0.004539212 -0.004295945 0.0018704162 0.0053575467 -0.005352619 0.006098733 0.0057214284 -0.006164473 -0.0046745073 0.0044410448 -0.005336325 -0.0027686416 0.0062344493 -0.0022533624 0.0070281527 0.0031157914 0.0033703444 0.003391109 0.00464793 0.0017523073 -0.0004289281 -0.0059198425 -0.006117132 0.004949883 -0.0057745674 0.0073464275 -0.0029419814 0.007543617 0.0064266864 0.005761091 -0.006040259 -0.001079222 -0.0041441033 0.005889586 0.006715163 -0.00083326036 0.0041806116 -0.0056833318 -0.005468906 0.003465217 -0.0033863168 0.006915741 0.0029257156 -0.0028513654 0.001761946 0.0070333397 0.0033401663 0.0016085192 0.006507719 -0.004800103 0.002570307 -0.0048254495 7.219914e-05 -0.005349814
53 -0.0025259366 0.006805889 -0.0021807696 -0.007227517 -0.0033349197 0.0057110107 0.0008474118 0.0064259316 0.0041400427 -0.006357606 -0.0020200715 -0.002214015 -0.005510504 0.0046305624 -0.0062434315 -0.0002239898 0.0019199855 0.0014958951 -0.0029282803 -0.001161429 0.007466669 0.0076074293 -0.0059308484 0.006903574 0.005792412 0.004054278 0.0041959193 0.0067024613 -0.0022914105 -0.005111385 -0.0050157188 -0.0039270986 -0.0041606175 -0.00043540914 0.0016308902 -0.0059357407 -0.0068585635 0.006149778 -0.0021224737 -0.006027275 -0.0027545819 -0.0077234274 0.0044717416 0.004591154 -0.0028068463 -0.00081022875 0.0075655226 0.0072699846 0.0042489297 0.0040273 -0.00010532309 -0.0048065195 -0.00085038895 0.0056129377 0.0023915952 -0.007778389 -0.0053579235 -0.0026874244 -0.0027560117 0.0033565296 0.0019515586 0.0056328154 -0.0035235337 0.004329266
55 0.0012349207 -0.007445219 0.0023845795 -0.005324487 0.0023039277 0.0036828367 0.0056464006 -0.0059738015 -0.00303855 0.004205964 0.007698417 0.0032746135 -0.0047820387 -0.0013258418 -0.006615421 0.00627231 0.0068332 0.007185767 -0.00056389853 -0.0060264114 -0.0016208376 -0.004142548 -0.0031693906 -0.003748822 0.0042606345 -0.001741843 -0.0063084182 -0.0042131525 -0.0008687197 0.005232636 -0.0022281941 -0.0068358453 -0.0030020748 0.007602046 -0.003988838 0.0023000771 0.0051140394 -0.003502735 1.5833424e-05 0.005637099 -0.0019420498 0.0070234286 -0.002728387 0.00538918 -0.0016832344 0.00174082 0.0006472787 -0.0014180536 0.005450598 0.006946158 -0.007567199 0.00019664779 0.0052818353 -0.006137246 -0.003730549 -0.0034433005 -0.004571788 -0.0015574063 -0.003038045 -0.001427877 0.0069914125 -0.006202632 0.004541416 0.0058854674
33 0.0012150641 0.0048222295 0.00066721765 0.0010848842 0.007041235 -0.0046760854 0.0048030675 -0.005634319 -0.00049858796 0.0038027216 0.00045011027 0.0025440801 0.003019097 -0.0041872556 -0.004220287 -0.0061275526 -0.003560434 -0.004874279 0.0019203954 0.0015692683 0.00020349704 0.007111548 -0.0023608406 -0.0028742226 0.0013231242 -0.0028793265 0.006200755 0.00013543048 -0.006083025 -0.0045460276 -0.00010149793 0.0047750883 0.0035932155 0.000598298 0.0070553436 -0.0053541567 0.0020457767 0.007177185 -0.0022793969 0.0023513653 -0.00084509444 0.004425689 -0.0071476405 -0.0077763316 -0.005007874 -0.003976927 -0.0055085807 -0.0049895495 0.0073004314 -5.3697706e-05 -0.0077406205 0.0049611796 0.0007791666 0.0014701239 -0.0047099064 0.003735438 0.0059306915 0.00026608014 0.004745187 -0.00076251396 -0.007601417 -0.0071194195 0.001921281 -0.003174234
11 0.0006427918 -0.0038646325 -0.00020299539 -0.007614507 0.0062381793 -0.0039982963 -0.003967598 0.0016853131 -0.0046916744 0.0020607386 0.0031221767 0.0024207386 -0.0005738304 -0.0007856161 -0.0061553465 0.0075979503 0.0061207623 -0.0006755323 -0.0012286613 0.0032275016 0.0071431086 0.00076258054 0.00028077938 -0.0034342457 -0.0013412428 0.0028836124 -0.0053385673 -0.0026131645 -0.00097356987 -0.0036041515 -0.0010310374 -0.003171845 -0.006206781 -0.0006578217 -0.006771773 -0.00022856673 -0.006429303 -0.0011189856 -0.006266369 0.0058279736 -0.0030348036 0.0038367242 -0.0030215057 0.0045420034 0.0064505036 -0.0019688169 -0.0059065884 0.006552925 0.0031570029 0.0025674265 0.00461608 0.0013896531 0.0031585435 -0.00037420756 0.0025805342 0.00091588515 -0.0022930622 0.0032786164 0.0062716343 -0.0005733885 -0.0018529741 -0.005047461 -0.0068255085 -0.0063398345
27 0.007523233 0.0018742916 -0.0050755283 -0.004670059 0.002191348 0.006536994 0.0005311253 0.0034188917 0.004890377 0.007365105 0.0012473547 0.0036137141 0.0010718247 0.00437574 -0.0037080885 0.0050074933 -0.002970286 0.004251296 0.0030643311 -0.005560883 -0.00388337 -0.0019917204 -0.0037150737 0.0061801737 -0.005313702 -0.00012179964 0.005051771 -0.004913373 0.003077226 0.0043851333 -0.0017503434 -0.0009915348 -0.0009836495 -0.0055181 0.0047444757 0.0076067382 0.0034991654 0.004917905 -0.007411738 0.0024516713 0.0016330221 -0.0025229603 0.0037765023 0.0063425587 0.0047680754 -0.005061298 0.0026996552 0.0064959065 -0.0004240731 -0.005277453 -0.003710442 -0.0041069756 -0.003972491 -4.25629e-05 0.00410698 -0.0042891675 -0.00054952863 -0.0010867266 0.00055436936 -0.0019570387 0.0072406414 -0.0014185315 0.007178209 -0.006592285
46 -0.0029730382 -0.005978318 0.0028119164 -0.00046237226 0.0041714236 -0.0060381927 0.0066762217 0.005003762 -0.0015255052 0.00010189761 -0.002643712 0.006270182 0.005146308 0.0068915896 -0.0060198954 -0.0036449933 -0.000329483 0.0056339423 -0.0024520552 0.005310088 -0.0014399877 0.0074932678 -0.0030749622 0.0020504717 -0.0045293462 0.0068771555 -0.0043896637 0.0014576039 -0.00016046256 0.0077338717 0.0075587826 0.0029793156 0.005832569 0.0017665512 -0.005443284 -0.0023987235 -0.0077883583 -0.0003068543 0.0048982385 0.0017454382 0.0011643739 0.0011289882 0.00490781 0.004154052 0.00084773236 -0.003493243 -0.00023214292 0.003680053 -0.0063038357 -0.0069106934 -0.0014572917 0.0040622307 -0.006198194 0.0069471775 0.007786828 -0.0037817648 0.0029114967 0.0060974583 0.007496405 -0.006248235 -0.0050072325 -0.004666012 -0.005147056 -0.005324914
34 0.0068569873 0.00069417513 -0.004999121 0.0052620084 -0.0076305387 0.0017666995 0.002038926 -0.0010125511 -0.00492832 0.0059844 0.0042073918 0.0029893739 -0.0021693467 -0.007591753 0.007353767 0.006605393 0.0035021864 0.004717298 -0.0036483149 0.00076640275 0.0066639762 -0.006786376 -0.0007144557 0.0032891221 -0.0025406939 -0.0061546643 -0.0068653338 -0.002971946 -0.003311965 -0.003094924 0.0042976206 0.0070266784 -0.004000892 0.0011182545 0.0051947897 -0.0043102126 0.0055933786 0.0024226038 -0.0072879847 0.00576198 -0.0073043937 0.0057040867 0.0070645176 0.0011785154 0.0017169649 0.0013718073 -0.004974598 -0.003457195 0.006037424 0.0037737286 0.0018739755 -0.0018683382 0.004578223 -0.0013567721 -0.0014094586 -0.000600385 -0.00053006975 -0.001963545 0.0007573429 -0.0017626506 -0.0033408694 0.0067384993 -0.0054897475 -0.0066304863
40 -0.0015467275 -0.0036707807 0.002141498 -0.0071997666 0.002548751 -0.0060336892 -0.0015573989 -0.0021824765 -0.0055370727 0.0068290853 0.0013367939 -5.6064204e-05 0.00024043846 -0.002689696 0.005000174 -0.0075473934 0.0051652375 0.0066975607 0.0017439252 -0.0071091154 0.0005669042 -0.0017808819 0.005210711 0.00049558317 -0.0073335264 -0.0029834844 0.006539743 -0.0077222083 0.0029252802 0.0036415886 0.0035403615 -0.0037893597 0.0031409217 -0.00022155933 0.0011302287 -0.0023934697 0.004889909 0.005529941 0.00764872 -0.0070581636 -0.0006190104 0.0038547206 -0.004963069 0.0028176203 0.0036355387 -0.0019206624 -0.0070831557 -0.006776135 0.0013246981 0.006362819 0.00435734 0.004396814 0.0022835704 -0.004579783 0.0036077995 0.0067804903 -0.0008468658 -1.5265206e-05 -0.005669698 0.002347585 0.0030212183 0.0027317712 -0.00542904 0.00013009834
37 0.002213569 0.0025503724 0.006419202 -0.0057702013 0.0035891875 -0.001425215 -0.0054954393 -0.007355457 0.0053827725 0.0016077617 -0.0007486372 -0.00018939238 0.0025333813 0.006881836 0.0037574226 0.0023041915 0.0013285478 0.002392662 -0.0041239155 0.0035273223 -0.0022258835 -0.0054025836 -0.003202967 -0.00404852 -0.003303696 0.0050934735 -0.0009202372 0.001695432 0.0045110737 -0.0070153926 -0.007208594 -0.004886832 -0.002686429 0.00612789 0.0071870093 -0.004650636 0.005722129 -0.00043368206 0.0038544654 -0.0014684532 -0.0024885803 -0.0078120395 0.0049731093 0.0040866714 0.003491229 0.0034510915 -0.0073878 -0.0067496574 0.0063002924 -0.0009838142 0.0010129123 -0.0009917341 -0.0045195124 -0.0024536964 -0.0037488218 0.0058672316 0.003153506 0.0054549123 -0.00713159 0.007435037 -0.005891364 0.0069161267 -0.005983455 0.002444424
26 0.006973795 0.0058096917 0.006333503 0.005704999 -0.004564939 0.002307167 -0.006468572 0.0024842166 -0.0059391297 -0.001518925 0.0009989368 -0.00015095827 -0.0001021053 -0.0047251997 0.0047975234 0.0067212465 0.0021220278 -0.0063105538 -0.0023697626 -0.0037258037 -0.00013862495 0.0071916785 -0.0029158487 -0.0010118817 -0.00021802538 0.0032681138 -0.004506483 0.0059944345 -0.0046069715 -0.0031311326 -0.004386306 0.0073472387 0.0049153217 -0.004692509 0.00045560912 0.0031279447 -0.0007969388 -0.0049638087 -0.0029442825 0.0028230778 0.0014610727 -0.0014334564 0.0027396162 -0.003057994 0.0009713333 -0.007195213 -0.0067948205 0.0058632353 -0.00410087 -0.0019145214 0.0025484627 -0.004801134 0.00050399755 -0.005217738 0.004652232 -0.001646189 0.002793069 0.0067448067 0.0007584703 0.0069286576 0.0027331582 0.0018056165 0.0047746627 0.006140099
54 -0.007731162 0.00629265 -0.0057517514 -0.007534684 -0.006794993 -0.0077803717 0.0061087473 -0.0009964894 -0.00021707031 0.0056443885 0.0003051642 -0.0009768846 -0.005960486 -0.0058521265 -0.0044554924 -0.006507929 -0.0010197136 -0.0010834727 0.007213161 0.005793498 -0.00065504835 -0.0039353487 0.006284683 0.0029884635 0.004531797 -0.0066380333 0.0077492525 -0.00526827 0.0036802809 -0.0018036526 0.0015364224 -0.0028106272 -0.006760778 -0.0021405888 -0.0048556095 -0.0037876172 0.003415081 0.0067732586 -0.0034416872 0.005228422 0.0013154735 -0.001562156 0.0059530037 0.007804751 -0.006758116 0.00082688424 0.00054032507 -0.0028578488 -0.00019873492 -0.007179779 -0.00026794168 0.000298525 -0.0019000224 -0.0029655306 0.0015896489 -0.0007565871 0.0043850355 -0.0025132261 0.00632555 -0.0012534045 0.006703845 -0.005886256 -0.0022108143 0.0058282823
