56 64
0 -0.023040662 0.17996433 -0.046963137 0.07145674 -0.02936828 0.2528465 -0.07692817 -0.11392635 -0.19058022 0.05386393 0.29673722 0.22738953 0.14273739 -0.031865384 0.04801533 0.044262018 0.22689067 0.008256609 0.29421175 0.1472812 0.026359923 0.049592163 -0.19162 0.07118983 0.029295888 -0.24733429 -0.19993147 0.18878615 -0.10801383 -0.14257744 -0.06611117 0.056752577 0.19977713 -0.24624527 0.20383641 -0.024961358 -0.0010634313 0.07504142 -0.09509853 0.17654453 -0.061495226 0.092066064 -0.2775548 -0.40720865 0.44209597 -0.15024593 -0.29749736 0.030036569 0.18332608 -0.119661726 0.3038419 -0.067444906 0.0025843342 0.004821928 -0.11439443 -0.4033037 -0.16396415 -0.08880221 0.36898375 -0.053718887 0.3067949 -0.056400333 -0.028164191 0.51268196
1 0.12926851 0.19751601 0.031752754 0.050409295 -0.032306 0.16827713 0.04716999 -0.18419975 -0.2901013 -0.02635992 -0.10127909 0.10176506 0.19400235 -0.03567532 -0.027494246 0.16666785 0.081998296 0.26703593 0.43472388 0.21786012 0.08694248 -0.07483982 -0.25812575 -0.010819758 0.023014035 -0.23947848 -0.25030497 0.22017285 -0.19484918 -0.3209162 0.12452755 -0.121190146 0.18155581 -0.35269085 0.24846266 0.17500164 0.085757494 0.15252301 -0.035275232 0.19898032 -0.0863998 0.045353003 -0.36596617 -0.35377997 0.25431406 -0.06928246 -0.20746891 0.107261285 0.14947125 -0.22570458 0.17852089 -0.15996732 -0.07716235 0.09360062 -0.05290189 -0.31118774 -0.17928714 -0.102432296 0.3180248 0.13852 0.26714894 -0.023087928 -0.114757255 0.33570004
2 -0.06457063 0.07402296 -0.03787843 0.06738199 0.07640541 0.21559209 0.041726846 -0.31379828 -0.25687745 0.051238444 -0.006074961 0.19996873 0.13401534 0.16181667 -0.019150611 0.18913804 0.08663012 0.1601822 0.18743487 0.27428788 -0.06271096 0.090130225 -0.13068372 0.03505357 -0.123789735 -0.12376412 -0.10594199 0.16433105 -0.089659326 -0.27358213 0.0012332181 0.036272865 0.1487264 -0.3345923 0.29541454 0.005047932 0.21505296 0.25842115 -0.15562484 0.18128645 -0.115579784 0.21836387 -0.35963002 -0.32222205 0.40669483 -0.22908323 -0.12578753 0.16970187 0.07048212 -0.25195763 0.14512073 -0.17719297 0.09249717 0.0057428135 -0.10543203 -0.4127525 -0.2944434 0.097028226 0.3379337 -0.068796106 0.3549917 -0.095697686 -0.06355219 0.3437267
8 -0.07459709 0.2543105 -0.09959762 0.11435975 0.0122977095 0.2509899 -0.07573755 -0.15555559 -0.26050606 0.08354804 0.057623457 0.18366109 0.13654728 0.12532824 -0.015744327 0.022586687 0.06395956 0.13146558 0.29890373 0.3569136 0.02485118 -0.056631215 -0.13528594 -0.0389256 0.023857238 -0.2252444 -0.10510895 0.10212627 -0.14604945 -0.28106347 0.036458123 0.041229583 0.11911391 -0.24418314 0.05504007 -0.026670806 0.21212497 0.2473556 -0.17449819 0.18632622 -0.13502747 0.03766198 -0.18314944 -0.43889454 0.38759777 -0.16760388 -0.09849971 0.16256715 0.12491827 -0.23215324 0.25843242 -0.14791252 0.04130925 -0.06768626 -0.1331502 -0.3472993 -0.43469957 0.029081471 0.33826527 -0.038917635 0.19191378 -0.19395125 -0.12257192 0.31542808
3 0.07329549 0.1746366 -0.12354491 -0.058673624 -0.027714465 0.19107671 -0.02370973 -0.2224921 -0.29285452 0.0036485752 -0.080724165 0.07929952 0.09783707 -0.019978603 0.02692724 0.29059422 0.03303702 0.2196267 0.29448017 0.40078667 0.07416077 -0.014914 -0.23694938 -0.014284988 -0.020516943 -0.2057431 -0.16021942 0.057310753 -0.15953143 -0.28847346 0.1193063 -0.06424271 0.11075556 -0.34884888 0.2646228 0.14721198 0.11837048 0.23250887 -0.0001328588 0.26713726 -0.13009617 0.14341201 -0.4127972 -0.44892353 0.3050855 -0.08610825 -0.24606419 0.08605616 0.17066957 -0.22160976 0.17977701 -0.16521715 -0.08953747 0.056388624 -0.14688174 -0.25975773 -0.12423838 -0.13641834 0.30806732 0.05395141 0.23816809 -0.014209605 -0.11687905 0.28149903
4 -0.01569935 0.14661609 0.1879463 0.194272 -0.09484737 0.07498055 0.30681506 -0.28422132 -0.060860008 -0.115147024 0.13600656 0.19140813 0.18927528 0.05145967 -0.041102555 0.114313856 0.115885064 0.09200944 0.38308784 0.040210847 -0.13842572 -0.0063407947 -0.16415855 0.18428132 -0.04220486 -0.28654027 -0.1739169 0.27634686 0.017810652 -0.31968412 0.16493027 0.00069219724 0.16883114 -0.23939538 0.30505955 -0.13320068 -0.01509323 -0.10546214 -0.098394156 0.06436167 0.15685846 0.08487709 -0.2632536 -0.15038414 0.31750244 -0.34749046 -0.107384786 0.13907719 0.01144789 -0.3900214 0.082497515 -0.23757601 0.00032698188 0.1251056 0.104452565 -0.35454556 -0.051824853 -0.03267548 0.23553196 -0.011440165 0.27098414 -0.28436244 0.151211 0.497437
6 -0.10266345 0.18608913 0.14802118 0.21191362 0.012220138 0.10198885 0.075387664 -0.09324036 -0.14543134 0.04533528 0.25453657 0.25610703 0.32918662 0.039798904 -0.05699946 -0.080168255 0.20082584 0.0965605 0.4121606 -0.026846591 -0.08759028 0.028883541 -0.13975497 0.021537682 0.06700193 -0.26509482 -0.27438906 0.3465886 -0.1461037 -0.24833548 -0.02001074 0.04127958 0.2578655 -0.21797864 0.21213275 -0.07501164 0.06625509 0.033248052 -0.13433927 0.025816314 0.012798002 -0.0065660863 -0.20454243 -0.21880773 0.3964975 -0.18681444 -0.1564139 0.091455296 0.15749498 -0.14403403 0.19094943 -0.12245228 0.068905406 0.043951437 -0.026153447 -0.4286121 -0.34240764 0.008895627 0.3243473 -0.025907 0.28902313 -0.17027877 -0.038626503 0.5751455
21 -0.24401824 0.15935148 0.06776176 0.19379726 0.065860294 0.11490397 0.005264553 -0.07069362 -0.22128348 0.14667803 0.22343008 0.30620927 0.4105063 0.15840407 -0.105057746 -0.12966868 0.22582594 0.14296137 0.42550668 0.079638705 -0.12654464 0.053790253 -0.110598326 -0.15763697 0.10316892 -0.2302244 -0.2600859 0.33274594 -0.24210203 -0.2729031 -0.09285381 0.046172693 0.30539617 -0.29164845 0.19725594 -0.029692002 0.21014467 0.19592504 -0.21688093 0.04711036 -0.06877561 0.011964502 -0.21640858 -0.30424008 0.503038 -0.1515127 -0.15677665 0.14583758 0.21035026 -0.05298408 0.21394566 -0.11372727 0.17428535 0.021659002 -0.14871615 -0.44860366 -0.57937366 0.08329286 0.37940645 -0.08163462 0.35861054 -0.14157932 -0.18767974 0.49412525
29 0.34331343 0.6044506 -0.431873 0.57028866 0.031222576 0.5175429 -0.2863852 0.0009500265 -0.3484637 0.12569901 -0.030441416 -0.050763037 0.013612843 -0.31587568 -0.04303632 0.06493471 -0.07761648 0.27037114 0.38786963 0.6814698 0.2305342 -0.43064246 -0.28343618 0.1316898 0.2872403 -0.76681876 -0.25567338 -0.080397025 -0.35853732 -0.24410875 0.36393487 -0.1226109 -0.12251292 -0.13307354 -0.059143197 -0.2500685 0.20685695 0.24755172 -0.05251209 0.21055192 0.036640152 -0.26678032 -0.33458176 -0.61146474 0.5639286 -0.23479402 -0.044280555 0.11125743 0.1601857 -0.2807383 0.4179781 -0.19146477 -0.035148982 0.03744733 -0.11859568 -0.4304933 -0.46885213 -0.11357607 0.36405757 0.21411265 -0.10241189 -0.39007652 -0.2820796 0.09052591
5 0.046968475 0.09625715 -0.018215774 0.06972018 0.044612627 0.18792066 0.016555004 -0.2349558 -0.26225686 0.043343674 0.003005886 0.14369628 0.22778216 -0.014065352 0.007784 0.21438673 0.12425808 0.20483164 0.23756924 0.18189578 -0.01014974 0.06442834 -0.19704604 0.02118736 -0.022978012 -0.17436798 -0.23346733 0.22160608 -0.15275523 -0.2366859 -0.0062530804 -0.06517828 0.16843158 -0.31728157 0.35448825 0.099824354 0.16169894 0.21528374 -0.05727412 0.19486527 -0.12891476 0.17640416 -0.47546774 -0.3266833 0.37584764 -0.13983609 -0.25586185 0.10388556 0.17856859 -0.18091132 0.1420451 -0.13980371 0.033137497 0.108531736 -0.092759125 -0.42705783 -0.17400312 0.005266706 0.3581328 0.010039705 0.3691101 0.008026392 -0.10926236 0.39151865
50 0.01534076 0.0667074 -0.11596195 -0.07430419 0.06541945 0.21526816 0.019612988 -0.3624772 -0.32703155 0.03495404 -0.18223105 0.14104937 0.14960949 0.08541555 0.005389959 0.34889197 0.039257742 0.29551092 0.2102893 0.3733182 0.01178564 0.09039001 -0.22047448 -0.04992718 -0.10295598 -0.080857836 -0.116121694 0.1320543 -0.16974339 -0.28780353 0.043717645 -0.058588665 0.14290142 -0.42585734 0.37783012 0.22241473 0.2595149 0.35697684 -0.08779358 0.29271665 -0.22444034 0.2693274 -0.5044613 -0.4386496 0.34405532 -0.11020148 -0.23594084 0.16185313 0.11403395 -0.25157383 0.14478524 -0.17228915 0.0038272594 0.09269964 -0.17778814 -0.3605346 -0.18841612 0.017651435 0.37378028 0.0057287617 0.39565805 0.08273165 -0.17490602 0.24111381
39 0.62468433 -0.030832581 0.75760686 -0.5774905 -0.15445775 0.8218599 0.070029825 0.03332137 -0.6644845 -0.6265541 -0.6945679 -0.5583264 -0.9400007 0.36019304 -0.12524208 0.041281376 -0.0937725 -0.8277994 0.41341424 0.61614794 0.7401163 -0.3028684 -0.14364554 0.66081524 -1.1103919 0.7239983 -0.8333831 0.41951603 0.7385153 -1.3697009 -0.54896575 0.055510692 0.43497688 -0.23295812 -0.42621085 -0.653462 -0.57383305 0.08422578 0.29518172 0.34363836 -0.8689196 0.94109625 0.045841336 -0.57636917 -0.03293367 0.8412859 -0.3314163 -0.028423132 1.0532542 -0.90186554 -0.29927617 -0.983447 -1.1436602 -0.98097944 0.111533806 0.09112151 -1.0357726 -0.7226236 0.060302477 0.5177786 0.09183656 -0.29596007 1.1189178 1.7820307
52 0.62888646 -0.0097082695 0.7885425 -0.59634745 -0.12835242 0.8994634 0.008840578 0.03774029 -0.61633587 -0.6249318 -0.5881586 -0.5533194 -0.9629913 0.31020242 -0.11021464 -0.038847335 -0.044051435 -0.9092764 0.37924153 0.58355457 0.75970364 -0.28010428 -0.15070683 0.7484004 -1.1503663 0.77130145 -0.8184644 0.46895865 0.76689225 -1.3414003 -0.6419314 0.13521057 0.40359765 -0.18631673 -0.45166874 -0.7261686 -0.63656116 0.035556003 0.28166577 0.33462474 -0.9210238 0.9874056 0.06969245 -0.60154873 -0.02278333 0.8759006 -0.36915293 -0.061831493 1.1034843 -0.8981519 -0.27474838 -0.94878376 -1.1929004 -1.057335 0.10365917 0.055644628 -0.9869222 -0.77257675 0.09686105 0.48552957 0.102214776 -0.28864226 1.173705 1.9332545
12 0.4474043 0.6132272 -0.30573058 0.6786054 0.039474346 0.47740826 -0.1909718 0.016889825 -0.32646427 0.08569115 -0.037010647 -0.057211496 0.020082485 -0.3238021 -0.053173643 0.07010545 -0.06771881 0.23468861 0.4533212 0.5589339 0.24208537 -0.4752278 -0.2982724 0.2283933 0.28979596 -0.80308044 -0.35202298 -0.019270668 -0.29734516 -0.27376854 0.392653 -0.14057638 -0.1022462 -0.07283452 -0.026957948 -0.31214654 0.124422304 0.07700854 -0.027468298 0.122341216 0.13541766 -0.2840572 -0.34523922 -0.47014526 0.5531261 -0.31230545 0.013141399 0.09765114 0.14180808 -0.33537245 0.35693386 -0.22101408 -0.08059444 0.08658864 0.006306191 -0.47663847 -0.42059425 -0.11714484 0.30707982 0.27135548 -0.13243638 -0.4681394 -0.17176841 0.22647715
22 -0.020954864 0.1198736 -0.056753293 0.25689894 0.20412533 0.36299586 0.030045848 -0.5046101 -0.25353852 0.032123335 -0.050282467 0.24805717 0.018490618 0.2645738 -0.101331316 0.13455059 0.0194099 0.16724047 0.022140354 0.37912762 -0.09697848 0.07508161 -0.079501905 0.18012464 -0.2483582 -0.0861604 0.04784898 0.12279891 -0.018618591 -0.29749143 -0.024947163 0.13071017 -0.007971243 -0.31215364 0.18191619 -0.2125096 0.34598115 0.3500288 -0.34936032 0.22439848 -0.21007478 0.27452692 -0.23132232 -0.29257563 0.48562595 -0.2775579 0.06625181 0.26158133 -0.04147902 -0.41366944 0.12810017 -0.2581453 0.18457423 -0.13840279 0.0048789317 -0.4976303 -0.41504994 0.28436962 0.35029078 -0.114613086 0.37414804 -0.23181802 -0.0009892813 0.26613697
17 0.39717633 0.38123944 -0.1952075 0.44980752 0.04696611 0.43291393 -0.15825118 -0.066217355 -0.26454136 0.041278247 -0.002122089 -0.043408297 -0.011198698 -0.30620092 0.0039435537 0.14591736 0.006179216 0.17064212 0.27461156 0.3878687 0.18463132 -0.2660516 -0.24385883 0.22921072 0.14187671 -0.52455896 -0.290441 0.06036558 -0.21099252 -0.17538954 0.1879798 -0.16017517 -0.033930548 -0.107543916 0.12494859 -0.18917364 0.073496394 0.13693926 0.02601823 0.16428357 -0.020707712 -0.08169713 -0.37874433 -0.38500866 0.44579712 -0.19063216 -0.14578058 0.030696807 0.15504017 -0.2609916 0.25027102 -0.184773 -0.07383615 0.056481816 0.0064454577 -0.4368188 -0.17728743 -0.08646247 0.27600744 0.19372706 0.05082626 -0.21743211 -0.10554039 0.24158636
28 -0.383893 0.27695143 0.19616209 0.3476221 0.11931107 0.03999249 0.018687332 0.12495727 -0.2189886 0.24033383 0.38612768 0.42990434 0.6459358 0.16367868 -0.19915538 -0.4134191 0.33818597 0.14155467 0.684059 -0.17118338 -0.11670455 0.035278335 -0.100310884 -0.22529994 0.20437348 -0.32829803 -0.4465801 0.52040285 -0.33107862 -0.2458773 -0.14565739 0.1302266 0.50837415 -0.23277758 0.09599702 -0.03840448 0.1939067 0.07373227 -0.31142998 -0.13046204 0.04992436 -0.14442667 -0.09630335 -0.2715882 0.6123332 -0.11686768 -0.06062543 0.11262505 0.22264966 0.029840795 0.29041258 -0.014305799 0.156894 0.03946706 -0.11367807 -0.5770587 -0.9170743 0.11198648 0.4674259 -0.07480313 0.36816835 -0.21921116 -0.23291925 0.7886992
38 -0.015360055 0.2500193 -0.11053617 -0.013611786 0.0014352635 0.18850242 -0.11460166 -0.106539376 -0.2568478 0.08352026 0.13302217 0.16664144 0.25433266 -0.096820995 0.07542104 0.11103309 0.12349432 0.16643804 0.3299986 0.18091902 0.08806351 -0.006933419 -0.23590685 -0.026137639 0.08297407 -0.23759677 -0.24302098 0.1686476 -0.19998388 -0.17604753 0.013041347 -0.0056221103 0.18013854 -0.23945172 0.19877848 0.18137296 0.10086122 0.15988852 -0.0361559 0.20144294 -0.12243926 0.07668992 -0.4021276 -0.5066887 0.3544251 -0.06872243 -0.28233555 0.05001659 0.20806904 -0.12255795 0.29828396 -0.014480558 -0.10035138 0.076042406 -0.17997552 -0.3837198 -0.20451467 -0.16507816 0.43901843 0.03207669 0.26757994 0.012900731 -0.17202425 0.4946848
24 -0.061596874 0.06222197 -0.07143089 -0.027316317 0.067816384 0.18471666 0.043946814 -0.29054767 -0.34796926 0.062142838 -0.25100332 0.13932818 0.11104429 0.17525943 -0.073153324 0.23967518 0.0072835023 0.25382766 0.27445042 0.383986 0.013455628 0.038196467 -0.16003078 -0.11549487 -0.116468035 -0.06594119 -0.14651844 0.107201554 -0.12233333 -0.33312434 0.04898603 -0.029725378 0.20711455 -0.39898607 0.23784639 0.1698237 0.2682623 0.34059066 -0.1239227 0.1892446 -0.1750007 0.20914377 -0.36511028 -0.36569473 0.33244756 -0.057254788 -0.10593278 0.17517465 0.12772769 -0.25610712 0.12648068 -0.20509802 -0.015146324 0.04020141 -0.16648577 -0.2974856 -0.4301874 0.055675026 0.30591625 0.030686343 0.30659163 -0.012458284 -0.124989145 0.2320801
31 -0.057327025 0.10372894 -0.13110073 -0.1040279 -0.034504186 0.22177033 -0.06709938 -0.26384842 -0.179352 0.0047610695 0.2413142 0.18950509 0.13806419 0.05994047 0.11128316 0.19990218 0.17242274 0.040689513 0.12953451 0.26007795 -0.029684344 0.13360657 -0.16201188 0.071395725 -0.0763401 -0.12842432 -0.0310017 0.11767687 -0.104572006 -0.19032915 -0.0495169 0.070236295 0.086150594 -0.3091794 0.28928953 0.008177836 0.08002847 0.21006793 -0.087187305 0.3094286 -0.14375518 0.24723472 -0.40506944 -0.49458528 0.37352937 -0.20543626 -0.31954908 0.10098721 0.15033123 -0.18247224 0.2332925 -0.093490824 0.07831043 -0.016336618 -0.18601593 -0.34962866 -0.049015984 -0.083460316 0.40769634 -0.14626777 0.38423625 -0.020700313 -0.08919643 0.39703
15 -0.12472746 0.12953787 -0.121920496 -0.11228043 -0.022610193 0.2077551 -0.09172383 -0.22188063 -0.17310709 0.045947827 0.30086574 0.24798363 0.20712276 0.07012804 0.101937234 0.14185408 0.20483623 0.046696063 0.1563283 0.21336272 -0.041488867 0.1655742 -0.16995351 0.011480826 -0.046374835 -0.13012552 -0.05872978 0.12856956 -0.1490829 -0.17413577 -0.105417594 0.1072549 0.1221227 -0.30688617 0.2925781 0.029822582 0.08215938 0.21111791 -0.11429631 0.2708742 -0.1402985 0.2266237 -0.38997412 -0.49934202 0.40053028 -0.17026022 -0.3213604 0.089404866 0.16756056 -0.124127775 0.25763568 -0.040587395 0.082402654 -0.010783461 -0.22113581 -0.35575145 -0.11631924 -0.09758062 0.43495765 -0.16416317 0.39257297 -0.004626834 -0.11306426 0.44900304
42 -0.44841042 0.47776765 0.2101484 -0.16260587 -0.44383726 -0.16160533 0.75250757 -0.70939034 0.09309498 -0.37226707 0.31824344 0.5273935 0.24964014 0.36090374 -0.010088991 0.0707452 0.0047647236 0.15316692 0.8543371 0.11714543 -0.2834881 0.017242122 -0.316721 0.23168415 -0.2293078 -0.40206355 0.08940999 0.20527619 0.1842189 -0.64062405 0.58347374 0.42379487 0.25294125 -0.53573745 0.25030455 -0.11997227 -0.3224888 -0.52218896 -0.306113 0.026758455 0.58681357 0.04962348 -0.1273155 -0.36477306 0.24831656 -0.63481545 0.07172871 0.36626947 -0.30870184 -0.91754127 0.27546486 -0.31085613 -0.20203169 0.2167255 0.065887 -0.11220551 -0.09828425 -0.353302 0.30540022 -0.12580393 0.29260227 -0.7303191 0.4032284 0.9101332
19 0.42343405 0.63624936 -0.39918244 0.67971176 0.06440925 0.55608416 -0.25513923 -0.07937624 -0.37612885 0.12009375 -0.07872835 -0.048786648 -0.029274808 -0.33501053 -0.03815139 0.11228712 -0.11837529 0.2942801 0.39869004 0.68262553 0.20166129 -0.45878553 -0.28417864 0.18148571 0.28568387 -0.82351625 -0.26748732 -0.07687128 -0.35019228 -0.2579889 0.40393206 -0.15541579 -0.12824512 -0.110475935 0.017370937 -0.2821407 0.21492758 0.21996267 -0.062435485 0.16965213 0.067326054 -0.26860636 -0.36853027 -0.5523917 0.60489297 -0.32116202 0.0042526745 0.1430734 0.114544205 -0.36713198 0.40139025 -0.24050424 -0.01988484 0.068403445 -0.047944434 -0.5201552 -0.4344485 -0.042453945 0.3471467 0.22809187 -0.09827451 -0.4418548 -0.23300484 0.12395465
16 -0.29879752 0.3475141 0.105873 -0.17988223 -0.34225914 -0.086506374 0.5648856 -0.6258546 0.01780606 -0.30251697 0.18026713 0.351944 0.16987757 0.27551675 0.032161154 0.2329686 -0.06147859 0.16161138 0.5815724 0.23192176 -0.22293955 0.019299949 -0.25624463 0.17540509 -0.18858433 -0.3160145 0.122998886 0.13583617 0.113729164 -0.5288707 0.47961977 0.2451487 0.15109704 -0.44547746 0.30553117 -0.015377115 -0.18057144 -0.27457646 -0.16844362 0.13627025 0.38598034 0.122528374 -0.19604778 -0.3659654 0.16698398 -0.5437562 -0.043627724 0.32422024 -0.23157696 -0.7434683 0.19921136 -0.26912022 -0.13768195 0.17436151 0.006465098 -0.12368541 0.063152306 -0.25497192 0.26952812 -0.11015983 0.24093182 -0.50349694 0.27544102 0.60261977
43 0.46794555 0.15928352 0.3159706 0.5875885 -0.006111525 0.24313441 0.40868282 -0.39750654 -0.093010336 -0.23360607 0.09501331 0.07781952 0.0008253838 -0.14727056 -0.04545206 0.27058816 0.098527804 0.058505602 0.19779305 -0.072421536 -0.08107313 -0.050842457 -0.1915266 0.6081433 -0.17806596 -0.38986787 -0.40101677 0.32138625 0.2176376 -0.35994762 0.16085975 -0.16894507 0.049304977 -0.07441729 0.5459233 -0.41106448 -0.2400449 -0.37466615 0.033434294 0.005070243 0.2474767 0.1680313 -0.4192812 0.1946198 0.37793761 -0.5052137 -0.092113525 0.09965021 0.0050479933 -0.56335396 -0.117353 -0.40854663 0.030278228 0.17662577 0.43812165 -0.5288725 0.22574957 0.09988724 0.06644414 0.10105014 0.2415723 -0.41110548 0.4536318 0.69975513
23 0.09148291 0.53223765 -0.39308578 0.21491258 0.0078046247 0.33123165 -0.23053113 -0.12731495 -0.3252837 0.11766576 -0.04823032 0.07385324 0.019840818 -0.12636591 0.022655748 0.0899861 -0.11087278 0.2257143 0.34438172 0.5812341 0.19204286 -0.27188435 -0.25571978 0.012157958 0.15158725 -0.48500368 -0.1256827 -0.14741538 -0.25592005 -0.234359 0.28800574 0.035101127 -0.04893364 -0.17549767 -0.042951215 -0.010751951 0.14422064 0.1680522 -0.09843334 0.16273664 0.020250773 -0.13444816 -0.27487764 -0.5916158 0.4185233 -0.16569623 -0.0071217883 0.1397369 0.06423442 -0.27755573 0.39664194 -0.08704474 -0.10684141 0.025855133 -0.2009187 -0.28750443 -0.42537302 -0.1652466 0.35282564 0.10364344 -0.057703584 -0.26634598 -0.21872836 0.21863873
10 -0.0074156076 0.2123132 -0.12419825 0.083375774 0.014856025 0.25157133 -0.10999724 -0.16965951 -0.21800563 0.07397631 0.17155437 0.17049098 0.20707123 -0.028275196 0.05933915 0.11501517 0.13227081 0.15856895 0.24674639 0.24595079 0.01723957 0.018733872 -0.18830357 0.030262895 0.05829913 -0.25740707 -0.13055086 0.16681525 -0.17634174 -0.1839049 0.021211183 -0.012614103 0.105775766 -0.25971374 0.20680286 0.028965656 0.15909088 0.24011698 -0.095949925 0.2480675 -0.14280078 0.08392334 -0.3493304 -0.47264606 0.39493522 -0.16092342 -0.25084695 0.093127586 0.16709864 -0.17599593 0.28372258 -0.09908262 0.037533008 0.021155415 -0.15942125 -0.42054844 -0.21420735 -0.050874766 0.40756333 -0.042448096 0.2940856 -0.06753375 -0.17027801 0.3765725
18 0.017918615 0.20007987 -0.1386685 0.056356486 0.011684483 0.2512449 -0.108873576 -0.16963343 -0.2217486 0.041433852 0.15493543 0.13928296 0.109023 0.016443554 0.051886477 0.1208388 0.10538534 0.0889552 0.18132462 0.2987362 0.03796857 0.023664813 -0.16453576 0.062461037 -0.010521419 -0.21172145 -0.1057997 0.09648497 -0.14114738 -0.21381755 0.00080117246 0.015307702 0.06353658 -0.2290245 0.18755564 -0.028189791 0.09098188 0.19922794 -0.08799436 0.24299599 -0.12046451 0.12446192 -0.30790362 -0.43132862 0.36693454 -0.1666189 -0.2176772 0.10552396 0.15234563 -0.1733678 0.22923614 -0.120195515 0.059815627 -0.035836503 -0.14849707 -0.34484854 -0.19564907 -0.04949088 0.34227368 -0.06367872 0.24467441 -0.094081774 -0.10674983 0.3490276
25 -0.061866272 0.23396106 -0.14488989 -0.027091281 -0.01767659 0.18432963 -0.06414202 -0.15904263 -0.24978253 0.050954387 0.052296348 0.14370707 0.12615848 0.035391353 0.036627308 0.12078314 0.043007497 0.13162579 0.27894136 0.3050091 0.046262812 -0.0070589245 -0.18559319 -0.0186203 -0.015109146 -0.19529459 -0.13354145 0.0594462 -0.1317053 -0.24654913 0.06414423 0.048645336 0.11881525 -0.25563395 0.14347346 0.065625295 0.07753649 0.13850088 -0.076639146 0.18284589 -0.05882823 0.09551069 -0.2940297 -0.43660152 0.3324663 -0.102496624 -0.16081333 0.103152655 0.12604178 -0.18866195 0.23439272 -0.088749096 -0.051625356 0.020220632 -0.17922541 -0.27340186 -0.27058586 -0.112273395 0.33626297 -0.023047224 0.19174561 -0.09873562 -0.101796925 0.38040155
14 0.1337506 0.28032225 -0.029590452 0.13182624 0.20837753 0.61170137 -0.4554059 -0.04184028 -0.13209595 0.10357916 0.6058707 0.1586334 0.019155515 -0.31918344 0.15484834 -0.12495969 0.30730808 -0.26492676 -0.16982374 -0.10614218 0.22320461 0.071443625 -0.10187642 0.44481525 -0.104818195 0.031607624 -0.20956087 0.28835014 0.016633425 0.12990734 -0.5236778 0.17392124 0.0044431966 0.12132617 0.07440547 -0.3071749 -0.08710163 0.19222182 -0.03467392 0.20702475 -0.5110893 0.31668472 -0.23952952 -0.5167612 0.48978242 0.11408272 -0.44527814 -0.17939383 0.40673998 -0.06751188 0.40113842 0.090558946 -0.1524805 -0.29900017 -0.07093083 -0.62987596 -0.040315397 -0.18918338 0.5293118 -0.023391921 0.34423876 0.15098166 0.024071485 0.9131666
7 -0.019506827 0.19941951 -0.09312556 -0.06538078 -0.0052414085 0.21492676 -0.15236829 -0.08114446 -0.21159716 0.053337216 0.2792885 0.17804608 0.22173937 -0.073506646 0.11363202 0.0674927 0.20338672 0.059527643 0.23915155 0.12077035 0.06773238 0.10370157 -0.18802367 0.040330626 0.0135714905 -0.15990642 -0.19233313 0.20542851 -0.1505937 -0.13535573 -0.09140255 0.020731643 0.17370029 -0.2376807 0.21980304 0.06581113 0.021693274 0.14855118 -0.034982815 0.2517223 -0.15739878 0.1474866 -0.35732314 -0.49718115 0.35946214 -0.043071505 -0.34224582 0.021647694 0.25774595 -0.07509586 0.3033633 -0.016776053 -0.026990274 0.0006904297 -0.1917971 -0.3642996 -0.15864454 -0.15833408 0.41713664 -0.044450294 0.33045426 0.019637482 -0.118938126 0.56465966
20 0.0384896 0.26260683 -0.13358267 0.061483826 -0.019904142 0.25089413 -0.12346045 -0.12874302 -0.18131194 0.028034229 0.32183874 0.17080766 0.21641067 -0.116585985 0.11880381 0.10707378 0.19312523 0.078040496 0.21221943 0.15432227 0.026756397 0.057962134 -0.21527013 0.10818562 0.055038888 -0.27970243 -0.17316875 0.1655898 -0.1686169 -0.14237787 -0.018069748 0.0040769754 0.08655412 -0.19580267 0.28015083 -0.021241406 0.00022530131 0.104097694 -0.028348848 0.24477547 -0.07929689 0.10010667 -0.4048431 -0.46669668 0.40453544 -0.18566343 -0.32631126 0.044082776 0.20554622 -0.12558828 0.29786462 -0.037362274 0.026698459 0.037747096 -0.1530829 -0.41049394 -0.059838336 -0.14124867 0.40153268 -0.04954869 0.29149368 -0.06053472 -0.12153173 0.5058554
41 -0.5533906 0.5562089 0.17831787 -0.26629096 -0.45380476 -0.10051933 0.7684825 -0.8069086 0.081393145 -0.40712643 0.3578859 0.55228126 0.18199733 0.50124246 0.020709597 0.09104132 -0.10245665 0.06384901 0.80294997 0.24097335 -0.27248085 -0.022065412 -0.29097137 0.276611 -0.31029552 -0.3438826 0.22542681 0.14596072 0.266104 -0.72365 0.59455335 0.5232028 0.1996335 -0.500256 0.17478536 -0.15994199 -0.35312897 -0.52443206 -0.3460272 0.080118895 0.5730905 0.15184733 -0.03514933 -0.49566588 0.21982479 -0.71454597 0.076207645 0.45344013 -0.36362323 -1.060306 0.30026633 -0.31137636 -0.24979594 0.11874627 0.025026675 -0.1090279 -0.11687753 -0.38216862 0.3548916 -0.1894476 0.24549231 -0.8272989 0.47555882 0.99825424
9 -0.03611386 0.2871215 -0.14976045 0.16520184 0.024354728 0.27039677 -0.15450104 -0.1413463 -0.2730884 0.10686465 0.13513157 0.18303941 0.15850465 0.061459087 0.0047756475 0.030922841 0.09186331 0.15612677 0.2876318 0.36742666 0.03929396 -0.048039876 -0.1567576 -0.0368677 0.081046455 -0.29202008 -0.11065816 0.09135688 -0.20588894 -0.24811861 0.047425594 0.0080905035 0.08940338 -0.24465723 0.0890169 -0.04167506 0.20848635 0.27771014 -0.15128179 0.22073273 -0.14208394 0.0072885393 -0.2335279 -0.4779755 0.43546796 -0.16542979 -0.13873747 0.13667141 0.16061172 -0.17259163 0.3015559 -0.14078882 0.08527021 -0.05890905 -0.16617484 -0.37319818 -0.40831426 0.011587893 0.36443007 -0.03624924 0.21665217 -0.16123784 -0.19744574 0.30116212
51 -0.07066551 0.18258893 0.010960731 -0.05193594 -0.015980022 0.20282471 -0.08020105 -0.11935171 -0.13708654 0.0130428085 0.38975474 0.2176534 0.24198504 -0.03970408 0.10545609 0.02153949 0.23890623 -0.010978871 0.1971779 -0.0060526202 0.023602718 0.14472987 -0.15581518 0.11563959 -0.045866672 -0.10510673 -0.17341423 0.26844865 -0.08202062 -0.1374232 -0.15310334 0.08545085 0.18155754 -0.18278888 0.24476473 -0.008515838 -0.04973952 0.074570596 -0.05148799 0.20012826 -0.1399644 0.18124612 -0.31257913 -0.42325667 0.3446108 -0.08676061 -0.34410653 0.01620302 0.23452331 -0.10929435 0.26721004 -0.00805325 -0.018446952 -0.033305768 -0.13344693 -0.38621572 -0.09554938 -0.14810443 0.4129638 -0.08278611 0.34838644 -0.0048300056 -0.03900251 0.67296255
47 -0.028210752 0.05477784 -0.052827016 0.26973742 0.22581966 0.43104738 0.05102713 -0.60914093 -0.20425671 0.03612648 -0.03963821 0.2523341 -0.0035807039 0.17975372 -0.09438964 0.18184246 0.040671222 0.16112685 -0.031404976 0.37125254 -0.14602132 0.10676233 -0.053136718 0.21581621 -0.24797696 -0.09341609 0.12595843 0.17930508 -0.0020628036 -0.1805445 -0.035451084 0.11150977 -0.007365428 -0.35449466 0.25935796 -0.2159238 0.4319257 0.4597745 -0.36639354 0.25588676 -0.27648735 0.32308176 -0.26801836 -0.33617982 0.54530704 -0.30002707 0.00040094918 0.23873474 -0.053882316 -0.4593811 0.2013579 -0.25730702 0.18915865 -0.10797433 0.0033864658 -0.59583557 -0.28794405 0.31774688 0.4108641 -0.08920482 0.4736938 -0.15138362 -0.011438233 0.19865566
44 0.56921285 0.10478638 0.43623403 0.63478273 -0.03024105 0.23136796 0.44075108 -0.3547373 -0.10715576 -0.26297438 0.062112108 0.016060447 -0.015792884 -0.18343867 -0.09784451 0.29749277 0.1480911 0.04555582 0.23877867 -0.0911523 -0.10253084 -0.05843735 -0.18394455 0.6276952 -0.17615087 -0.37893417 -0.4801338 0.40060803 0.20446151 -0.40382355 0.13099523 -0.26119548 0.08647598 -0.09903066 0.6022142 -0.4599513 -0.24655521 -0.32785708 0.10984803 -0.018989285 0.21840855 0.15614113 -0.41525215 0.28443232 0.3704598 -0.4843255 -0.14288248 0.054384585 0.08402763 -0.53605276 -0.17496528 -0.4609623 0.041355386 0.14186892 0.50681144 -0.5369783 0.30002987 0.12514035 0.008523335 0.17043673 0.23226368 -0.36781242 0.5007619 0.6850146
36 -0.41642657 0.2319015 0.24972689 0.41864198 0.12696217 0.048754714 0.06620516 0.06371133 -0.23085095 0.2732342 0.3451171 0.47057292 0.70111084 0.16097274 -0.23284017 -0.39129087 0.34226564 0.18735743 0.72154266 -0.17262916 -0.22294323 0.035869416 -0.12167898 -0.25140342 0.2734993 -0.3935962 -0.49012682 0.60398865 -0.36322543 -0.28728876 -0.13810745 0.107664704 0.55166376 -0.30938628 0.18046878 -0.04840432 0.300701 0.13801958 -0.35196486 -0.16646126 0.048212834 -0.17067856 -0.15228793 -0.23183484 0.68069816 -0.1591105 -0.09636283 0.15731794 0.24701506 0.042905275 0.315482 -0.06107412 0.20180652 0.1288781 -0.11370686 -0.6727454 -0.92665243 0.16869608 0.50781727 -0.04803241 0.42705086 -0.20503491 -0.24614786 0.75612855
48 0.08798871 0.15084222 0.037022274 0.08947853 -0.043969125 0.13654058 0.11220341 -0.20634557 -0.20158367 -0.027129868 -0.06900644 0.09245602 0.22668724 -0.06413134 -0.01585113 0.20783062 0.06303534 0.2655981 0.3977355 0.1962041 0.009065967 -0.06422945 -0.22166115 0.025556048 0.055741172 -0.2854089 -0.20914194 0.24026394 -0.17897101 -0.28433737 0.17752415 -0.11295542 0.14859031 -0.32132575 0.27656224 0.117365584 0.16507019 0.18360734 -0.02111872 0.19174422 -0.055384856 0.0431944 -0.40382046 -0.3653594 0.27263495 -0.15416321 -0.20924912 0.11751638 0.11048649 -0.2703693 0.16291331 -0.18135385 -0.08011395 0.14898393 -0.04526191 -0.35419354 -0.1268377 -0.09288254 0.3345153 0.11505039 0.27689648 -0.058616918 -0.10965982 0.2822609
30 0.060990006 0.09779031 0.12687637 0.098301545 -0.010230502 0.09035804 0.20050126 -0.25753075 -0.20817871 -0.04722873 -0.14890374 0.10588906 0.2396242 0.014544634 -0.041859493 0.22838901 0.04210817 0.28535524 0.423029 0.15086995 -0.026979586 -0.029417545 -0.21512228 0.032037355 0.0071836226 -0.23443076 -0.22596955 0.28852963 -0.120028846 -0.32441545 0.18550885 -0.110283606 0.21100765 -0.35306296 0.29655945 0.13895774 0.18968174 0.1541957 -0.057590883 0.14651957 -0.039404638 0.09061288 -0.3943164 -0.2779857 0.25426283 -0.17334676 -0.146181 0.14160919 0.07107344 -0.32301196 0.10740475 -0.2184877 -0.075786665 0.17760621 0.010969083 -0.37547803 -0.17037368 -0.02043621 0.3035729 0.109777786 0.3226546 -0.08557522 -0.049549285 0.33241025
13 0.12489466 0.11622426 0.039733093 0.07942032 0.03217184 0.21062446 0.055706494 -0.22326936 -0.17872006 -0.0066074003 -0.08442431 0.05786584 0.15327647 -0.119051225 -0.00044130115 0.20239946 0.049074184 0.20469849 0.2549592 0.14689308 0.039499864 -0.039405957 -0.18712634 0.10891511 -0.0154792145 -0.1755244 -0.18348084 0.24283625 -0.11797315 -0.20521384 0.08408594 -0.07489604 0.11699458 -0.25565168 0.24853258 0.08013549 0.18543558 0.23227705 -0.023679208 0.18371654 -0.16359235 0.1357396 -0.40290952 -0.36308816 0.2583029 -0.09051385 -0.21783267 0.07454808 0.12755072 -0.28189537 0.16376084 -0.15606822 -0.1354733 0.09889884 -0.035984654 -0.4001376 -0.07845246 -0.077400796 0.34691027 0.12739883 0.28712422 0.0025340896 -0.079435915 0.32271177
32 -0.06250644 0.103982404 0.03172245 0.02384049 0.036077015 0.20018134 -0.087302245 -0.09169462 -0.20779756 0.046133827 0.27007878 0.19776344 0.23233302 0.040490918 0.029859947 0.002323678 0.24391046 0.0077768723 0.23009518 0.056806646 -0.008733024 0.135177 -0.13226357 0.026466446 -0.032204006 -0.10758631 -0.22201 0.2818234 -0.1225528 -0.19236667 -0.17539977 0.025250578 0.21977219 -0.23525019 0.24181491 -0.025518144 0.045143146 0.16145992 -0.097721286 0.17798373 -0.16373287 0.17418803 -0.2832641 -0.34172344 0.39539957 -0.06150363 -0.2851962 0.04212471 0.26628128 -0.061648257 0.19342391 -0.08123731 0.07479325 -0.04738744 -0.13158163 -0.398231 -0.2626921 -0.031117087 0.36957932 -0.08500757 0.36800793 -0.015835626 -0.06408096 0.5745174
45 0.29759035 0.19704743 0.047824256 0.16728984 0.26160887 0.701859 -0.44154218 -0.14475712 -0.14201045 0.06032714 0.6119861 0.13697097 -0.08381078 -0.3714975 0.15184829 -0.0649725 0.3314569 -0.3220701 -0.3053324 -0.13877264 0.2843411 0.15193759 -0.09123331 0.6316906 -0.27844483 0.14689934 -0.25546625 0.3340992 0.12497425 0.121119566 -0.61778337 0.15916394 -0.028305212 0.11737919 0.1590615 -0.39273256 -0.14369059 0.20852654 0.00989356 0.25086462 -0.6234247 0.46733615 -0.29323262 -0.44429177 0.5079917 0.12110802 -0.53027666 -0.20507166 0.44096732 -0.13408099 0.33601967 0.035816617 -0.16594972 -0.37711245 0.024064805 -0.6971669 0.09314259 -0.1692358 0.5093611 0.011981088 0.4074862 0.19214676 0.16226558 1.050485
11 -0.006527914 -0.0025332887 -0.002502669 -0.0030987198 0.005109461 0.005531484 -0.0008672269 -0.00023643588 -0.004187347 -0.0021871503 0.0013606811 -0.003814128 0.007608279 0.007612438 -0.006376589 0.0055613113 -0.004115038 0.0042237877 0.0075265225 0.0051705264 0.005783274 -0.006121783 0.0056585222 0.0024751828 -0.00058719574 -0.0023537998 0.007434486 0.0073602754 -0.0039263936 0.006930233 -0.00081512955 -0.0049078516 -0.0023212743 0.0068360786 0.0029103542 -0.0002095063 0.0011689981 0.007430152 -0.0023598806 -0.0016564503 0.0017512228 0.0035141879 0.0061920295 -0.005064335 0.0011072104 -0.001910066 0.0010216689 -0.0007788248 0.0020944884 0.005941252 0.00010593376 -0.005104249 0.001986145 0.0033034533 0.0004571408 0.006311206 -0.001970086 0.002927273 0.0044303956 -0.00035090142 -0.0002175996 -0.0059049856 0.0009128443 -0.0054069664
54 -0.00018984318 -0.002978178 0.0068208054 -0.0014100702 -0.0020480342 0.0020558045 -0.0006919152 0.002086337 0.007660039 -0.0021775558 0.00440506 -0.0074778274 0.0053792857 -0.004743146 -0.004593584 -0.004457473 0.0003485305 0.0020217807 0.002412417 0.0012822956 -0.0060947617 0.0037286063 0.001339518 -0.0076772664 -0.001461805 0.0034074814 0.006151754 0.0010536211 0.0062739705 -0.0048407027 -0.0062605976 0.0029473205 0.004448394 0.0075938096 0.004629104 0.0035859388 -0.0068487963 0.0057932283 -0.001218788 -0.005876031 0.007607724 -0.0050849654 -0.005204031 -0.0065669925 -0.0010241941 -0.005976946 0.007071782 -0.006707119 0.0044675195 -0.0024737804 -0.00553248 0.0037451605 0.0073173507 0.005141458 0.0016300268 -0.004691173 -0.00733458 -0.0037591327 0.005413795 0.0003038071 0.0013789348 0.003186839 0.0009739873 -0.0065596793
46 -0.0042399503 -0.0034030434 -0.0031122179 0.0022205333 -0.007550317 0.0073179468 0.007433484 -0.0034770775 0.0070028156 -0.0059895627 -0.005312 0.0021447262 0.0032251952 0.0011769672 0.0037543103 0.0023253355 -0.006804701 -0.0003800846 -0.00021394865 -0.002299669 -0.0064764707 0.006410303 -0.0067301537 -0.0035257712 0.0056447843 -0.0055037118 -0.00037376647 -0.00060653884 0.003375255 0.0063440762 0.007617396 0.007743199 -0.00087123684 -0.0044381833 0.0013398225 0.004074585 0.0044320077 -0.005005592 0.0030624762 -0.0061585973 -0.0014571896 0.0064145145 0.0018967866 -0.0014251964 -0.00089612795 -0.0022228814 0.00012336644 -0.005432771 -0.00054818956 -0.0062839002 0.0060513937 -0.007758434 0.005228289 0.00069781503 -0.0027467154 0.003217253 0.0054669427 -0.00061818585 0.0026111875 0.0013339442 0.0025041865 0.004900193 0.004995997 -8.891426e-05
53 -0.00024451013 0.0061230236 0.0037546402 0.0018600252 -0.0002557271 -0.0035077496 -0.0048341304 -0.0008075794 -0.0011369361 -0.0045176037 -0.0055119186 -0.0026568943 -0.0049887695 0.0020981778 0.0053766984 -0.0027334671 0.0071337465 -0.0013406608 0.0016791637 -0.0026831464 -0.006889414 -0.006409829 -0.0032256253 -0.006850351 -0.0011901064 0.0055226577 -0.000524437 -0.006829802 0.004370969 0.006316285 -0.0004272377 -0.007425725 -0.0052147247 -0.00026273023 -0.0064749764 -0.007133033 0.0029186227 0.005183415 -0.0015177787 -0.0028410184 0.0067956187 0.0022552428 -0.0017925821 0.0012866405 -0.0077974214 -0.001239511 -0.0041055186 0.0073055304 0.0005819693 -0.0072581954 -4.0771953e-05 0.00048848515 0.00026991908 -0.0077708466 0.0007174741 0.005490971 0.0050740545 0.0047102706 -0.00029931124 0.0049318573 -0.0025791554 0.0035698363 0.0069793477 0.006097553
33 -0.0046421494 -0.007121835 0.0043163286 0.006928288 0.0050407676 -0.007300143 -0.0016066933 -0.007165618 -0.0073107504 0.0029363444 -0.00035491 0.00048950105 0.0048519513 1.3900276e-06 0.0016099362 0.003690486 0.0029086426 0.0042064935 0.0076057687 0.005527402 0.00046956143 -0.005541445 -0.0051239976 -0.0047368635 0.003167296 -0.0030689605 -0.0015473203 0.00592026 -0.007544236 -0.0050447234 -0.00092615397 -0.0011953952 0.0010314118 -0.002384294 -0.0028399583 -0.0041277674 0.0043270453 0.006712333 -0.00017719694 -0.0003596757 -0.002037146 -0.0043657753 0.00033084967 -0.007183317 -0.004879918 0.003206853 -2.0471543e-05 0.004824161 0.006774304 -0.002468405 -0.0040064147 -0.00097305607 -0.0020031235 0.001926887 0.0030273353 -0.0058688154 -0.005310356 0.005992217 0.002703313 0.003365668 -0.001244291 0.0017104587 0.006761804 0.0027003635
49 -0.0038172228 0.0056878245 -0.004760739 0.0066889767 -0.001190996 -0.005403073 -0.004861946 -0.0035903347 0.0022710036 -0.0060477266 -0.005095483 -0.007538992 -0.004468102 -0.00016065582 -0.0009965111 -0.0039397976 -0.00059993326 0.0068450384 0.0056349696 0.0026859723 -0.0042199413 0.0010022313 -0.005690281 0.007706648 0.001031689 -0.001996362 0.00269986 -0.006331592 -0.0059401565 0.005701351 -0.006886814 -0.0057727653 -0.0015645851 -0.007390295 0.0068847532 0.0010140756 0.0017358852 -0.0008323004 -0.0001720775 -0.0011447723 0.0013948032 0.0075215106 -0.0007761562 0.0045269993 -0.007653418 -0.004825993 -0.0045405426 -0.006912982 0.003059467 0.00429993 0.0043301117 -0.006889574 0.0023185576 -0.004576283 -0.00075280253 0.0037028373 -0.006248161 0.0071388558 0.0029234109 -0.0067011886 0.005698948 0.002140379 0.005126167 0.0009890163
55 -0.007108013 0.003779659 -0.0053140204 0.0041544097 -0.001061696 0.005855919 -0.005827897 0.0015905664 -0.004346094 0.0054096933 -0.0056340434 0.002902287 0.001106443 0.004680751 -0.007440115 -0.007081397 -0.0063786786 -0.0024583258 -0.0077674338 0.006987012 0.0061140633 -0.005726941 -0.0059174905 -0.0023909786 -0.003966175 0.0056240633 0.0027225493 -0.0069040353 -0.0044197617 -0.0060716686 -0.002925753 -0.0068417564 -0.0010718724 0.0030507108 0.0025922237 0.006534069 0.00058596494 0.0037086122 -0.0033082734 0.00088486675 -0.006428244 -0.0073392005 0.0018491419 -0.0031514007 0.0017934614 -0.00028136472 0.003191142 -0.0069256783 0.0062114517 -0.004348662 0.0050810026 -0.007732987 0.00621353 0.00092291896 -0.0017688437 0.0046942113 -0.0028228858 0.0061073 0.004515161 -0.00502019 0.0050379806 -0.0044127502 0.005858613 0.0024408828
40 -0.0055770758 0.005798563 -0.00023335362 -0.0015873039 0.004728656 0.004443054 -0.0060886256 0.004299772 0.0069094934 -0.006026477 0.004346603 -0.0047283317 -0.0057911067 -0.0071632583 -0.0015268775 -0.0037506714 -0.0021175363 -0.0018626351 0.0060836817 -0.0063127805 0.0017091219 -3.496993e-05 -0.0059978026 -0.00077012304 0.006090635 8.1064005e-05 0.003695451 -0.00609385 -0.00045171357 -0.0026396136 -0.003297455 0.005258034 0.004971171 -0.0029414077 0.004617579 0.006541481 0.0048534223 -0.0028382295 0.0072491774 -0.0066952007 0.0030250964 0.002100999 0.007393549 -0.0063856295 0.0023814477 -0.0014858237 -0.0028387015 -0.0063102995 0.006221313 -0.0071410164 0.0059309024 -0.0020216017 0.005705665 0.005530064 -0.0017869009 0.0052364944 0.004423246 -0.0048374333 -0.004679958 0.006644202 -0.003953165 -0.006498645 -0.00076555955 -0.002753155
35 -5.3816588e-05 -0.004474345 -0.0037775252 0.0013118777 -0.0003228328 0.004368373 0.0045048245 -0.0057764165 -0.006349802 -0.0058993986 0.004812881 0.0016527878 -0.0020768417 -0.003414253 0.0028501137 -0.0042293873 -3.4989152e-05 -0.0044087768 0.001888424 -0.001138081 0.0046855155 0.0059308996 0.0027514575 0.004853703 0.004984432 -0.0056708283 -0.0034085554 0.005664078 -0.006040506 0.005301588 0.0036691895 0.0015839175 -0.00676531 -0.00032646008 0.0002493318 -0.002707383 -0.003319848 0.0014707705 -0.0060207066 0.0011936618 0.00608654 0.0005502131 -0.0038378465 -0.0044607176 0.006727323 0.0070714583 0.00032717912 -0.007741064 -0.0047287303 -0.00042278573 0.0059765936 -0.0049219555 -0.007777699 -0.00079740706 0.00047929634 -0.0062799533 -0.0038356783 0.0045250487 0.004234614 -0.00541654 0.004284258 -0.00725697 0.0051378575 0.00300541
26 -0.0070351874 -0.0039910655 0.0075553698 -0.007287435 -0.003479375 0.0048979856 0.00557065 -0.0048626508 0.0049565737 0.004181888 0.0039975634 -0.0038914965 -0.004373764 -0.0037625963 -0.0049852896 0.00440163 -0.0002698916 0.002199972 -0.0068013715 5.814112e-08 -0.005751776 -0.0037899634 -0.006012069 -0.0016211219 0.002112077 -0.0074082497 0.0053996434 0.00014798735 0.0062073823 -0.0018831093 -0.0061622476 0.00078135164 0.0030969323 0.0005356552 0.00020852075 0.0020592334 0.0077767186 -0.0037131398 0.0022824614 0.0010836694 -0.002337189 -0.003369354 -0.0066088955 0.0019718215 0.0012998201 -0.003280429 0.007012998 0.00050655304 -0.0037326163 0.0036956547 0.0025826609 0.0055942577 -0.00298489 0.0048768437 -0.0006798974 0.0051291008 -0.0074141356 -0.0040933164 0.0011563317 -0.00012532512 -0.0065651946 -0.0049115526 -0.001656726 -0.00720599
27 -7.9285775e-05 0.0051598595 0.002962121 0.005412114 -0.00608056 -0.0034393051 0.0069340626 2.3685556e-05 -0.0034300932 0.0051994105 0.0017235869 0.0052971216 -0.0035857663 -0.0025753404 -0.0036498904 -0.0037802223 0.0012895197 0.0003620115 -0.0022434483 -0.0051727854 -0.0035622953 -0.004149719 -0.005177413 -0.0057476764 -0.003273304 0.007342251 -0.0047007343 0.0074373 0.0065993224 0.0054298462 -0.0021624088 0.0040401644 0.0076235365 -0.0016344492 -0.006458727 0.003133863 -0.002726875 0.002756516 0.0044560265 -0.0055061677 0.0053318595 -0.002424283 0.0066583944 -0.007054223 0.005712334 0.0024720903 0.0072894613 -0.0064198175 0.0037568044 0.0025970654 -0.0013808784 -0.0051239277 0.0038859332 -0.0065535856 -0.0065444023 0.006529085 -0.0017591983 -0.006448688 -0.0071911323 0.0022416112 -0.0069780364 0.0020393527 0.0030509585 -0.0032393471
37 -0.0058399714 0.0023892468 -0.004327773 -0.0034182668 -0.0036674908 -0.004570883 -0.0074025984 -0.0008838595 0.0008349529 -0.0005717421 -0.004321111 0.005461762 0.005498438 0.00050016853 -4.359532e-05 0.007430881 -0.0052572736 0.00523097 0.0072273435 -0.0030741764 0.0029075858 0.001999684 -0.00034023504 0.0020818552 0.001635473 0.002195779 -0.0014415308 0.0067544244 -0.0045774453 0.003897768 0.001245191 -0.0010843133 0.0048896493 -0.0026006652 -0.0026415195 0.0012084547 0.0068426863 -0.0028297703 -0.0022360152 0.0035208531 0.006548201 0.00062539685 -0.0058966056 -0.00056665833 -0.0033180036 0.00638146 0.006771074 -0.0077866167 0.00076753035 -0.006655129 -0.0045978483 0.0072673475 -0.0023865234 -0.0024630493 -0.006736582 -0.004012749 0.00119366 0.004030989 -0.0003644336 -0.0021154464 -0.0048700175 -0.0019646382 0.0035456927 -0.0030041893
34 -0.0030131387 -0.0033436776 0.0059778006 -0.0039739273 0.0013153226 0.0019845187 0.003856757 0.007780681 -0.004995166 -0.0039386586 -0.0040193456 0.0064732214 -0.007596702 0.0039611477 -0.004740486 0.0036542285 -0.0008676838 0.0027207406 0.000517398 0.0016788318 0.0015721077 -0.0062470622 0.003100845 -0.006344364 -0.0068456503 -0.00013925738 0.0038534943 0.0011532225 -0.0053413557 -0.003914204 0.005471908 0.0021891114 0.004319994 -0.0005953399 0.0032805994 0.0065865438 0.004396334 0.00656813 0.00038696037 -0.0010898337 -0.0055061704 0.0065479726 0.0023216547 -0.003230128 0.004859452 -0.0048260875 0.00601111 0.00083485263 -0.004665201 0.0030186938 -0.004524774 0.0012640157 0.0052553243 -0.0066838725 0.0054588076 0.0035737725 0.0024697063 -0.0012343104 -0.0005987394 0.005564657 0.0049437927 0.00021614356 -0.005304942 0.0018314647
