56 64
0 0.32662657 -0.32714495 0.24668153 -0.33209494 0.07482109 0.011507636 -0.038192715 -0.21988821 -0.08820948 -0.045604233 -0.30578873 0.2666848 0.14865963 0.28346366 0.19240862 0.014837865 0.24900477 0.21762143 -0.1321343 -0.026778914 -0.45341483 -0.14120506 0.030870434 -0.12102257 -0.25235164 0.061137665 -0.4502073 -0.075871 -0.0850855 -0.23939328 0.19075437 -0.30448902 -0.091904685 -0.008114973 0.08553609 -0.2341781 -0.16500959 0.04696016 0.075267665 -0.13129969 0.03576473 0.14660375 -0.24092287 -0.038861383 0.15166938 -0.02221852 0.2898037 0.116341695 -0.06640052 -0.10424808 -0.08781059 -0.12204311 -0.15007433 -0.008556225 -0.26799133 -0.04687617 -0.061797168 0.26400042 -0.18143663 -0.07395955 0.13618149 -0.13793539 -0.20158055 -0.30888596
1 0.3393314 -0.35764706 0.3279111 -0.30760455 0.07584659 0.069698445 0.11628467 -0.10325912 0.083176196 0.15068847 -0.099178724 0.32916218 0.17314844 0.23400535 0.19075769 0.016636042 0.0971426 -0.04163951 -0.04078253 -0.005138868 -0.49522644 -0.1368256 -0.07886875 -0.20293917 -0.28072533 -0.15002267 -0.43983757 -0.13754368 -0.09762863 -0.18462424 0.1729743 -0.19539535 -0.0020558692 0.10278092 -0.045421246 -0.23588398 -0.19088976 -0.036764678 -0.17340975 -0.08507273 0.003425282 0.14787085 -0.013286175 -0.2164837 0.034744676 -0.10507076 0.10225033 -0.0537824 0.108060025 -0.13656479 0.13104726 0.06899716 -0.12917466 -0.19686012 -0.27976987 -0.045422297 -0.22026587 0.32987106 -0.18758015 -0.105087385 0.0761542 -0.2482643 -0.18638553 -0.34765208
2 0.22546847 -0.2545016 0.22390342 -0.35743177 -0.044190254 0.07751709 0.20457992 -0.22640708 -0.04798402 0.05550164 -0.03971727 0.28454265 0.07866838 0.36686686 0.068263724 0.16645055 0.2816194 0.06759591 -0.17121422 0.19821237 -0.39276913 -0.11476767 0.009584676 -0.12890741 -0.34153262 -0.05594608 -0.33361977 -0.06964294 0.009648828 -0.09335731 0.34157577 -0.09032783 -0.21655501 -0.042124458 0.09140584 -0.2756457 -0.14914289 -0.0035518077 -0.20572634 -0.15427573 -0.1649048 0.19797112 -0.16720395 -0.097174555 0.16279893 0.007917423 0.19536176 -0.030902863 0.10908821 -0.17263561 -0.038635112 -0.112270854 -0.2330125 -0.15160811 -0.31248814 0.022272635 0.09069899 0.3599812 -0.06819509 -0.14068809 0.08009604 -0.20625575 -0.17535146 -0.4507195
8 0.26640695 -0.38047993 0.21123633 -0.29218274 0.06226243 0.058712393 0.08468178 -0.30731964 0.041208316 0.09037301 -0.18591952 0.22620478 0.056634888 0.25328693 0.22409599 0.16982788 0.22141227 0.19719927 -0.071640015 0.09096479 -0.19541158 0.0043059075 0.030881157 -0.09221283 -0.33917943 -0.0043217083 -0.3383352 -0.21760933 0.037993632 -0.10919936 0.22435807 -0.1716135 -0.28790864 0.16478674 0.02547766 -0.29217502 -0.19678786 0.07337911 -0.20629102 -0.105879374 0.019201351 0.11637279 -0.21438207 -0.16391563 0.1514517 0.04961939 0.2267281 -0.015664523 0.15486369 -0.17902024 -0.050346266 -0.021710541 -0.0990988 -0.17994396 -0.26991546 0.028133066 0.047487225 0.22693524 -0.09783597 0.0254284 0.14280492 -0.2894899 -0.17562878 -0.45179164
3 0.2492422 -0.23274784 0.16834532 -0.34151778 0.04737045 0.056377493 0.13858745 -0.13170749 -0.054177396 0.18113154 -0.15256578 0.30262572 0.18374158 0.28401634 0.1646951 0.048787344 0.13585524 0.01686447 -0.13744764 0.13927104 -0.45890704 -0.16134205 -0.1043275 -0.16731423 -0.29912612 -0.17370296 -0.54168046 -0.11175888 -0.17463107 -0.11912992 0.18803902 -0.16262159 -0.17418648 0.056101974 -0.14753462 -0.30620387 -0.22711034 0.036267165 -0.22418371 -0.13261019 -0.022970738 0.1432286 -0.01793795 -0.16359536 0.061942205 -0.07214143 0.104297206 -0.0538504 0.15350942 -0.15475516 0.11878172 0.09469357 -0.07857018 -0.11784181 -0.32269356 -0.03699201 -0.2180115 0.3175402 -0.1343958 -0.05066032 0.046619467 -0.15023388 -0.11390405 -0.35029197
4 0.41140082 -0.40383542 0.42485458 -0.22733413 -0.0019651162 -0.004501797 0.09755293 -0.03588721 0.10182324 -0.04587041 0.20115799 0.1792602 0.006415841 0.36484578 -0.12410477 -0.078680135 0.18521936 -0.05623187 -0.15322712 0.013538942 -0.32951996 -0.09432536 -0.0066912407 -0.32122803 -0.2943396 -0.18388043 -0.31600466 -0.06673159 0.11394114 -0.39052492 0.14449736 -0.15234323 0.03163406 -0.014355112 0.26490098 -0.12845677 -0.11756334 -0.054871235 0.11367836 -0.06706254 -0.13531879 0.1396784 -0.3562233 -0.11750314 0.10563044 0.02993183 -0.0004863201 0.19276093 0.009285011 -0.2937711 0.06005476 -0.15502936 -0.28181407 -0.04605057 -0.24907325 -0.1060765 0.028598687 0.2535264 -0.28774804 -0.19968735 0.15162005 -0.22343707 -0.13808624 -0.14742625
6 0.3932759 -0.4304786 0.3809431 -0.30742446 0.075341776 0.05792783 0.027908925 -0.22817627 0.091920696 -0.020497497 -0.060994994 0.23680197 0.05579729 0.2534065 0.09801536 -0.019815886 0.2856826 0.115616865 0.0008341124 -0.12022334 -0.34025022 -0.038013145 0.058801014 -0.1520619 -0.3233862 0.09382621 -0.2892665 -0.13867104 0.09050307 -0.2694123 0.18401304 -0.26206604 0.017286154 0.058195416 0.25436017 -0.13886645 0.0055422084 -0.10552595 0.12566596 -0.07698973 0.04273148 0.21246596 -0.2471963 -0.1619967 0.14732505 -0.05781466 0.22815605 0.14366259 -0.07595192 -0.10064681 -0.11872843 -0.20595852 -0.2522069 -0.15006343 -0.1528587 -0.024503434 0.041465424 0.25730088 -0.2293606 -0.097909525 0.2900995 -0.29144037 -0.2537424 -0.37898317
21 0.39102423 -0.42607537 0.3168265 -0.42876592 0.116169855 0.1411342 0.07455382 -0.38750938 0.069410175 0.013616094 -0.11168706 0.3237342 0.06123743 0.25008154 0.19570102 0.061091207 0.37616244 0.20276652 -0.023979185 -0.0797986 -0.3185291 0.0078007183 0.052366603 -0.026707169 -0.38014448 0.1774028 -0.28374666 -0.1871408 0.10232617 -0.11637753 0.28991976 -0.2555391 -0.121141784 0.044529982 0.26714882 -0.1575405 0.07031448 -0.11878608 0.026601544 -0.09264161 0.09012673 0.3046902 -0.1590493 -0.1916847 0.22478423 -0.048763897 0.3517244 0.01680123 0.0074307844 -0.08646448 -0.22218573 -0.17771436 -0.2387033 -0.28644776 -0.15213062 0.12223015 0.08653869 0.27688023 -0.14364564 -0.0678498 0.36035433 -0.35854268 -0.3341693 -0.58720905
29 0.3302859 -0.46280533 0.4690684 -0.23085648 0.19890566 0.05943866 -0.024987856 0.0015043407 0.28383344 0.43138775 -0.5886149 0.06458053 -0.12284243 0.40401483 0.61454934 -0.016938742 0.022288691 0.31811383 0.2506262 0.08377378 0.09830588 -0.27750513 0.13742998 -0.24771218 -0.3730434 -0.1029468 -0.89409965 -0.4775385 -0.008662748 0.13309102 0.14518906 -0.344309 -0.28395778 0.47387344 0.026319368 -0.410542 -0.6254988 0.3830832 -0.2447672 -0.055441223 0.18837565 0.032295343 -0.5585819 -0.29644006 0.12424915 -0.04301672 -0.030185692 -0.1414246 0.3664042 -0.21414931 0.23785417 0.260624 0.014870154 -0.30227408 -0.40915138 -0.08748995 -0.16352156 0.0076165576 -0.12907654 0.25697207 0.21497364 -0.32517308 -0.12233862 -0.36641726
5 0.2727326 -0.24190699 0.27277416 -0.3949737 0.009002602 0.07284004 0.16972291 -0.11918405 -0.050199375 0.10195056 -0.15055348 0.29501623 0.12205853 0.31445712 0.15179345 0.024979208 0.25432932 0.002886183 -0.08934355 0.10371985 -0.56357604 -0.1784162 -0.031494748 -0.13926916 -0.3386269 -0.03395748 -0.4678445 -0.0579568 -0.121766865 -0.11248461 0.26662987 -0.16474538 -0.033501286 -0.0428513 0.0061626043 -0.22452633 -0.12926349 -0.029071659 -0.13630661 -0.13673751 -0.07977142 0.23007984 -0.08412899 -0.13381557 0.11730166 -0.09100379 0.1857749 -0.026554212 0.022257252 -0.083360344 0.035419717 -0.060786597 -0.21495335 -0.1660437 -0.30243617 -0.045767833 -0.085099325 0.4012044 -0.098995104 -0.17406869 0.0846301 -0.21523216 -0.2100288 -0.41002864
50 0.21796438 -0.1838806 0.1655835 -0.43483338 -0.029039936 0.12150401 0.24622001 -0.18069121 -0.10617369 0.1723906 -0.0877203 0.37355244 0.19084838 0.30596256 0.14692275 0.13775054 0.24315585 -0.033103522 -0.21032861 0.26966667 -0.6092828 -0.1710555 -0.099704124 -0.10194564 -0.37423164 -0.14473851 -0.4634106 -0.042926818 -0.17549448 -0.027799617 0.31665793 -0.08003442 -0.21168791 -0.03594712 -0.11907711 -0.30431795 -0.17650704 0.007798139 -0.34813544 -0.16662933 -0.16195135 0.20185603 0.04555198 -0.17790554 0.10845888 -0.07563944 0.17246644 -0.16030201 0.17516516 -0.1385702 0.08940731 0.038362283 -0.15056634 -0.21234001 -0.36587512 0.020552173 -0.105047904 0.44647798 -0.039840803 -0.19096404 -0.03751111 -0.22073027 -0.15923716 -0.49413913
39 -0.5827827 -1.1594399 0.030750137 0.5228465 -0.5415793 -0.899355 0.93111986 -0.8988007 -0.59882134 -0.44490787 -0.094733104 0.39198348 0.5587766 0.9646579 -0.7641137 0.7267178 -0.8665068 0.41053662 0.4198925 -0.97209644 -0.30482727 0.16114737 -0.21429756 -1.1753812 0.25093603 -0.5459904 0.18487993 -0.6775594 -0.048745688 -1.4116359 0.30712172 0.25239697 -0.16978142 0.3035259 -0.98304445 -0.9754421 -0.6823408 -0.4114105 -0.72641325 -0.87171894 -0.22682537 -0.6674669 0.8556763 0.647773 -0.42999482 0.29539788 0.77494746 0.1307003 -0.12255854 0.002142793 0.4595084 0.037247885 -0.6626238 0.9348128 -0.82947195 -1.0888233 -0.45516768 0.4612569 -1.0198455 0.8845459 0.82885313 -0.16542803 0.16470365 -0.7985449
52 -0.6016392 -1.1918638 0.0336363 0.5584518 -0.5656556 -0.94020224 0.9044535 -0.9323314 -0.6750824 -0.5268042 -0.2174657 0.35724247 0.60707366 0.98576146 -0.76609534 0.72828066 -0.8504416 0.45193145 0.41886356 -1.0268749 -0.33289525 0.18378939 -0.17024025 -1.2036824 0.28249758 -0.47028187 0.23282564 -0.66387165 -0.07309792 -1.5056102 0.32095098 0.23267387 -0.12146685 0.2656544 -1.0060139 -0.9957358 -0.69196403 -0.38051087 -0.6737228 -0.94784105 -0.2283716 -0.71528834 0.8237106 0.7065553 -0.41808218 0.29885706 0.850401 0.23417099 -0.22738537 0.020277524 0.4626997 -0.05102515 -0.71039903 1.0273379 -0.8389882 -1.1554854 -0.4309867 0.47952008 -1.0649662 0.912517 0.8237294 -0.1192969 0.1753209 -0.7980529
12 0.370874 -0.51764435 0.6262348 -0.1265307 0.17387268 0.0068885367 -0.029117608 0.1229977 0.36077908 0.43130976 -0.5059349 0.0076392423 -0.14502312 0.46607873 0.51764226 -0.0769407 -0.0076440847 0.2705002 0.31521907 -0.017171396 0.09342685 -0.33745205 0.18768597 -0.37056926 -0.3394534 -0.13570173 -0.84140885 -0.46292275 0.057956103 -0.0012177648 0.08810643 -0.32558486 -0.13370788 0.45561334 0.1463659 -0.40527785 -0.6152676 0.35188243 -0.15446605 -0.037891537 0.14927407 0.046458084 -0.6571992 -0.28150952 0.07065822 -0.055540107 -0.10415434 -0.07251709 0.29872534 -0.20761316 0.2790786 0.20246615 -0.09851061 -0.26715636 -0.4126049 -0.16696832 -0.15995489 -0.013857803 -0.20009421 0.2433677 0.27661833 -0.30781186 -0.11525025 -0.2901137
22 0.14944744 -0.32886463 0.21694994 -0.22998622 -0.14984916 0.057153538 0.3428111 -0.29193786 0.0061444035 -0.01732923 -0.03771539 0.17377712 -0.07569731 0.5277607 0.13000815 0.3408022 0.2841475 0.07309786 -0.1842806 0.3557063 -0.16871539 -0.028657265 0.19978896 -0.17513439 -0.43470943 -0.04427608 -0.14842711 -0.0746124 0.15888247 -0.06454486 0.5002915 0.069062434 -0.36246413 -0.035184603 0.20650044 -0.36524913 -0.32244024 0.107362546 -0.37741902 -0.2052775 -0.30002773 0.09761731 -0.2961855 -0.06763922 0.25098422 0.1594587 0.20349388 -0.058344904 0.22421996 -0.2502367 -0.04867176 -0.23933585 -0.24611299 -0.18903603 -0.43687916 0.014094465 0.38386533 0.30562302 0.015085463 -0.16630399 0.06436588 -0.27376604 -0.15232913 -0.4883504
17 0.24456643 -0.36009985 0.43413106 -0.17682944 0.061600264 -0.037408467 0.020995779 0.10221507 0.16972673 0.2376866 -0.45286587 0.08824297 -0.04946373 0.4318441 0.41432628 -0.058165286 0.004188115 0.14972852 0.19554527 0.03046156 -0.16558088 -0.3173306 0.1369756 -0.2898168 -0.22342312 -0.06461776 -0.7204911 -0.23891202 -0.09501153 -0.03382578 0.1564613 -0.2476672 -0.038070545 0.21892087 0.035727207 -0.3171198 -0.48896667 0.23423144 -0.1260932 -0.095024645 0.02130885 0.039535426 -0.40779254 -0.1433304 0.0805912 -0.09094348 -0.036418892 -0.030123958 0.12982327 -0.086774796 0.22628927 0.081708424 -0.115317225 -0.14032166 -0.38073796 -0.1956998 -0.175471 0.1322881 -0.15553598 0.06630086 0.12682594 -0.20938142 -0.09238602 -0.25255176
28 0.59722656 -0.63310903 0.53778744 -0.42870748 0.26479912 0.1645323 -0.032744482 -0.5032158 0.17335172 0.024624925 -0.117513366 0.33091527 0.07234671 0.16669601 0.22314595 -0.021364791 0.5157294 0.3680775 0.14635117 -0.36791787 -0.2957892 0.065410435 0.073726565 0.029704485 -0.46518752 0.3131846 -0.18674359 -0.28780273 0.27660307 -0.22168623 0.2091651 -0.39454705 0.030201446 0.19921015 0.5020751 -0.106999636 0.26218975 -0.2022045 0.21109878 -0.071163565 0.25312182 0.32660058 -0.24746776 -0.2516777 0.20691542 -0.12060448 0.52522457 0.098481916 -0.14972633 -0.0129093155 -0.40776554 -0.2658991 -0.37010068 -0.4237302 -0.01417387 0.18288939 0.15360712 0.25928628 -0.22063653 0.011826856 0.5991538 -0.52377534 -0.41782495 -0.7440503
38 0.3522229 -0.29232845 0.26292172 -0.37999496 0.13153797 0.080265686 -0.0024267852 -0.17808084 -0.100278854 0.16087715 -0.34025407 0.27252933 0.22262885 0.15201448 0.23684861 -0.02040917 0.28656662 0.15798219 -0.077545814 -0.006909119 -0.5760661 -0.15107012 -0.0837754 -0.07526701 -0.3469176 -0.010317588 -0.51561445 -0.14588568 -0.18143627 -0.16559699 0.11068734 -0.31585902 -0.05521188 0.116037734 -0.10128882 -0.25265318 -0.1214794 0.06251664 -0.07310973 -0.1386953 0.09790601 0.14966327 -0.12961346 -0.17455187 0.046900403 -0.09228124 0.2838258 0.036639098 -0.03678412 -0.08178593 0.0025727688 0.006823389 -0.108490355 -0.12537555 -0.24052614 -0.039517973 -0.18687749 0.34209716 -0.1530664 -0.024403274 0.07197511 -0.20766029 -0.18210593 -0.3924848
24 0.1939625 -0.2548443 0.18300383 -0.3594547 -0.0018117884 0.088939436 0.30099788 -0.2638419 -0.04702692 0.18722656 0.013079144 0.3445283 0.12672946 0.2770865 0.07432462 0.20702516 0.19743308 0.044099677 -0.10947395 0.17207743 -0.41000655 -0.10537938 -0.105958365 -0.10086199 -0.34234154 -0.16407818 -0.3095902 -0.14267755 -0.027635153 -0.035743713 0.29162145 -0.019575836 -0.258812 0.05867233 -0.051410515 -0.2725761 -0.14108652 -0.04717112 -0.36515278 -0.1439535 -0.106849216 0.154303 0.061294157 -0.15118779 0.09568137 -0.052294064 0.20286754 -0.19386081 0.22602125 -0.12599559 0.01550192 0.0673192 -0.16507506 -0.23804149 -0.315854 0.051519815 -0.06378426 0.37640023 -0.047440022 -0.09160877 0.08594159 -0.28605622 -0.16219848 -0.5477987
31 0.23323494 -0.16173314 0.08120119 -0.39675292 0.001523359 0.08160007 0.031724382 -0.22780357 -0.1947363 -0.039594296 -0.2429131 0.28847373 0.17522618 0.3100333 0.112054944 0.083125725 0.29488087 0.10706315 -0.31229308 0.18167451 -0.5293265 -0.1211927 -0.03877646 -0.08680678 -0.31552792 -0.0031245777 -0.5023424 -0.015299134 -0.18096823 -0.15672648 0.28840163 -0.24196339 -0.23357062 -0.13125768 -0.056004416 -0.29937708 -0.17796391 0.08984206 -0.06356111 -0.18029137 -0.081258625 0.20929821 -0.16885963 -0.046787012 0.1506907 0.07580449 0.28059238 0.04817677 0.0015556538 -0.19558352 -0.028018596 -0.09034888 -0.14389771 0.019777251 -0.31570953 -0.00059183734 0.014914734 0.32567897 -0.12659438 -0.1329412 0.010791936 -0.049813427 -0.15466088 -0.31831208
15 0.2723659 -0.16844696 0.107715145 -0.4192868 0.046266142 0.09744631 0.0028549477 -0.27485868 -0.21259019 -0.05559592 -0.27914673 0.30824697 0.20880328 0.2717702 0.12924214 0.07893004 0.35215127 0.15514377 -0.29267797 0.1457012 -0.5416564 -0.10923807 -0.042049732 -0.04225529 -0.34755722 0.05913074 -0.46637276 -0.015085434 -0.16770406 -0.15367365 0.2717133 -0.28292492 -0.23043165 -0.11924607 -0.02875337 -0.30162868 -0.093923785 0.06594368 -0.008026534 -0.1859933 -0.03240875 0.23642108 -0.15533346 -0.05924983 0.1743025 0.060173836 0.3328506 0.06276448 -0.027869146 -0.160113 -0.09818838 -0.11020976 -0.14123449 -0.011884006 -0.27033454 0.03563461 0.017804533 0.324153 -0.13158706 -0.10977938 0.050732475 -0.062800325 -0.17870615 -0.3718708
42 0.95769185 -0.6604144 0.606965 -0.1596683 0.17597848 0.106221825 -0.09093662 -0.21502055 0.11060481 -0.09298516 0.80366457 0.29998997 0.16205102 0.27567816 -0.72881585 -0.029747905 0.3895559 -0.008326743 -0.685203 0.042456247 -0.34441948 -0.0030912617 -0.262972 -0.621688 -0.5620654 -0.74351716 -0.16795975 -0.145364 0.4389794 -1.001141 -0.07003302 -0.2801591 -0.4031799 0.15227531 0.41772047 -0.29055107 -0.08979224 -0.03788625 0.36144838 -0.124994576 -0.14780161 0.029484706 -0.6567971 -0.35353887 0.045200422 0.29004958 0.050258406 0.3399829 0.22642978 -0.93854064 0.03423398 -0.11935414 -0.22254518 0.105967544 -0.2519598 0.038953148 0.08107273 0.09273873 -0.77831113 -0.21171618 0.12559722 -0.21002364 -0.008780021 -0.0064443885
19 0.35674468 -0.47256717 0.59578735 -0.19969504 0.15807441 0.04119074 -0.0045431806 0.09510711 0.35758707 0.46730885 -0.5659961 0.048550673 -0.16443168 0.48798203 0.6108325 0.0068074353 0.020503419 0.3027264 0.27776167 0.14005522 0.08858744 -0.35773432 0.20992178 -0.32925755 -0.35617805 -0.1279395 -0.89325064 -0.4439646 0.044372495 0.102027126 0.17500834 -0.29806286 -0.2769439 0.45544615 0.12799112 -0.44000983 -0.6701518 0.41537496 -0.2590818 -0.056085635 0.10720492 0.029467715 -0.6693962 -0.29545796 0.11789451 -0.058478404 -0.10528502 -0.1391073 0.38763085 -0.21455151 0.26909754 0.21286488 -0.049640495 -0.3222511 -0.4487716 -0.119166285 -0.14832939 0.023432335 -0.13978663 0.21323028 0.1789735 -0.3552757 -0.11313836 -0.36767352
16 0.6792975 -0.43441638 0.4114209 -0.21529242 0.084107414 0.12490792 -0.0080114305 -0.13744144 0.03639104 -0.032090735 0.60161805 0.26291874 0.17381224 0.24158207 -0.5209183 -0.011997909 0.26598522 -0.09178965 -0.60481596 0.20232151 -0.369798 -0.016590428 -0.22431229 -0.47718173 -0.4565213 -0.6059178 -0.27143264 -0.05664834 0.2302599 -0.7049015 -0.015525492 -0.22102961 -0.36255023 0.08682815 0.18216771 -0.26958817 -0.14379574 0.02120669 0.14954613 -0.09068565 -0.19632117 0.06949803 -0.49239072 -0.28312033 0.02092136 0.20165116 -0.04898791 0.2516844 0.22081034 -0.74238074 0.13359049 -0.046655346 -0.1687633 0.07151832 -0.25967386 0.020808205 0.012589171 0.16108125 -0.55034757 -0.20483471 -0.023163816 -0.16484997 0.0034450872 -0.028172554
43 0.34209237 -0.39821944 0.70255125 0.028881736 -0.217109 -0.24064825 0.22715563 0.32007155 0.23539928 -0.12616858 0.16941062 0.0047362954 -0.18481295 0.7912857 -0.17223531 -0.17725888 0.0054642074 -0.25044003 0.03767231 0.041213155 -0.34835193 -0.35123226 0.27467686 -0.69462556 -0.16234365 -0.21625884 -0.3836868 0.10494621 0.17110297 -0.6065993 0.19269758 0.0011539664 0.3165811 -0.23883295 0.46363935 -0.20305543 -0.37799194 -0.02328293 0.2616487 -0.07516156 -0.36529684 0.14505476 -0.60754687 0.072425514 0.07954403 -0.04739187 -0.23261845 0.35353127 -0.05650326 -0.1847986 0.24450071 -0.3720766 -0.50985444 0.074494675 -0.45005295 -0.4191687 0.019490186 0.2576215 -0.3806727 -0.2948171 0.16699165 -0.1332774 -0.09024657 0.072229825
23 0.34653497 -0.3056179 0.35393092 -0.20247824 0.19883184 0.08874119 -0.03966741 -0.101932466 0.10672038 0.4012802 -0.41829747 0.10833009 0.054294985 0.20003924 0.3590135 0.08494131 0.14411563 0.32027838 0.020056704 0.11458515 -0.0780632 -0.19920245 0.016984649 -0.17981546 -0.33353865 -0.18318954 -0.58523625 -0.34208417 0.016036015 -0.005159408 0.0551323 -0.2599975 -0.38253877 0.3752282 -0.04571269 -0.41367835 -0.41053557 0.3216138 -0.24940196 -0.12581976 0.15933764 0.0009768007 -0.39560258 -0.2530606 0.041230228 -0.029207913 0.12221008 -0.11559817 0.31604898 -0.25248647 0.13734971 0.22082251 0.01768189 -0.22755152 -0.31815872 0.028137999 -0.13614231 0.032909624 -0.13492084 0.23281008 0.0782278 -0.22369376 -0.07363577 -0.37385085
10 0.28575325 -0.29392266 0.20831789 -0.3862062 0.063757546 0.09219149 0.012159884 -0.21462889 -0.028400782 0.081242345 -0.3011782 0.23399708 0.10101593 0.25755188 0.2770742 0.056696016 0.27610502 0.12877324 -0.10906339 0.113653176 -0.43072838 -0.09656383 0.0021037476 -0.07217104 -0.36320466 0.03868774 -0.51970834 -0.13209905 -0.12564881 -0.11625183 0.23869249 -0.26679656 -0.1595552 0.069646426 -0.032024458 -0.25798872 -0.19822893 0.08788469 -0.105490506 -0.111124255 0.0043279403 0.16081965 -0.20770042 -0.16427809 0.13407859 -0.009415768 0.233926 0.021815449 0.023698222 -0.13873222 -0.020181943 -0.060340546 -0.103711724 -0.12662904 -0.28405812 -0.020719158 -0.034213606 0.3269438 -0.11435011 -0.0799916 0.06842194 -0.21880727 -0.186165 -0.38702047
18 0.22224753 -0.24407448 0.15844135 -0.30289295 0.038735144 0.05164547 0.042083584 -0.20965274 -0.046862174 0.051174425 -0.27504745 0.21482025 0.09848408 0.30668354 0.2128962 0.10093389 0.20880647 0.12896068 -0.13081436 0.123414725 -0.33881885 -0.09550085 0.033797428 -0.112474225 -0.2904171 0.010463058 -0.47180507 -0.10511298 -0.08660945 -0.1186597 0.24222839 -0.20779923 -0.20175521 0.0071606343 -0.026291799 -0.29833922 -0.22733814 0.09518882 -0.10638063 -0.12894791 -0.00931648 0.15917617 -0.18598714 -0.09191487 0.113736466 0.027850028 0.21381658 0.028790053 0.07388864 -0.14692038 -0.009401227 -0.061190885 -0.12410496 -0.06910975 -0.29100892 -0.01594986 -0.0010609603 0.24733186 -0.13002552 -0.02521215 0.0827934 -0.13094282 -0.15080483 -0.33721754
25 0.28697565 -0.24673018 0.20538689 -0.28207085 0.09966132 0.06167867 0.047413334 -0.21326864 -0.060035367 0.13716008 -0.19082516 0.23407854 0.15440817 0.2166735 0.12131405 0.07145319 0.21959959 0.1592083 -0.12384243 0.06280878 -0.349725 -0.104941525 -0.061840985 -0.11411648 -0.29663414 -0.10431143 -0.40191448 -0.13925609 -0.050999198 -0.15435712 0.14242943 -0.19372211 -0.22373654 0.08790069 -0.053193398 -0.28922874 -0.15178856 0.08137858 -0.122694254 -0.14145067 0.038637664 0.1221106 -0.13316295 -0.1282374 0.06075024 -0.012639317 0.23241772 -0.0044044065 0.109818265 -0.1721322 -0.0011570661 0.027605066 -0.107395165 -0.10361552 -0.25728244 0.01182098 -0.091946185 0.23099792 -0.15089697 0.030912418 0.09322244 -0.16290213 -0.12166823 -0.3630135
14 -0.022276832 -0.3116646 0.18431017 -0.14687338 -0.13833201 -0.1897929 -0.067894585 -0.2649734 -0.43714282 -0.29003698 -0.951362 0.020433791 0.13944091 0.3199268 0.4244882 0.03226992 0.33973175 0.41350272 0.09358787 -0.15962328 -0.6190414 -0.18176395 0.26412404 -0.096800804 -0.211154 0.4642943 -0.32675454 -0.019891784 -0.31945902 -0.3490461 0.25793937 -0.29500115 0.1104006 -0.06486126 -0.14750217 -0.33327347 -0.28671193 0.19489767 0.096256055 -0.43025476 0.051379696 -0.14018695 -0.2557646 0.22888611 0.13308042 -0.014438456 0.60880595 0.37573323 -0.5460567 0.18792158 -0.07459103 -0.49022132 -0.21410951 0.27797836 -0.38270125 -0.42244172 0.13485952 0.2712197 -0.19168247 0.0527536 0.016068786 -0.017982611 -0.18803848 -0.35816884
7 0.27899387 -0.265411 0.16622591 -0.35574496 0.08725688 0.048806727 -0.054647613 -0.26198933 -0.16423233 0.0017972189 -0.38229156 0.27487904 0.20721865 0.21257599 0.21897495 0.023920242 0.2828868 0.16408722 -0.120790504 -0.028496433 -0.5671174 -0.121932454 -0.037317224 -0.067773536 -0.3110621 0.0867061 -0.50416565 -0.07313985 -0.19228746 -0.2221514 0.18115374 -0.32400307 -0.07408032 0.010039369 -0.10657393 -0.25556916 -0.109592594 0.039050635 0.04107786 -0.16242172 0.06880857 0.1531056 -0.08653269 -0.0777556 0.075058244 -0.042093664 0.34921777 0.083181 -0.113870025 -0.047845885 -0.077663444 -0.093707226 -0.12645558 -0.01815708 -0.24306726 -0.058816757 -0.10215595 0.34039372 -0.19545825 -0.051021688 0.10093828 -0.13790631 -0.1825539 -0.353483
20 0.3206054 -0.24545099 0.248166 -0.3431591 0.08040077 0.051552337 -0.08144938 -0.14775816 -0.09584679 0.020262115 -0.3941655 0.21668178 0.13868415 0.2837797 0.25520015 -0.024783833 0.2867922 0.13554798 -0.13054647 0.055682387 -0.51045346 -0.18359879 0.03311118 -0.120174125 -0.3151307 0.062468957 -0.6047709 -0.060013525 -0.17031722 -0.20445769 0.1866149 -0.33728606 -0.0790574 -0.03087934 -0.022276985 -0.27254412 -0.18399547 0.10401665 0.089039296 -0.14457718 0.041906353 0.19799295 -0.25894478 -0.100600675 0.115338005 -0.023552408 0.24750796 0.11885751 -0.06705843 -0.11595822 -0.018262677 -0.11253528 -0.124022275 -0.025991505 -0.28313383 -0.07221948 -0.077672236 0.26768845 -0.2055179 -0.07009852 0.07482457 -0.08984343 -0.18258882 -0.2805811
41 0.9244205 -0.6914684 0.57621217 -0.12163883 0.13752212 0.11411405 -0.07390711 -0.32988897 0.03291561 -0.14477932 0.8412583 0.25696 0.21166255 0.2672931 -0.8375625 0.0385847 0.39500487 0.037972096 -0.8185837 0.123147205 -0.3184131 0.08289567 -0.27593616 -0.6653994 -0.60395724 -0.81736577 -0.09304469 -0.15543933 0.4791464 -1.095838 -0.09128562 -0.28035438 -0.58607936 0.19020107 0.33071628 -0.40494618 -0.16390081 0.0684385 0.2877412 -0.1754623 -0.20435764 -0.038104855 -0.76384306 -0.32456508 0.012901871 0.39786747 0.08722211 0.42623374 0.25485826 -1.0715588 0.079677865 -0.12871 -0.25246614 0.18459061 -0.2853457 0.054703128 0.16047442 0.07752441 -0.8296975 -0.113008484 0.053782325 -0.20741403 0.029680409 -0.047557943
9 0.27822357 -0.34298396 0.19854622 -0.33657467 0.08166541 0.08511034 0.035161607 -0.30202946 0.06842214 0.1274856 -0.30172876 0.22070755 0.046239626 0.27995598 0.3327939 0.1478306 0.22973177 0.20900662 -0.057772633 0.11202751 -0.2084201 -0.032698646 0.069557235 -0.07772675 -0.34941036 0.04862367 -0.46100944 -0.21612243 -0.005228705 -0.067401335 0.2591355 -0.21533027 -0.29397368 0.14771962 0.02249062 -0.30065155 -0.22328167 0.10033411 -0.1672749 -0.089701556 0.06335025 0.16267587 -0.22922605 -0.18357374 0.1630763 0.029617663 0.23758118 -0.028868455 0.15570958 -0.15864591 -0.06565733 -0.028831432 -0.07722484 -0.19007468 -0.28399327 0.043899603 0.03229786 0.2215875 -0.10608489 0.022744648 0.156205 -0.26657215 -0.19912684 -0.46332476
51 0.28353924 -0.27927777 0.20362645 -0.30597866 0.042820342 0.011673287 -0.055201005 -0.2601796 -0.19062679 -0.11147689 -0.32140505 0.23470499 0.19161113 0.22493364 0.12365031 -0.0012117026 0.32614714 0.14866292 -0.15059687 -0.05597006 -0.5847737 -0.08473787 -0.0059122713 -0.101190284 -0.30037192 0.12500376 -0.3958544 -0.029946474 -0.15547284 -0.3237953 0.17896102 -0.30702475 -0.022125363 -0.070344 -0.03553932 -0.2297471 -0.067687966 0.006177062 0.14250372 -0.18391348 0.037108514 0.14299926 -0.1372702 -0.034847334 0.09760947 -0.005709826 0.37697834 0.20012437 -0.20698962 -0.069783665 -0.097208224 -0.22136375 -0.18874191 0.057742994 -0.22943053 -0.10577702 -0.017903889 0.3176796 -0.23933803 -0.077560075 0.09898071 -0.09425379 -0.18899943 -0.30570945
47 0.118317455 -0.33758223 0.22910492 -0.33251584 -0.21462584 0.07498635 0.36132398 -0.26219252 -0.047373075 -0.0681631 -0.07287018 0.2080305 -0.094348356 0.5299974 0.18045181 0.34474182 0.3320273 0.0775468 -0.217592 0.45630637 -0.27339146 -0.0656405 0.18771881 -0.1325074 -0.4785671 -0.005897723 -0.19545634 -0.024001926 0.089353345 0.008435537 0.57267386 0.049821533 -0.3394224 -0.034980826 0.19351394 -0.29086187 -0.36391294 0.13849787 -0.41284126 -0.2189018 -0.38132438 0.035407048 -0.32823178 -0.070291676 0.30315506 0.15564378 0.14852732 -0.066411465 0.15332839 -0.23432621 -0.025685273 -0.28806883 -0.24756789 -0.1642504 -0.48861176 -0.031617016 0.41944292 0.37821853 0.07525323 -0.304821 -0.058648083 -0.31491297 -0.17112283 -0.4786547
44 0.29006636 -0.44827366 0.7267229 0.009958793 -0.26890692 -0.29389364 0.27606675 0.3592573 0.26846898 -0.15603007 0.21420407 0.050621316 -0.18170851 0.85047954 -0.1420615 -0.17751943 -0.085158326 -0.30700913 0.11658212 -0.0034418372 -0.34527564 -0.35822377 0.30811286 -0.7319152 -0.0932881 -0.1840907 -0.41167346 0.11627796 0.15755577 -0.62061524 0.23288617 0.038732115 0.44202602 -0.26666614 0.4686977 -0.16560273 -0.38079515 -0.12366113 0.25073472 -0.050942775 -0.39403316 0.17123544 -0.5388089 0.08190271 0.09172599 -0.10570765 -0.33008686 0.3817774 -0.10712167 -0.103910096 0.27253073 -0.38352525 -0.5380447 0.10439274 -0.4692742 -0.510454 -0.021221986 0.28638348 -0.39277095 -0.33613256 0.20861349 -0.12803635 -0.10093319 0.09302888
36 0.63460195 -0.67102873 0.61227345 -0.5377909 0.25503373 0.20826282 0.027524788 -0.48994383 0.20506 0.040374085 -0.09900585 0.37826762 0.023721768 0.1814093 0.23374155 -0.03703607 0.5695426 0.35330582 0.1644338 -0.33027637 -0.3420697 0.027682848 0.08549101 0.02579569 -0.52476746 0.33915406 -0.19857024 -0.3038491 0.29456767 -0.16583978 0.27442244 -0.41974688 0.04473746 0.20022051 0.5886456 -0.04130027 0.2848916 -0.23843153 0.20451796 -0.056077644 0.24392486 0.3845853 -0.2924946 -0.29891682 0.28593516 -0.16553259 0.5050707 0.083137095 -0.13046657 -0.023938546 -0.4021178 -0.30454734 -0.3801033 -0.48129278 -0.039653476 0.17604433 0.13074395 0.31989753 -0.20111784 -0.088725165 0.6287074 -0.6098796 -0.515842 -0.8023299
48 0.33728194 -0.34276885 0.30769137 -0.36889052 0.047121875 0.094064415 0.11319785 -0.056708623 0.065117955 0.16064559 -0.034720246 0.28941378 0.11815916 0.21883093 0.140291 -0.046603266 0.14915864 -0.06649689 -0.054862857 0.06430196 -0.47556427 -0.13640827 -0.1227012 -0.18755427 -0.34789032 -0.16299646 -0.50823873 -0.15868692 -0.11309368 -0.13694707 0.17375676 -0.22531791 0.0047996556 0.13752921 -0.031122549 -0.17164277 -0.1688605 -0.029672323 -0.15991563 -0.06743535 -0.039763596 0.1301898 -0.11042664 -0.26215628 0.05525427 -0.08894872 0.02742126 -0.038294133 0.0683756 -0.19257282 0.15881854 0.07265813 -0.1288434 -0.18275696 -0.25241482 -0.06870622 -0.18237062 0.3586087 -0.16974817 -0.1564531 0.059374843 -0.28743324 -0.15527762 -0.32073748
30 0.34366477 -0.36741206 0.34774888 -0.34786466 0.012411725 0.08848421 0.19351335 -0.054576278 0.09879994 0.15830766 0.10915641 0.2977349 0.1083286 0.2525932 0.030362746 -0.0046947156 0.15852514 -0.1182679 -0.067835376 0.05871742 -0.49707696 -0.11695341 -0.12748183 -0.22147289 -0.35952297 -0.20194761 -0.40752575 -0.13104026 -0.035342664 -0.18295746 0.18525597 -0.15444998 0.030347154 0.11812109 0.0321774 -0.15006493 -0.12814239 -0.08311345 -0.18946607 -0.05610286 -0.12112917 0.14401434 -0.090697005 -0.24516663 0.039849106 -0.084065706 0.012847209 -0.03768302 0.077349916 -0.19111845 0.14240508 0.02841842 -0.20396714 -0.21109703 -0.26134324 -0.058087632 -0.1380527 0.41315728 -0.16490175 -0.20461108 0.081480056 -0.33478907 -0.15349317 -0.3429747
13 0.21864401 -0.30726743 0.27546358 -0.31909016 -0.032645408 0.05052833 0.15793656 -0.049262922 -0.036936752 0.11717879 -0.13693917 0.2264033 0.11721523 0.21244088 0.14300385 -0.010996154 0.1611067 -0.022317689 -0.025842264 0.077395044 -0.51742667 -0.15096822 -0.091688044 -0.17027742 -0.33002365 -0.10276156 -0.4369525 -0.1256608 -0.15655245 -0.12434848 0.19567499 -0.17204744 0.040105645 0.12533222 -0.08657469 -0.16883218 -0.20461795 0.007584926 -0.21335472 -0.13845296 -0.08985626 0.03319334 -0.08762187 -0.18456799 0.04048892 -0.07064852 0.07802499 -0.019583164 -0.023327377 -0.12285446 0.1650426 -0.0016840226 -0.15520352 -0.11708032 -0.27738944 -0.15335251 -0.12754935 0.38604409 -0.12621078 -0.16383351 -0.0061894814 -0.25779226 -0.11907471 -0.32302248
32 0.23675145 -0.29428452 0.18632609 -0.32763955 0.022523884 0.02014767 0.040097617 -0.30327302 -0.11585275 -0.08035989 -0.26431003 0.28022218 0.14357018 0.3089137 0.16658923 0.081610166 0.2693459 0.14645189 -0.076515466 -0.0554092 -0.47807527 -0.0677958 0.03803585 -0.07920233 -0.2702963 0.15513037 -0.35670352 -0.047829397 -0.078961946 -0.22386898 0.27665848 -0.24185221 -0.049469683 -0.08742529 0.040757813 -0.23071088 -0.04102043 -0.05614099 0.048510313 -0.15955268 0.011960766 0.22452965 -0.067728594 -0.031575855 0.14317162 -0.02477095 0.36371905 0.1058276 -0.111868784 -0.018747756 -0.14310582 -0.20565559 -0.22446312 -0.04035421 -0.2390111 -0.041301135 0.019342214 0.33596072 -0.16535434 -0.079049364 0.21001716 -0.1606238 -0.23620111 -0.41334656
45 -0.1386635 -0.31956202 0.19876191 -0.08131924 -0.29324993 -0.30642244 0.06582807 -0.238221 -0.49275672 -0.40642262 -0.9842165 0.004346615 0.1477707 0.4858272 0.38910607 0.08336172 0.2835417 0.34960523 0.08994198 -0.14953338 -0.72578657 -0.19777551 0.3603566 -0.2177576 -0.17237385 0.48360917 -0.2898069 0.080735646 -0.38078013 -0.45934168 0.3504824 -0.22331229 0.22632532 -0.18918867 -0.16362081 -0.36698157 -0.40400463 0.16160291 0.08315841 -0.49938688 -0.082876466 -0.17952059 -0.22544724 0.3353359 0.16027765 -0.011160616 0.58766997 0.44817343 -0.6325214 0.25648943 -0.041231517 -0.6231447 -0.30062535 0.40168968 -0.49889964 -0.5810367 0.17146087 0.35470253 -0.21413907 -0.029557347 -0.0010984967 0.048645258 -0.15819365 -0.32622066
11 -0.0077072037 -0.0005999711 -0.0044649714 -0.0029559059 0.0003737771 -0.004873724 0.0040431786 0.003439129 0.0033002715 0.0013102229 -0.0010991826 0.00558447 -0.0014566185 0.0009627431 0.0073256367 -0.0051668095 -0.0050109536 0.00023806408 -0.0041929823 0.0053284247 -0.0029613706 -0.0030404332 0.0037278496 0.0015810968 -0.0071237627 0.00422923 0.0067820544 -0.007448111 -0.0031400118 0.005162335 -0.0016755239 0.00035931682 0.001518756 0.004650633 -0.0051547205 -0.003818006 0.000837216 -0.0065660975 0.0025793095 0.0025561084 0.0008599373 -7.482757e-05 0.0061978027 -0.0032703974 0.004545805 -0.0040802923 0.0071820337 0.005881682 0.0036548777 -0.0032854713 0.002245882 0.003231764 0.0022821866 0.0053509213 0.0003213793 -0.0014664438 -1.2723837e-05 0.0016206016 -0.0052588317 0.0011681819 0.003949287 0.0071631176 -0.006688443 0.0019848421
54 0.00044983558 0.0024197432 -0.00029318582 -0.0015645146 -0.0010719527 0.0042469576 0.0016486604 0.0050113276 0.0011404891 -0.0069613215 -0.0062512457 -0.005294538 -0.004191479 0.0027762235 0.0036409115 0.0018935811 0.007629022 0.004182963 -0.006451536 -0.0040590223 -0.0046911007 0.00049821596 -0.0070050913 0.0040346985 -0.0040600854 -0.006137869 0.0001872011 0.0021079702 -0.0041765296 -0.005787623 -0.0035812387 0.0012234157 -0.0026755694 -0.002408843 -0.005613798 0.0039557717 0.006643406 0.0027177595 -0.0054808785 0.0067925714 0.006983262 -0.0012176142 0.0032672447 0.0015277207 0.0008470453 -0.0061383196 -0.0020287593 0.006591033 -0.00031715728 -0.0024718067 0.0016289596 -0.0032344395 0.0025696068 0.006201346 -0.00057373394 0.00402546 -0.0011510026 -0.0042782486 -0.0042692884 -0.002151995 -0.0021960337 0.0044413586 0.0029630158 0.0042551397
46 -0.005529413 -0.0050691357 0.0033727647 0.0035404116 -0.004632994 -0.00047355655 0.0022779957 -0.0013329377 -0.0013934094 -0.0036890819 0.0072302935 0.0037720625 -0.0012137741 0.0058195307 0.0031676576 0.006720378 -0.007549479 0.0071041826 0.004047268 -0.0038018622 -0.0046016597 -0.0066754916 0.0076167276 -0.0011550182 -0.005507211 -0.0037704147 0.00076724315 0.004158005 -0.0020703252 0.0052381465 -0.0068374164 -0.0039489507 -0.0045029693 0.0013414584 -0.0023328061 -0.0053307177 0.007241477 9.288769e-05 -0.00045371318 -0.0075240848 -0.0054266355 -0.007321323 0.006367257 -0.0003629491 -0.004566277 0.00015850608 0.0061738086 0.0036384722 -0.0025142592 -0.00698068 0.007740828 -0.0051799957 0.0034610988 0.00053607236 -0.0066042584 -0.007512434 -0.00016992902 -0.006210392 -0.006223121 -0.00028426934 0.003437092 0.004257015 0.0037396632 -0.0009770497
53 -0.0046174144 0.0065818704 -0.0015983789 -0.0040280977 0.0023895435 0.0059869126 -0.0076311906 0.0074584554 -0.003095682 0.003840437 -0.0027043228 -0.0045094932 -0.0054111667 -0.0024317484 0.0032119297 0.0005680812 0.0032228741 0.007209641 0.0073451973 -0.0010192827 0.0017997316 -0.0011439144 -0.0020774174 -0.006222485 -0.0024602816 0.0027644862 0.0043152394 0.002751874 -0.0051125824 -0.0059535895 -0.0041637197 0.0015004723 0.0057927556 0.005593939 -8.839586e-05 0.0058037504 -0.0059273816 -0.004705288 0.0048502213 -0.0017867334 -0.003432189 -0.0022591047 -0.007295362 0.0017407626 -0.0045969477 0.0025827317 0.001766879 0.006753121 -0.0065628365 0.0031965412 0.0046486747 0.006986399 0.0051119947 0.0055510015 0.004682716 0.00019126735 0.0043453765 0.0076465793 -0.0050347634 -0.00435162 -0.003463841 -0.0055585057 0.006044221 -0.0039304723
33 0.007636036 -0.0051129083 0.006568895 -0.00296399 -0.004099539 -0.0019565572 0.0002370649 -0.0049176975 -0.006575941 -0.0009475969 -0.0017637747 0.0031523355 -0.0028988018 0.0025148632 0.0019185634 0.0022597567 0.001912219 -0.004668336 0.005731305 0.0046859975 -0.0015942084 -0.0004924237 0.00013969354 -0.0018727083 0.001727251 0.0005608234 0.0042639608 0.001088228 -0.0015997235 0.0017549593 -0.0029509352 -0.0027248962 -0.0014364949 -0.000673693 0.0018089387 -0.007347802 0.0077848374 -0.0047621196 0.0040927203 -0.0014564137 0.0009600228 -0.0073415292 0.004263748 0.004973175 -0.0054829256 0.007488934 0.0032720563 -0.0031220408 0.0032672754 0.0055228868 -0.0025594097 0.0048348517 -0.0005499234 -0.0028094132 -0.0056580137 0.00011984315 0.0024816117 0.0012719615 -0.0066077244 0.007687093 0.004624 0.0014013472 -0.0017827457 -0.00058388995
49 -0.0042158 -0.0046813986 -0.0026753668 -0.0001161097 -0.005251788 0.0042431625 0.0029097418 -0.0064901276 0.003918442 0.006763628 -0.00062028994 -0.0069748014 -0.0059081307 0.0022795508 -0.0059698666 0.005370996 -0.005340875 0.0060719755 -0.0014650603 -0.005543348 0.0003903956 -0.0046311957 -0.0063093607 -0.00052359997 0.0026204372 0.0047434918 0.0009697601 0.006423919 -0.0057051466 0.0060779504 -0.003998413 0.0041115694 -0.0022426902 0.0048957756 -0.0021112731 -0.0019143723 4.2282423e-05 -0.0035888625 0.0037609607 -0.0063577443 -0.004113258 0.0013180682 -0.0020130365 0.005052149 -0.0075760707 0.0040931283 -0.00097420195 0.005854245 0.0069990945 -0.00022021779 -0.005910829 -0.007202385 0.0074372934 -0.006196048 -0.0008886108 -0.007034369 -0.0044084685 -1.0282984e-05 -0.0026531802 -0.0022600011 -0.0029598302 0.0023281903 -0.006498648 0.0013520127
55 0.0013464954 -0.0031909896 0.006257285 0.0013263489 0.007045363 0.0012402739 0.0028483446 -0.00084459665 0.0034523187 0.0038892692 -0.0017802418 0.002822141 -0.0009983636 0.0020980167 0.006329172 -0.0010722916 -0.005083988 -0.0033262714 -0.0043657618 0.00638259 0.0023240242 0.0019388545 -0.006614659 -0.005916976 -0.0036992293 -0.002426539 0.0045063966 -0.0006708617 0.003066741 -0.0057729487 -0.0011021046 -0.0017502551 -0.0008500301 -0.0071694274 0.0015617869 -0.0017758929 0.0017512823 -0.0043614376 0.0043847496 -0.004169742 0.0031109995 -0.0045234137 -0.0059915595 -0.0041152863 -0.003855207 -0.006306814 -0.0017305068 0.0013389197 0.0024020846 -0.0017298578 0.0041770646 -5.793055e-05 0.005374345 -0.0022946524 -0.00025997008 0.0039901524 -0.0031804515 0.006926518 -0.00020253895 -0.0034227797 -0.006381879 0.0025752813 0.0073998654 -0.007426107
40 0.0039590453 -0.0039613917 -0.0036162296 -0.007382255 -0.0045524365 0.0062619545 -0.0044728676 -0.00065743766 -0.0004288039 0.006945365 0.0069980873 -0.0032437409 0.0042710816 0.0056414125 0.003061364 0.0043118796 -0.002213269 0.006794031 0.0024453085 -0.0038470419 -0.005532766 -0.0034597719 0.0047799717 0.0038821744 -0.0031529095 -0.0066274763 -0.0067544207 -0.0042524524 0.00020314759 0.0077246316 0.006777177 -0.0069893547 0.004140703 0.0007118047 0.0055831876 0.0038834382 0.0040158913 -0.0015363977 -0.0007400879 -0.0046008644 0.004859158 -0.0009598289 -0.0035391278 -0.0027791674 0.0042826515 -0.0015038619 0.006483217 -0.001628413 -0.004520767 0.002900917 0.0038138677 0.0070302496 0.0016942795 0.006040917 0.005727849 0.007599576 0.000349526 0.00398143 0.0060415114 0.006642612 0.0059026564 0.0021337264 -0.0049327393 0.0027627358
35 -0.0023401142 0.00058668334 -0.006675047 -0.0074376413 -0.0015868867 -0.0001724508 0.0043114163 0.0010601251 -0.0059839264 0.0037930508 -0.00043737915 0.0060735885 -0.0072120735 0.005436948 0.0054547396 0.0014711512 0.00042769214 -0.0063569285 -0.0027471995 0.004261991 -0.0054479735 0.002704328 -0.0033920584 -0.003086135 -0.0018564484 -0.007359011 -0.0012988714 -0.0020729546 -0.0039404496 -0.00090730883 -0.0010145394 -0.0003192118 0.0012364946 0.0074407463 -0.0061053117 0.0036355015 -0.00024258398 0.004095922 0.003244038 0.0011149263 -0.0020719897 0.0046803295 -0.0034754872 -0.002465844 -0.00040312498 -0.0021008211 0.0032494946 -0.0016308215 0.0006034209 -0.00062722847 0.0071816263 0.00013939763 0.005938447 -0.0059230495 0.00179925 0.0072320215 0.004753609 0.0072939745 0.0051283995 -0.004792855 -0.005031482 -0.0011495753 0.00089127803 0.0022739328
26 0.004087548 -0.0062986915 0.0076804855 -0.0033353448 0.004890833 3.5204346e-05 0.0029678617 -0.00025655728 0.00081486366 0.004012911 -0.0034423328 -0.006053096 -0.004343046 0.0020796773 0.0059184097 0.004709794 0.0024875468 0.0010833871 0.006621072 0.0031197881 0.005576768 -0.0010946546 0.0036636598 0.0076473556 -0.001540311 0.0007831792 -0.0054486743 0.0023164628 0.0025819344 0.006818823 0.0054328577 -0.00035455739 0.002216727 0.005959846 -0.00015558173 -0.006812414 0.0021231503 0.0018356155 0.0016037673 0.0052160225 -0.0009801105 -0.006066225 -0.0046310076 0.0069356905 0.00034795504 -0.0056599407 -0.0025300193 -0.0026672701 -0.0037517312 -0.0051303855 0.0053396267 -0.005562855 0.0053694667 0.0038051433 0.006329044 0.0047133653 0.0067524137 -0.0052659013 0.002213331 -0.0034076183 -0.0018049009 -0.0070826565 0.0022974615 -0.0015929779
27 -0.0063909567 -0.0035173371 0.00754484 0.0037721372 0.00629777 0.0057595647 -0.0044208346 -0.0076908474 0.004719495 -0.0023149613 0.001714473 0.0012418827 -0.00094223995 -0.00073113205 -0.0034884633 -0.00017191026 0.0037172558 0.004282708 0.0047785253 -0.0026900147 -0.00084445643 -0.0037760807 0.0008857887 0.0022429104 0.00090748764 0.005100304 -0.0005411671 -0.0031433243 -0.0061752936 0.00091561495 -0.0036354673 -0.0016597956 -0.0047937683 0.0029993863 0.004037291 -0.004635334 0.0019486055 0.0026581618 -0.0076699303 0.0037077856 0.0054686405 -0.006018058 0.0027741995 -0.0008833968 -0.0012831581 0.004104999 -0.003461841 -0.006787201 0.0001331467 -0.0026439223 -0.007523926 0.0009880448 -0.0006474279 -0.004273239 0.0046285023 -0.0027670723 -0.001501463 0.0026175024 -0.003350759 -0.004152051 0.0036995164 -0.0069783377 0.005084772 -0.004057115
37 0.0022071132 0.007006582 0.001650982 0.005439219 -0.00029050495 -0.00741285 -0.0020218005 0.00763461 0.0072046393 0.0014494546 0.0007931521 -0.0002708108 -0.0050740936 0.0007429664 -0.0037821922 0.0017019747 0.0034718357 -0.0016774171 0.00384717 -0.0036538732 0.0014570269 -0.0038689442 0.0037809692 -0.0025026477 0.0033121973 -0.0011020529 0.0040382687 -0.0036606453 0.0076993927 -0.0010099987 0.0051497314 0.00096162385 -0.0013547167 0.003438673 0.007232876 0.00055865064 -0.0064469306 -0.0075498577 0.0047229193 0.004914188 0.0029121814 0.006458628 0.0052956287 0.0054285917 0.002920685 0.007528006 3.699806e-06 -0.0071040574 0.00041582136 -0.0046961107 0.004256041 -0.0015558639 -0.0009872603 0.000578147 -0.003760431 0.0025832038 -0.0019736325 0.003415413 -0.006285954 -0.002646081 -0.004808859 0.0005280644 0.006745673 -0.0044452865
34 0.0051149055 -0.0034228438 -0.0048118043 -0.00046022816 -0.0041503906 0.005293762 -0.0077300086 0.0017019197 -0.0035597505 0.006575104 0.005816712 0.0062745125 0.0027422425 -0.0056058825 0.0068866564 -0.006556948 0.0020243668 0.006977216 0.0014172557 0.0039901617 -0.0010482498 0.0021617548 -0.0028484226 0.004738409 0.00025476958 -0.0019052143 -0.00095371564 0.0060311765 0.0003034161 0.0050235633 -0.00704075 -0.0055190604 -0.004214791 -0.0028757618 0.006916513 -0.001070324 0.0010426135 -0.007036902 -0.0016904768 -0.0069475845 0.006090375 0.004216552 -0.0055895983 -0.004779375 0.0071553625 -0.0043876893 -0.0074421675 0.006532186 -0.0069482597 -0.0055928817 0.0030918298 -0.0018147967 -0.0052569727 -0.006046116 0.005516791 -0.0032966973 0.0013232712 0.0073153563 -0.0024787611 -0.006490882 0.007009675 -0.00035734216 0.00017539706 0.0032223235
